-6.377951876018668198e-01 2.063583848211001381e-01 -8.118734090225439015e-01 8.187211337991902038e-01 3.281520532486165154e-01 -9.291863611168180714e-01 8.570274505420499844e-02 7.722384127545476318e-01 -9.959868560437781237e-01 2.737040217518925678e-01 7.743258738902780713e-01 -5.344783673530745238e-01 7.594070495750435690e-01 -4.035492725763968336e-01 -3.519180927528108294e-01 -3.970542367960206570e-02 1.284756704931396265e-01 2.973161217440344339e-01
8.355617324762978360e-01 -3.731927679807530707e-01 -8.004224559367698055e-02 3.935969636294354285e-02 5.512333089759611227e-01 2.107839155147379628e-01 -1.039548249818770698e+00 -9.248681738226587346e-01 -3.242200023325497726e-01 -6.097005274838971367e-01 -2.287634673962588017e-01 7.129827944527344918e-01 9.176637720891729355e-01 8.845396138143108988e-01 4.562671463767086627e-02 9.124729120337347066e-01 -2.956142657464925216e-01 -5.813269785971331149e-01
5.674188507744037935e-01 -5.161947307424082920e-01 3.463878101671164639e-02 5.979518538500476765e-01 2.354683042427704875e-01 -4.749810906239985281e-02 -4.320054064660058257e-01 5.247350035243179001e-01 6.914775610389043425e-01 -1.010982073293701378e+00 -2.993420422622765642e-01 -7.046751223540417275e-01 -3.149416270130352968e-01 5.169132075456535080e-01 3.540823491305759019e-01 -4.740465809626207561e-01 -5.274512953162876494e-01 -2.863079649585610897e-01
-8.002432337368265980e-01 7.186516498714896617e-01 -3.791109318640252523e-02 -8.191336209877650987e-01 -7.446306198531049692e-01 5.497962866019501238e-01 1.051099541129171464e-02 5.902702267513191270e-01 -7.226705518839121600e-02 -6.970556083098606859e-01 8.648839743157419324e-01 -8.642262867755221567e-01 -9.980006726386303484e-02 -9.555726773423602882e-01 -7.595404295821932550e-01 2.017530353793756670e-01 5.194077598419188924e-01 -2.615003283539886203e-01
1.059296180192798587e-01 -7.738998402573595836e-01 6.306446481054843733e-01 -7.378959654862191631e-01 1.776073035798995670e-01 7.044325933225636938e-01 2.602310112316962298e-01 -4.595205457731692256e-02 -1.402234090843593461e-01 -4.087863584797998273e-01 -8.604337206596963661e-01 -6.821767365695676766e-01 7.038315876586707098e-01 9.001994654636682469e-01 2.058825246122650277e-01 3.072383991560693195e-01 6.261643171035238264e-01 7.424432775884826086e-01
-4.860555032066436049e-02 2.541828121726527057e-01 -5.802229378627734580e-01 -4.706727658939368064e-01 8.511880239837885664e-01 -3.644050679121094705e-01 -1.001571173183699814e+00 6.146434522360957331e-01 -2.812999201186017761e-01 3.326911525511194734e-01 -6.287031985534563550e-01 7.561810149452041774e-02 -9.284254236576559016e-01 3.729630813200649486e-01 6.786499570084891797e-01 -3.249524431087212895e-01 5.930632489101625993e-01 2.141124981895920765e-01
4.765483395882035289e-01 -5.108233394045441633e-01 9.221275418519589984e-01 -6.746509075395494826e-01 7.763669647204667346e-01 4.119836171898091370e-01 3.549803342189238320e-01 -9.480493370636129402e-01 -5.866548397394213410e-01 -5.724823639642819817e-01 -9.663083753773733520e-01 -4.761366395050795619e-01 -1.012848710912239492e+00 4.798893325822316258e-02 5.509782518330370582e-01 8.679388466527946377e-01 -9.371976080667803188e-01 -2.434316531863555677e-01
2.451953830010787372e-01 -7.648920834872006136e-01 -6.521729532874671609e-01 5.209635632992746235e-01 -1.510105460417571765e-01 -7.018872906568409675e-01 6.595595779152279015e-01 3.237678121877708426e-01 1.785855147909263217e-03 7.424235562048993042e-01 -7.878761410237364871e-01 -7.849825306679560910e-01 -6.290386156208491730e-01 -5.649213174994502928e-01 -1.854974257233969470e-01 -9.653076700960308010e-01 7.018575778162934320e-01 -2.974675034387415651e-01
6.612059488321566647e-01 -1.303958314223395420e-01 -4.557451059967604357e-01 4.843218920744322142e-01 -2.430369760612340335e-01 -7.696999637365793401e-01 -8.400786373985336120e-01 -8.181411025644715895e-01 -2.515547505828553687e-01 -1.046172308883969171e+00 -5.065814785586345570e-01 -3.454026265423276731e-01 3.345375127582567165e-01 -2.010730100889308036e-01 -9.731723567498495875e-01 2.417109976824175777e-01 -6.725861439853240142e-01 -2.527156566488947265e-01
5.548269499114882181e-02 -5.360807475307540759e-01 6.554317031935767979e-01 -5.909240974131531043e-01 -8.887143446790497503e-01 -1.471259953499763976e-02 6.832233750167839847e-01 -1.507117162528725032e-02 9.338217107493125280e-01 1.399007054407351291e-01 8.352445883090264811e-01 -8.756534018991695145e-01 -3.011191042114218508e-01 -6.260787070037390212e-01 2.340475601151255358e-01 -1.021159658781380375e-01 -8.696925314456633860e-01 -2.527487854183607663e-01
7.952650685542947406e-02 1.308968336237626429e-01 -5.545756807849460124e-01 3.138393032783182851e-02 8.167340164698886351e-01 3.811294160434394174e-01 5.140017752420737995e-01 -1.055558515822266896e+00 5.109290494164233642e-01 5.312794223982502118e-01 -2.039753610424048236e-01 -1.990400623041037043e-01 2.899257115531844731e-01 -1.042300794746307657e+00 8.872127317074622876e-01 -5.252632634054385519e-02 -4.601167451882156589e-01 9.073486165758321009e-02
-6.533510398947690589e-01 -9.925199615167061840e-01 4.188675715190667281e-01 -9.193780545495984224e-01 4.255376184533378181e-01 -9.147285144985040084e-01 -4.278851346937587730e-01 9.505252991552756714e-02 -7.074080662389516938e-01 -5.991943060674891353e-01 4.855507711459505771e-01 4.306275146034307388e-01 -9.124569371298318909e-01 3.378932972404714574e-01 -1.312979221385076473e-02 -4.798054619944472909e-01 -3.849617593879778310e-01 4.067264199675674208e-01
-7.774768573549717399e-02 2.390030701387194367e-01 -5.829089256789055096e-01 9.167071702872819916e-01 -5.652181514177370136e-01 -2.361518351014390560e-01 -7.893422565596435181e-01 3.975997149867148694e-01 9.196206837727824990e-01 -6.547422729120823404e-02 -2.514641978129866784e-01 5.231151827082527461e-01 -4.170577929131847883e-01 -8.820369790688529221e-01 -4.347972937804366056e-02 5.612141820309260454e-02 -5.158090235034241688e-01 4.122112707216333272e-01
-6.842464346362042704e-01 -1.036190813305885472e+00 -1.688519403400617555e-02 -2.701826412463173566e-01 -7.480478417225924215e-01 -5.453889973385339651e-01 -9.603295643277720561e-01 -1.921198100426439459e-01 2.882634610522988305e-01 8.133119205046204225e-01 -8.261181632386251916e-01 8.208176198922096933e-01 -7.641840301048266060e-01 5.068271866227438416e-01 -1.025281334752976836e-01 -8.338127109903923362e-01 -2.814319586427147524e-01 7.877263809460175459e-01
1.469352848551708779e-01 -7.243200460745402580e-01 -8.302572576113922409e-01 1.258695339870392199e-02 1.465511084047990686e-01 -6.414818566068569705e-01 6.596708393362662459e-01 7.931371842442298536e-01 7.356195692290872223e-01 -5.563550807491950412e-01 -3.433938922814120387e-01 6.863527868253762598e-01 -7.215778467974680588e-01 -7.984681953076004923e-01 9.278608193326500775e-01 7.694954112267820001e-01 -3.192667832589645149e-01 -4.753384861483359591e-01
1.925905057484612048e-01 -9.016111104829047651e-01 8.289011886400592388e-01 -2.709843883607352955e-01 -1.045026938661107963e+00 -5.498709510187920202e-01 6.885302008591391854e-01 -6.373611497540250248e-01 -2.289031335576431903e-01 -8.095796526500727008e-01 1.826102924459050425e-01 1.913890299860279698e-01 -7.857758031971484591e-02 -4.365681650278175896e-01 -6.568100157309293419e-01 -9.406192376742819050e-01 9.324533975958213539e-01 -3.284031866523303700e-01
-9.624277407471808488e-01 3.859631355718026180e-01 -1.246034928462866898e-01 -7.843938802199751370e-02 4.235474545138998570e-01 -5.611101011752537282e-01 5.210710744904571978e-01 2.870805223496680769e-01 -7.091655467340938213e-01 -3.739555348765829512e-01 6.614127933812397053e-02 -7.546681430167490046e-01 5.426267160757203278e-01 -4.454022322035356973e-01 -1.582901422165468863e-01 -6.420000680848112484e-01 -5.571610700021887297e-01 7.918446017558677941e-01
-4.017536496221564279e-01 -3.723053519387108379e-01 -2.242871659207825163e-01 6.228422029829985274e-01 1.579796597787055945e-01 -8.320716582811351625e-01 -2.139806560349656883e-01 8.182873989764301026e-01 -9.395065008464997813e-01 2.996932618876911869e-01 -4.259484162620418291e-01 -2.125555375055080964e-01 3.121349175133464326e-01 -4.382268133679881883e-01 6.521870184874209997e-01 1.066684477278653231e-01 -8.158746137936656595e-01 -1.024607266788061244e+00
