1.607968927132207848e-01 7.504935989416173792e-01 9.996739739330812169e-02 -8.009179142494901038e-01 3.781505747892980884e-01 2.745609938823107554e-01 3.396742907189668759e-01 -3.785853821878136238e-01 2.060628967378840826e-01 4.633472133322042441e-01 6.098588355337203337e-01 1.570735127029476751e-04 3.094504674837121327e-01 -8.651637494700209485e-01 -7.026919678146797965e-01 -6.272214884809378388e-01 2.305799476529283853e-01 6.892786387197488152e-01
7.784813270040996658e-01 -5.688127872564737730e-01 -6.868871059437341442e-01 -1.006319939911394512e-01 9.704511735661925931e-01 -7.086379019412015756e-01 -2.483091120419563813e-01 6.554032119435081460e-01 -7.156932717624443496e-01 2.101513716494370909e-01 -7.017570984613693552e-01 9.591421973217985064e-01 -3.253142026995076153e-01 7.192132862888477307e-01 -5.561191027148496557e-01 -3.401063328868288993e-01 2.897502373825086019e-01 8.517187155999129677e-01
-1.433117221158844989e-01 -2.272932181076646116e-02 7.154960675352872723e-01 -6.001048056132403108e-01 3.010734452461877875e-01 -6.149574480523518905e-02 -1.991670799744696962e-01 7.390251883113450049e-01 7.234699908069108787e-01 -5.396942659578278789e-01 -1.574323176956841097e-01 6.580791818807085747e-02 5.341922477183718154e-01 -5.373461545814366414e-01 -1.328516597941998834e-01 -8.753909159058252953e-01 4.089859239808439351e-01 8.167301200051233501e-01
3.136293183223609060e-01 -6.693702012417628300e-01 9.713692738518231451e-02 9.265352489490310539e-01 9.999011199332930033e-02 1.232034057795785564e-01 -6.612536502461512367e-01 8.940726952014519391e-01 3.199085795912711139e-01 -2.336162609663101075e-01 -7.236955767398733919e-01 -6.240111191550867797e-01 -8.130040738628305785e-01 -7.668944903698766691e-01 4.590362568473039251e-01 1.670204964146973503e-01 5.976153227585447869e-01 2.535606907501768981e-01
2.424057886332609824e-01 -7.587885411506596345e-01 -9.512444682148779584e-01 -9.423176173130198841e-01 9.252610342409155475e-01 -8.685657056421292044e-01 2.836356155987902472e-01 9.939059327238641828e-01 -3.301191839192898492e-01 7.194656517835568144e-02 -1.275859880255124923e-01 3.850217405158296718e-02 -5.961635514754142218e-01 3.220691006128109102e-01 -1.658019020815590105e-01 -2.308053810889375834e-01 3.164098445018574957e-01 8.684634420014141210e-01
3.223731733625892493e-01 -2.350146620588607904e-01 5.274856429605943031e-01 5.261477547440822633e-01 1.791482406473517974e-01 -1.303144354178772391e-01 -4.278612583998555041e-01 -7.800613549443353723e-01 -3.466310529351940839e-01 -9.414126286485999806e-01 -3.108672045525133210e-01 -1.152426159117304338e-01 -5.348492160853042521e-03 9.948783989058314070e-01 -2.496595391724054369e-01 6.107874546732896537e-01 4.275427237766205590e-01 1.308417870931789517e-01
-3.287451451175980033e-01 -2.711460958604865884e-02 -8.212785481313414904e-01 1.233895158130210029e-01 -5.893318861656552388e-01 1.107737472863717515e-01 7.314895549813961173e-01 -4.521934905357911649e-01 2.046637219618546444e-01 -9.186687068363880160e-01 6.936101465507028552e-01 -6.018079549242944665e-02 1.880914455122324053e-02 -7.406644384110777635e-01 2.905652891050629627e-01 4.139689316563812671e-01 3.697511909004489450e-01 4.942493055445151828e-01
6.805483387024061637e-01 7.522117970716813984e-01 -1.233374367502779179e-01 5.055633973340526444e-01 5.649948050867324989e-01 -7.941898337785212592e-01 -7.013339598015061460e-02 9.181859956288399571e-01 2.937959357227672499e-02 -7.593009369051745283e-01 -8.587149479675048047e-01 -1.061880102083573862e-01 5.550006265732417843e-01 -1.472096631873649197e-01 -9.592123120425671834e-02 4.245137780647548209e-01 9.815758270034741217e-02 -1.325160830844553661e-01
-9.613931130555168902e-01 -8.416539309525259416e-01 2.749956082716830674e-01 7.766768720489429789e-01 3.449180871410492677e-01 -7.930853626797389477e-01 -2.277945794726084772e-01 -3.771630784501001643e-01 2.714745195896825503e-01 7.976448584289812516e-01 -5.299290785984691610e-01 1.636335732849147073e-01 -1.850681730819365989e-02 7.440439739319271162e-01 8.152016135412711861e-01 1.180382053967535122e-01 1.436634229842172206e-01 -2.344917492973165041e-01
6.915498291685067134e-01 6.269195587263107772e-01 -3.768163457205693234e-01 2.916063795453702756e-01 -6.037412347653826200e-02 -8.864173376651680591e-01 -3.636155575508659421e-01 -5.082469749056255370e-01 5.398131586853012198e-01 7.642651199052830080e-01 -4.165609399232883536e-01 -5.065239173521054461e-01 -8.730424731196193555e-01 -7.814778806773152731e-01 7.454773120697371080e-01 -3.321727447134490419e-01 -5.468997751800688256e-01 -9.799066425847358097e-01
-2.895482218325401425e-01 -8.204514563111318104e-01 3.441247990553474301e-01 -1.193687722743651258e-01 -9.903944285318269092e-01 8.698929598865599022e-01 3.609147955517711948e-01 -4.533931913309358075e-01 7.369858626646064170e-01 9.708060581646595910e-01 9.801998846013797451e-01 7.000669209471221954e-01 5.495844867520027766e-01 9.582652246609337787e-01 1.799737107616509735e-01 -7.164690694517790170e-01 -1.211496846203348118e-03 2.440432593867598032e-01
4.660501544310178268e-01 -6.846592062741858609e-01 9.680320836604112689e-01 8.205313224924584148e-01 5.026270249988873395e-01 -3.801810505221883130e-01 5.150507566443569551e-01 -3.094115273635917873e-01 -6.108573560074357367e-01 7.723720766162291973e-01 4.328265913125770581e-01 -6.214671538067848555e-01 -2.488764897048345304e-01 6.934747032914547749e-01 -5.273666891374200194e-01 3.087865149699409173e-01 5.733592401177998177e-01 -8.423259886701637278e-01
1.313539405534221161e-01 1.043543580675799498e-01 3.281692733143935781e-02 9.437436519260650192e-01 8.851258755010419366e-01 -8.104530412615155166e-01 7.753396957640935616e-01 -8.459348571256769533e-01 -7.563628031550791997e-01 1.611627970822644695e-01 -8.436838832526524223e-01 6.682352314146006167e-01 3.024625367470657467e-01 -7.366547276570593050e-01 -8.328722489876186907e-01 8.333703251370988552e-01 5.003477505104702017e-01 -8.571158654914502462e-01
9.623390503698286969e-01 5.083483707276522656e-01 -3.905194365084825314e-01 -7.129397827673457089e-01 8.955598689419493885e-01 -5.577576106624747565e-01 -8.669724270052306947e-01 1.765628365167425939e-01 -5.431626999402636158e-02 6.332816751111961517e-01 6.479889690117749401e-01 1.937600642863050449e-01 -1.547284830762170604e-01 7.389077243316789501e-01 3.579823248124032187e-01 -7.693583845519876840e-01 -2.420602609803935157e-01 7.934312133098130326e-01
-6.792003212484434282e-01 2.802871946883836105e-02 8.041209447231520979e-01 -8.967322669069033303e-01 -3.278206537178965929e-01 5.337856095917457022e-01 1.889901431752705196e-01 1.226825648303140059e-01 8.232352071290957585e-02 -2.331471307555674569e-02 3.311891193937724909e-01 -3.812074708401177459e-01 4.353300470890583140e-01 -2.509076378634423898e-01 4.767995385551709875e-01 -6.574349698641825945e-01 -2.930979621705670501e-01 -3.328452274830974167e-01
-5.176206612595735113e-01 -7.630702824950519325e-01 6.793027188405802441e-01 9.463564187761688284e-01 -9.037596195319419490e-01 -3.218430378851153684e-01 8.783678860505361730e-02 -5.566367841528472304e-01 4.750045623067411515e-01 -3.188949539729502014e-01 6.706556235896052875e-01 -1.944685917477576298e-01 -6.713325859645704607e-01 -2.559716303053547470e-01 7.913095333794268882e-01 -5.012956991553119135e-02 -3.006924931520970484e-02 3.822127219166704393e-01
5.420377225737066373e-01 6.059997371558156071e-02 8.048919051212467535e-01 -4.137221631091940188e-01 -5.947761923925717342e-01 -5.705508955548698191e-01 6.884881404619946910e-02 5.118729714038313672e-01 -8.675649257219023580e-01 -3.827093826841838076e-01 -1.925678714085057863e-01 -3.006611614976468227e-01 -8.310956198990652188e-01 1.724805422476706762e-01 -1.461964935274325250e-01 -9.087014339300335530e-01 -6.294767488106803865e-01 8.236379568699303544e-02
-1.451350534353607891e-01 1.140750873056845666e-01 9.423334697623568790e-01 -7.461422706220379730e-01 -2.244794980629438441e-01 -3.379311205796947659e-01 7.251442899050639657e-01 7.881519456151027114e-01 9.599906139344862588e-01 5.506577496817040007e-01 9.229296453563604619e-01 -6.274334780268890910e-01 -8.813429676051891537e-01 -9.636022235995227170e-02 8.890393088158743407e-01 -5.292392540899688580e-01 -3.426932913688581772e-01 -6.820534496040147054e-01
