5.459428090833732261e-01 8.579859679733407019e-01 -1.403096082220868512e-01 -3.190592432940978496e-01 -8.604141119554714612e-01 -9.921798032045353599e-01 -7.982513786222037444e-01 7.264165698098067336e-01 -2.093630455952394664e-01 -6.777800639165546537e-01 5.503552656492108897e-01 8.587022240983940291e-01 -4.328932845642979865e-01 -2.550235830163479767e-01 5.518237427775088966e-01 -1.330483857749754917e-01 -6.963383107557442608e-01 7.761609648343111012e-02
2.621714253037685238e-01 -3.075385668772843695e-01 -4.870687260797506579e-01 1.013396072840229423e-01 -6.611944584502369437e-01 -7.288684612669096285e-01 7.897419729035619618e-01 -5.412621792439882284e-01 -5.209372794794815409e-01 -4.817668274855349542e-01 -7.427689104829133804e-01 -1.718820877220131882e-01 2.845969981976843033e-01 7.918553186671024591e-01 8.179346601700610009e-01 1.738308069649602272e-01 -3.667996692554187921e-01 -3.669596716848449458e-01
7.338556562368944158e-01 1.483998208541525698e-01 1.204911063226126247e-02 -3.728141719998335768e-01 2.254718551929000003e-01 7.945731331816866527e-01 -6.355230952641021114e-01 4.941188850211516437e-01 -3.467350881204250834e-01 4.385779474654604160e-01 -5.217593239158305751e-01 1.488068473716932238e-01 -7.449273268867798725e-01 6.202842488046643732e-01 8.904535716911511356e-01 -8.054418992670328015e-01 -6.058514619163023474e-01 4.665980427876826875e-01
7.860985813172257641e-01 -3.939248612510917735e-01 8.466218714854586436e-01 4.890895802547383098e-01 7.989973380311540252e-01 6.871105526177644363e-01 8.973465633615725079e-02 7.586519158257664097e-01 -3.377975039547432279e-01 5.969081395798493395e-01 4.157668182544282387e-01 -9.617487965119878579e-01 5.216350760645721563e-01 4.305173868937916537e-01 -9.248010830159529572e-02 -7.354180375067086439e-01 5.767204510050006894e-01 9.205025986390534820e-01
-9.360137304700169025e-01 -7.725622294285117153e-01 -1.460807052473672984e-01 8.942228451233866782e-01 -4.161598338788403684e-01 8.165297704047835836e-01 -3.851179948276992060e-02 4.117214108602680334e-01 -2.946650446676990498e-01 7.212618173757874285e-01 3.452420483156044551e-01 6.319584008857193069e-01 -5.006186092042248514e-01 -1.964075617500606052e-01 -6.633497337382638914e-01 -7.851691379242382585e-01 1.924460444159828698e-01 6.384051700428088338e-01
-1.953730243905770769e-01 -1.066118237265884228e-01 2.300986540955139437e-01 2.558891070815570434e-01 3.440902958649050825e-01 9.331858728954278703e-01 1.429445087230461486e-01 4.432853430726540478e-01 6.691342030377747108e-01 -4.782748794447010954e-01 8.933638116095807269e-02 -9.453165614888203727e-01 -4.325115856629577205e-01 3.580726622045944940e-01 -6.890887176429063565e-01 -9.122594126346819099e-01 7.218980914512526659e-02 -6.822439655618324217e-01
-5.899664697355198051e-01 2.693898564752792435e-01 9.823843849893201252e-01 -6.731343038336379259e-01 4.879088068342201101e-01 8.333035585157312630e-02 -5.756628691693554956e-01 7.561493958305360863e-01 9.362908256659905337e-01 4.360579820270740203e-01 3.711766404828632099e-02 -7.774138486771298151e-01 -6.130827506816090011e-01 1.690851038661682626e-01 9.540626567408974079e-01 9.675264432116819080e-01 -9.302544403168180320e-01 2.559225892655634382e-01
-6.590382486877739421e-01 -4.995119345313595027e-01 -9.308153980221787194e-01 -4.351701153220587370e-01 -5.161035430652674560e-02 -9.040341298081560062e-01 -5.661354274507310880e-01 -3.619774991459029367e-01 -7.306921368010044215e-01 -5.927641685910896019e-01 8.098956751489877481e-02 7.750290533306900542e-01 1.781773630839015021e-01 5.443816752590628916e-01 -7.915032300022023515e-02 -5.740639502852722398e-01 1.291225916870231971e-01 5.740476074335056911e-01
8.966455070295125118e-01 -6.478698994209490802e-01 -2.141249756658280545e-01 -2.754955268696517301e-01 -7.469398979608399269e-01 -8.528819479915197288e-01 -6.969825025181801692e-01 6.806817672485121484e-01 1.138015808101593696e-01 -4.390678082352972300e-01 -1.147084303289811202e-01 -9.502349255675497375e-01 -1.201110352955687410e-01 -8.699650901552093973e-01 7.661367635092022899e-02 -4.037132265233487338e-01 3.534879069483536362e-01 -8.176572285425340869e-01
9.398979292372457994e-01 4.117245560700010243e-01 -1.588805813339339845e-01 5.989711930103420734e-01 -4.098431301263681936e-01 9.566204059132998871e-01 -9.887955411392008731e-01 -3.201713963347155856e-01 -9.418915497352640109e-01 3.036634656974438462e-01 4.110100234313852630e-01 9.456938331628805816e-01 5.413567232949012542e-01 -1.407427274664936057e-01 -3.674676760767764394e-01 -6.970316277165775620e-01 8.236219203333479122e-01 3.540021599115162898e-01
-6.542344583017098980e-01 8.679264601992868755e-01 -6.651164781109071278e-01 -2.469346948297080346e-01 3.539888930729883088e-01 -9.352792838821881727e-01 7.831439649895679533e-01 7.801758323583409815e-01 -8.442685676029413333e-01 5.753235509166989559e-01 1.872832930627236769e-01 8.141710028092439266e-01 3.642541385894956241e-01 -6.483016910792149812e-01 2.685193405476767881e-01 -1.972065258669367105e-01 -3.465231328912991016e-01 -5.840188320844315051e-01
7.629066465201894687e-02 -9.586032595318567662e-01 8.968020733302801695e-01 4.730949907050405190e-01 -9.538337669617669157e-01 -7.932943119372601881e-01 -9.120475443930757820e-01 -5.923021854346268711e-01 1.440456176505068298e-01 -8.798554608972162239e-01 5.462125641097730355e-01 4.548676738761109895e-01 7.919956235989895621e-01 -5.561571538934657610e-01 7.907849067201691007e-01 -1.070355754540242010e-01 2.854284558572425801e-01 -1.369339686048506310e-01
-8.588025748827539108e-01 -1.194910084059843669e-01 -6.617479366459591006e-01 -2.713577387013680897e-01 -2.552028748586747109e-01 -4.676705615031488406e-01 -6.471494751605970652e-01 9.435017312937781231e-01 6.929161688787706108e-01 -2.144083775647212253e-01 -1.823746889755087086e-01 -2.572913157801072770e-01 -6.701114775970977711e-01 7.456350818670625102e-01 -6.738372880384639885e-01 -4.360967950081148792e-01 9.173872494690686885e-01 3.683870024931899523e-01
4.885635628385365803e-01 -4.498150175860883837e-01 6.157239146928161766e-01 1.954731563531236227e-01 -3.489589729129546902e-01 -1.865425450914945382e-01 -1.481879441235675610e-01 -1.268621547226320145e-01 -3.253816020829489175e-01 7.941364747293394588e-02 7.838037102599928474e-01 -3.260488031303365175e-01 3.402865845804375344e-01 2.376531119493686117e-01 -5.091768580116431409e-01 -5.243585212422605668e-01 -4.129285422137697892e-01 5.795443625516281116e-01
-1.107161170778685477e-01 6.333215016293600730e-01 -8.256261360790095871e-02 -5.983073711236530645e-01 -7.549690364470444948e-01 -1.334081227785845758e-01 8.774099401917485608e-01 -6.133100177731001246e-01 4.696413484849112918e-01 1.023535263894317371e-01 -4.922502081648953004e-02 2.155759550033076455e-01 2.422954009980542722e-01 -7.236669135637063821e-01 -9.509563617237501987e-01 9.141209067504729724e-02 -5.838828378771441230e-01 -9.391335785413312820e-02
7.200804132402730540e-01 -9.892835585831410983e-01 9.350321915750453572e-01 9.459635657537565079e-01 -7.403651495312760233e-02 -3.402273646172730426e-01 9.527162505310150520e-01 -4.836969870160227614e-01 -7.341747280361309302e-01 6.618431123538238703e-01 -1.055489230476111262e-01 -3.659184558914476137e-01 -2.295734807423588930e-01 6.756222230846723464e-01 2.496733267356215924e-02 -8.771010908822848284e-01 -3.337536898264203411e-01 4.034868740805266918e-01
2.300136654417376247e-01 2.905610570567249140e-01 4.933310367556430209e-02 1.293355122797711365e-01 5.711157294673673279e-01 8.945634974895247948e-01 3.337423001057336636e-02 -7.625549626190685215e-01 2.427050276538963436e-01 -6.358072018386234925e-01 3.387846512828080470e-01 -7.934138719144483154e-02 8.431119104798877606e-01 -3.564968294097435320e-01 -4.451782508485642720e-01 5.445037133780173955e-01 -3.397654867515433053e-02 3.437161886742333416e-02
3.664501141219470015e-01 8.584792531336641330e-01 -9.924435883038337236e-01 9.919087635329010277e-01 -3.766324506522522042e-01 5.767394809935267874e-01 5.570708519674231196e-01 6.316733612114314722e-01 4.627988157962080185e-01 3.099711167375878915e-02 -9.727108098003233172e-01 -5.326172734303299405e-01 -3.721344670037307067e-01 -4.722921601730591390e-01 -4.946083357247478829e-01 3.243267084892529906e-01 8.730553387232489748e-02 -7.029774505074161232e-03
