3.710810489401211165e-01 7.829708041402113627e-01 -3.029244793805509484e-01 -5.964780395566701143e-01 8.878911058027533221e-01 1.165581413395562344e-01 2.942317974774342759e-01 -1.068754965354619779e+00 7.238229567485064686e-02 -1.301556024363307029e-01 4.751392922525982110e-01 2.191249452531821296e-01 6.367342434118944405e-01 -4.918157798649973669e-03 2.304470857484622048e-01 -8.555532966586471000e-01 -4.271452164659110262e-01 1.994998102989696542e-01
-7.695975137416611878e-01 5.444478901661650161e-01 -4.833874980126603993e-01 1.369131415326737822e-01 -9.855787793529130481e-01 6.778372949159681971e-02 7.096549009529841412e-02 7.982575789132614341e-01 -7.411549766725077371e-01 -5.287668206326719966e-01 -7.480123704207281010e-01 -5.769516381137537175e-01 3.664651342643488463e-01 -5.265538395018892759e-01 -4.581995353910483515e-01 1.141221194866202521e-01 -3.962015339101448291e-02 6.179167864296172263e-01
-4.246326725370930949e-02 -1.065978549713644918e+00 7.523590153715341566e-01 3.849642326296756623e-01 4.051396561581393496e-01 -3.784740317858349967e-01 8.378665876522285449e-01 -1.869598282304743841e-01 1.486103040593959312e-01 2.941493135209903298e-01 -1.016296459766302673e+00 3.610977275858704982e-01 4.738262710126249777e-01 5.218671572680554371e-01 -5.514516822127103479e-01 -6.424916751634739132e-02 -4.098035176451330641e-01 1.449137850627885415e-01
-5.615469549921424663e-01 1.031193669037860500e-01 7.500472620800265888e-01 -3.216706936016608953e-01 4.713695780106266775e-01 -1.064725137291179236e+00 6.027754337089914066e-02 -1.000536081440021485e+00 2.147131672809393654e-02 2.690106739834806082e-01 -1.109158411827865648e-01 6.454904477628599091e-01 -9.417438306172801754e-01 4.294551765591234638e-01 -5.476107418171168861e-01 4.938670714814153984e-01 2.110821455147099124e-01 -5.260152037504092215e-01
-7.058588054526532263e-01 4.412582673156441593e-01 -6.961366335769326730e-01 1.264326366036881977e-01 2.731992774081793418e-01 8.963019742203895968e-01 7.869500799556571335e-01 -4.972672681505900250e-01 -4.747139540203828001e-01 -4.677176747783493016e-01 -1.030811593466913090e+00 -5.431764457572511029e-01 4.344640964388833404e-01 -1.422414745950723730e-02 4.428317141589084294e-01 -7.380233273168713692e-01 -9.132384480058813869e-01 5.506206791798223810e-01
-9.681673843176198391e-01 3.948155897903859318e-02 -9.694371997669525287e-01 -5.801736591228671275e-02 -6.979047314995928675e-01 5.092042419001593379e-01 -3.020026796007462266e-01 8.606330332321502352e-01 3.177999945896977096e-01 8.173697992253498024e-01 -4.098820764911185743e-01 5.255204200645827717e-01 7.023692684301844347e-01 3.024883985230626959e-01 5.822296919514170499e-01 -4.341358698133836458e-01 -4.802673421873259740e-01 4.953145372274163072e-01
-2.424618059272075354e-01 -9.371460678211293027e-01 -1.045322348395558931e+00 6.688206205001404614e-01 -6.887412087774597014e-01 -1.166664848637375823e-01 -9.506824180424476856e-01 -3.822259917284382413e-01 -7.346011185724580228e-01 8.202986204460692710e-01 4.173513878537554178e-01 -3.042295666630112638e-01 3.618290173677647936e-01 9.048547609505442901e-01 -3.069332048976781691e-01 -3.988884268639873443e-01 -8.280056511656012086e-01 -9.944851671156326178e-01
7.270293341896177930e-01 -5.003967902641307530e-01 -2.634247265962242346e-01 -7.130515422204654064e-01 3.897695443448652708e-01 -1.446732511638486873e-01 3.000392464909154566e-01 -2.970239164055638592e-01 2.694136916632546008e-02 1.835432544764162011e-01 -1.923078717108192837e-01 -1.020325424183163632e+00 -8.524860655032163725e-01 -3.405606507430753438e-01 8.542788355876179685e-01 -4.291469905290791753e-01 -1.267516285590717107e-01 -4.321206327159769489e-01
-8.890795707658395441e-01 -4.882509346334923950e-01 -1.983164122523815853e-01 -5.794048044370675443e-01 -8.990124930929949132e-01 -6.262763756495531853e-01 -7.212551854983945132e-01 7.246025237949956788e-01 -1.061306598930510825e+00 5.359387602642869952e-01 6.572815768937857461e-01 3.892260376303798286e-01 2.095195566285736055e-01 -1.932140897527923895e-01 7.226170988837080644e-01 3.353403987960886234e-01 8.392710722457940031e-01 2.369968751547507912e-01
-4.118801519701821567e-03 3.635117691972514220e-01 2.535255840676136629e-01 1.749495910306202856e-02 -1.470643327386188803e-01 -8.345300541662471483e-01 -7.268637368976723634e-01 -7.112034677789308423e-01 3.770929608740747896e-01 4.228818292167662585e-01 4.971811747873058351e-01 5.284346657306203676e-01 -3.789665980237372778e-01 -5.664622749328228624e-01 3.678495811585925090e-01 -7.056974234681619995e-01 8.805536095734270985e-01 -3.976700130577949799e-01
2.854169430321416567e-01 -5.380985667709105025e-01 3.635678650172465276e-01 6.389008833292780798e-01 4.225160824490408751e-01 -7.886815806699470910e-01 -9.909220079891533084e-01 -4.113732621278624602e-01 7.631498883096471397e-01 7.563675293756083606e-01 4.096675577385456291e-01 -4.559847132926723723e-01 6.515078500559602359e-01 -1.759470408424073512e-02 9.667223467308548590e-02 6.548617238635255910e-01 2.237167047089153732e-02 -3.133995139125402701e-02
-9.854819741405342060e-02 -8.273817218746449820e-01 -3.884738692801096849e-01 -7.666295586440151633e-01 -7.582486444794916958e-01 1.597026251807750763e-01 1.888928634765303649e-01 -6.602243849947898591e-01 3.857432470528288776e-02 3.344055314869894269e-01 2.601913825571862682e-01 1.898569725441357769e-01 -1.064040230395613351e+00 6.816998966114152791e-01 -2.231734465156423874e-01 9.818831290947625801e-02 4.699569049427333445e-01 -8.875617697993584132e-01
-6.745308832111486519e-02 8.932754036727293956e-01 -3.416292538735809514e-01 -2.836038650690712037e-01 -2.056101280069833059e-02 -1.020374488166814197e+00 4.650068521552666589e-01 3.117263662980621075e-01 3.859188277662802258e-01 -4.015108078409758696e-01 2.872109330017412199e-01 4.562567724757702337e-01 -2.596529910841932631e-01 5.984590136255955040e-01 1.840600231194557124e-01 -7.408029828745944512e-01 6.443112251606698537e-01 -6.913491242892004507e-02
8.486315679699537595e-01 -3.156045989940630125e-01 1.412767174964148220e-01 4.434720234519919785e-02 -8.757658649143035268e-01 3.502306000666620123e-01 -4.179207944630728977e-01 3.579414368461418250e-01 -6.030915644517317320e-01 -5.289518375351175417e-01 -6.950255202146052858e-01 -1.016961315802589860e+00 8.108905903611959287e-01 8.263307786197576776e-01 3.005209192838469989e-01 -1.597218814225221106e-01 7.039669515304406433e-01 -1.861308152840638053e-01
-3.108977941643018550e-01 -1.016455975110648557e+00 3.714802372817962994e-01 -8.211154907781720302e-01 -5.995192373566927690e-01 -9.298571638626694780e-01 -4.544322922105132334e-01 -2.220614900371834233e-01 8.259121631235492034e-01 -3.933811427229937929e-01 1.193634208706570790e-02 -7.852732619247216883e-01 -8.464066705230069987e-01 -2.540437765719709695e-01 1.034631607046608143e-01 -1.004035231690654006e+00 -1.928498440682464843e-01 6.071026949801164863e-01
-1.069800656550966567e+00 7.631310169184518655e-01 -3.709533726956749239e-02 -4.114353973903980832e-01 4.644416617057718355e-01 -3.698832441282222105e-01 -7.698527769628343842e-01 3.699016163341382613e-01 -1.062472094597594952e+00 7.002920927997907663e-01 6.383959736063079538e-01 -4.542744412825480693e-01 -7.037409823220347471e-01 9.089990491773497494e-01 -6.025851187031764367e-01 -1.054417334863947842e+00 -6.903556363989592215e-02 -2.345494855955852775e-01
-9.994153792718814266e-02 2.703225294825611358e-01 -1.075007476945770035e+00 6.861622837792219487e-01 -9.817210048204229045e-01 2.289510204574607688e-01 -4.462885803151749875e-01 -1.050579364378762953e-01 -5.206137247523744405e-01 -5.956842297322212376e-01 -5.750139749654580301e-01 3.309042488295653797e-03 6.652628181966645515e-01 -4.177400046660561528e-01 -3.255200724855676353e-01 -6.819416329267901089e-01 -5.616188084964061078e-01 -6.494185259049370940e-01
-5.092966812716851477e-01 -5.284351638160590392e-01 -2.801379101694281282e-01 8.519098373044849959e-01 -5.370793091057427526e-01 -5.949950882768041405e-01 -1.004141190976635789e+00 6.881370343481400809e-02 -5.841196370378359815e-01 4.715727271470845916e-01 -5.954994490754556002e-01 2.234942870849238733e-02 8.588326274049137288e-01 8.280448422118572571e-01 7.151062015931176630e-01 -1.931860132322804346e-01 -3.292568933775663065e-01 8.429843649694587215e-01
