1.205253608217205924e-01 -7.234081213013916489e-01 -7.180667028273992614e-01 -1.549090936403693775e+00 1.398786118146770618e-01 -9.831733545972333177e-01 -9.262913748828488503e-01 1.443064566870059205e-02 -2.389729504636909085e-01 -8.804757899951837219e-01 -1.908305156572363825e-01 -1.082575124122097776e+00 1.448879710694806755e-01 1.630505076587225599e-01 -9.241065577241166507e-01 -5.508241141700530585e-01 -1.326227490463155023e+00 -1.358089226059577381e+00
5.939749777055562500e-03 -1.427628962851662964e+00 -1.888365923768330623e-01 -1.224338736332395428e+00 -1.163378715493727178e+00 -3.378112942121456741e-01 -6.848742697598092510e-01 -7.038825876787909719e-01 -2.271508680163225880e-01 -1.555956661020871046e+00 -1.258052516577515156e+00 -1.210015592941346529e+00 -1.519993479998371921e-01 -7.088759485856251930e-01 -9.870939067549719947e-01 -7.103303418810670289e-01 -4.916183437769020559e-01 3.683440667319834994e-01
-6.155008991578769795e-01 1.914863339101596507e-01 -7.592762806560113820e-01 -5.413760836285931299e-01 -1.129822030990341730e+00 -8.978100349722621942e-01 -4.761049429555810897e-01 2.265044709787441823e-01 -6.991137989403941599e-01 -6.234215627039294549e-01 -6.273206349966178319e-01 -7.800100661889280973e-01 -1.001842662540679552e+00 -1.200961447083622735e+00 -3.874613249688683148e-01 -1.546119555750083530e+00 -1.310334712784001709e+00 -1.885701956626477938e-01
7.695245861253678654e-02 -1.131500795223667311e+00 3.714650925558365402e-01 -7.820345431426751759e-01 -7.811636763773235348e-01 2.685503832899049370e-01 -1.423170072725916668e+00 -1.377176361078088940e+00 -1.463615020901638974e+00 -1.054021872831112372e+00 -3.618086245770791298e-01 -5.561808254324609457e-01 -1.215002861611665930e+00 -1.017117289128513180e+00 -7.468925814926787865e-01 -5.416360350195056905e-02 -8.810607900635817336e-01 -9.456051635282131107e-01
2.004306551650570090e-01 -3.654585341443993829e-01 -8.468617749012076479e-02 -1.366002613141096278e+00 -6.677034111579804865e-01 3.480641781042455585e-01 -4.353406489242462873e-01 -6.614654614010028189e-01 -3.606414910153706715e-02 -8.061748369340902831e-02 2.367798178701414347e-01 -9.307005532981500739e-02 3.790537943085880435e-01 1.041864548803722451e-01 -1.378457435323144242e+00 -1.234947163963461270e+00 -1.406125153311117426e+00 3.574890023344386991e-01
3.119677285138014455e-01 -4.130862102183954776e-01 -3.261601831310282362e-01 1.569553045621898957e-01 3.976894597279079790e-01 -1.353993193350326030e-01 -7.543908029632142576e-01 2.367084353530195806e-01 -1.272299813514187090e-02 -1.481704689754357762e+00 -1.446952271639255327e+00 -1.532654828103609423e+00 -1.130985275299346782e+00 -8.228528200951915617e-01 -3.073884555123335138e-01 -1.280611117198508175e+00 -4.880702048637088897e-01 -1.202096427305645143e+00
-1.124036802917696365e+00 -1.034600100222869301e+00 3.213167610048631162e-01 -5.806910471803465867e-01 -1.502085226211362923e-01 -9.832056527099419796e-01 -4.695834998846913355e-01 3.838223205162881180e-01 -1.600325571911029587e-01 -8.919945074621753525e-03 -7.738956740649900745e-02 2.079228440389366550e-01 -7.825683146641801979e-01 -4.073051942306386008e-01 -5.016699688660051226e-01 -7.588661093945803238e-01 3.905575073170435008e-02 -8.233581072055142780e-01
-9.043980547042462792e-01 -5.510072013556970294e-01 -6.321100431098330974e-02 -4.265645899029164023e-01 -1.670831647643641615e-01 -6.161805413951541022e-01 -9.736700296613028938e-01 -1.040642023635766522e+00 1.069325310415950997e-01 -9.749026330437360333e-01 -1.334705583244082838e+00 -1.038803599685763634e+00 -9.039594936429318217e-01 -3.437413752471171202e-01 -1.277928584677374246e+00 -4.226021193525881237e-01 -1.359775165536471597e+00 2.288763639827078034e-01
-1.106265424880250370e+00 -2.112056674787265650e-02 -1.915777314882290694e-01 4.030460100042600469e-01 -1.484633734941594785e+00 4.172613549806552524e-01 -1.328388030610797577e+00 -9.981271716444994890e-01 -2.434103072188080474e-01 -2.145449694814841879e-01 -9.114846147430145651e-01 -1.333174367119415171e+00 -1.024098536632894296e+00 5.879667221348364864e-02 -9.825824467474049140e-01 -5.948994897315179609e-01 -1.492337280231996743e+00 -7.209787450779401308e-01
-3.360825903780195051e-02 -9.831117317079941520e-01 -1.377349474217150815e+00 -3.888973540813095986e-01 -1.554732658600457951e+00 -3.168805831102216031e-01 -6.030222371364030165e-01 -1.057842120292912469e+00 8.883261629722714880e-02 3.207996958458931291e-01 3.941101525158860475e-01 -3.933107324905207869e-02 4.119679954643783448e-01 -1.126327805294243589e+00 -3.466001542532507473e-01 2.468664772491761250e-01 -8.862898699758599008e-01 -1.460002940592358023e+00
-1.012129210632117804e+00 -5.941717052104544816e-01 -6.324805339705893426e-01 -1.402532958953796260e+00 -1.117565787019053847e+00 2.536590787458124496e-01 8.119867431482845344e-02 -4.110034271547982065e-01 -3.423085428341414160e-01 4.283811230074209830e-01 1.871796807423740383e-01 3.629109187654760982e-02 4.087111228842828514e-01 -6.062779672650687735e-01 -1.504083546753997247e+00 -1.345151054479795105e-01 -1.368370742571490550e-01 -6.473921156680131350e-01
-1.967093343825408180e-01 4.112706680062448994e-01 -2.021278551021735842e-02 -5.669099176555789654e-01 3.162723852607270958e-01 -2.713518538462657559e-01 -8.166543268313669612e-01 -1.162841239504802449e+00 -8.953285499391216984e-01 -8.982125061523843490e-01 -1.382844226735075566e+00 -1.152884442882590621e+00 1.138151037906035418e-01 3.524721862739400025e-01 1.469963874635465129e-01 -3.557987670579936812e-01 -1.214095372090026492e+00 -8.817009248777472052e-01
-8.320516459488578320e-01 3.895060307957510237e-01 -1.194674744959582480e+00 -7.342206957258519129e-01 -1.559365538346450641e+00 -4.487608157904771078e-01 -6.584060047381699032e-01 -9.854269389244512123e-01 -4.329028897545392773e-01 -8.203197855293397067e-01 -1.464832423506928549e+00 -7.004465576356084799e-01 -7.505743913452265215e-01 -1.329978804745027610e+00 -9.694264691949945334e-01 -3.172667435073384667e-01 2.028043450753868882e-01 -9.802467564108466869e-01
4.217174106415106927e-01 -7.648874843907813581e-01 -5.161165594843313276e-01 -5.949639843947940321e-01 -3.654801890301805911e-01 3.388712315476678505e-01 1.775534054181521493e-01 -6.789980649747806574e-01 -1.338283287900346563e+00 -1.371088369745054214e+00 2.445319603772948824e-01 -1.043804203777179307e+00 -1.300682444704082341e+00 2.411100356010023593e-01 -3.639586024402550191e-01 -1.323471245218513559e+00 -7.359961902099216857e-01 -1.643732023061982017e-01
-6.566887275286874548e-01 1.819962099935118760e-01 -3.471572596708502600e-02 2.435722118434531236e-01 -9.100479172365234515e-01 -6.505014820616116245e-01 -7.164455357867896002e-01 -3.377468604040188005e-01 -6.432577303578722594e-01 -2.444191536286670907e-01 2.582374814222108683e-01 -1.149284829827218246e+00 1.396905455286088366e-02 -5.687944440907903854e-01 -2.851833724198874487e-01 -1.129612127526374632e+00 -4.287091744654605296e-01 -5.061702059939809928e-01
3.083358673137536199e-01 -7.884462320796284951e-01 -1.007661606776146579e+00 -1.126830827844246125e-01 3.514196511936194534e-01 -7.660259411185831313e-01 -3.640955538438547801e-01 -1.102597425612563242e+00 -1.544579310097172975e+00 2.222265749671460677e-01 -2.780486124700432340e-02 -8.102665209999675433e-01 5.479635596652534385e-02 -3.554029782647304403e-01 -4.263102502486011969e-01 -3.049459924724747251e-01 -2.988490052274080933e-01 -6.271612806584480060e-01
2.550393926447663273e-01 1.512476629524013572e-01 -1.511707963426808465e+00 -1.695618313068836536e-01 -9.261226657795685879e-01 -8.724237619962509072e-02 9.521284688451032985e-02 -1.437303943510131354e+00 -1.005709964164693132e-01 -1.408769427560448317e+00 -4.991732359460414326e-02 -1.550167995855603609e+00 -9.356923476901450876e-01 -2.606852535234319146e-01 -1.521744453413517606e+00 -1.242816327263218668e+00 1.214323931026528719e-01 -1.258596488260421253e+00
-1.521901548696533046e+00 -9.537001315591212558e-01 1.639344258182230119e-01 3.216589516892582323e-01 7.479148505418191373e-02 -2.845233218881781379e-01 -7.816808230470684293e-01 -4.605174923321607161e-01 -8.531984729129120371e-02 -1.148901013474592947e+00 -1.003603744653121854e+00 -8.620056150646072946e-02 -7.569043759234577173e-01 -1.102561985262767053e+00 -1.540397886819258044e+00 1.386395085282540462e-01 -3.976346619994991505e-01 -1.116090822796373949e+00
