-9.083050642190567681e-01 7.632399857794448517e-01 1.551696341113533717e-01 -7.361001083264872014e-01 -2.353417525441907354e-02 -3.333459873201367607e-01 -9.662820569936837467e-01 -1.082161254523554383e+00 -8.040649802309419725e-01 -3.292823020086151353e-01 7.468313554654887332e-01 1.789311076712440385e-01 -1.265488633056305878e-01 2.686898040388828179e-01 7.808651903740088107e-01 -1.148219181082638929e-01 -5.356135083299481403e-01 -8.226322817316747416e-02
-9.264757430890292467e-01 -4.325018851076871118e-01 -8.123505474851356878e-01 -8.882245098631508240e-01 5.870406573625089885e-01 -8.265947679992186048e-01 1.786540158848660270e-02 -7.197663868495659534e-01 2.471973923982734994e-02 1.589956599222700495e-01 -7.091024490281451209e-01 -4.324260264727394776e-02 -5.617805109200880720e-01 -5.336592379428275468e-01 -7.276213589562193773e-01 7.162885578878087633e-01 5.621854527472521790e-01 -8.645429472343363342e-02
-1.076715507445398678e+00 -2.433668745912988540e-01 -7.542328035889781512e-01 -4.098235207622477616e-01 -6.372711656043662520e-01 -9.694103601140330317e-01 -2.792187359399568858e-01 6.026149719159296092e-01 -1.503599954042930675e-01 -6.608175801322521137e-01 6.446119192267504849e-02 6.280037996636801401e-01 -6.390023439194900123e-02 -9.088649372259461900e-01 -1.072288693895911971e+00 9.718456228636584981e-02 -7.133644524261021497e-03 -1.100294222581831960e+00
7.460306744834209747e-01 3.201660205277352955e-01 2.691196645505223306e-01 7.052569971209643462e-02 3.015526347528565965e-01 8.135709182640947779e-01 6.027966756860502207e-01 -5.135970943204302974e-02 3.834201731726561424e-01 -1.020719092527754501e+00 1.660372681528777816e-01 -9.461684615850264324e-01 5.455952487000398365e-01 2.491579018705405713e-01 5.327503773679714838e-01 6.413892028139561718e-01 -1.002533509280877921e-01 -4.671260292955485283e-01
-1.040745539116144203e+00 -4.806444681184362522e-01 3.060490365210640981e-02 -1.079783445057328928e+00 -1.134883147400211900e+00 4.431821770505792735e-01 7.722260393814429635e-01 -8.422669749159706898e-01 3.150283478687439520e-01 1.041040496522826764e-01 3.945228988292265870e-01 -2.921227172172079223e-02 8.229305536054355441e-01 4.858310671776167045e-01 -2.345483327622895353e-01 8.146214412267430705e-01 3.121898329295955815e-02 -8.924061512136242102e-01
6.603705816106141269e-01 -2.597039256105299065e-01 7.888670520874611070e-01 -9.262279026803111881e-01 -6.626094322355785549e-01 2.929292123918812440e-01 -7.167657730454918275e-01 5.105304397546418516e-01 -9.882536791930324194e-02 -4.049025287750271374e-01 7.539023978030424677e-01 -6.504362829209516805e-01 2.267167394889613719e-01 1.562212712250305446e-01 7.263077284081954632e-01 -1.042604135173918589e+00 1.878248614240951575e-01 4.452719715970689385e-01
-1.101444117519203569e+00 -2.716968058598698971e-02 4.012077437862782148e-01 -1.439759866204919254e-02 -2.854898675850793821e-01 4.791250744494008340e-01 7.394232104016412732e-01 -1.013224760011860015e+00 -1.455025756804513293e-01 -5.609308533031495125e-01 9.606323824784215480e-04 -6.802067309458023070e-01 -5.838316774045718693e-01 -2.629841834596465255e-01 -6.610968130940898524e-01 5.193594363462342711e-01 -7.667625058468076071e-01 -1.517524202964769531e-01
-4.021380187908420445e-01 7.397397261128685342e-02 -3.398953566104279123e-01 -9.921788301235433538e-01 4.969193821390378019e-01 -8.317368866503492830e-01 5.089661799421275612e-01 7.354115198244878249e-01 -1.091795929822773070e+00 2.691067164914791587e-01 8.211143593635233939e-01 4.439060106080106038e-01 -1.969954250797857354e-01 6.041743361238375298e-01 -2.560521610840293949e-01 5.455681535289790274e-01 -2.056763201662463181e-01 7.767355072043019559e-01
-7.000545796294296297e-01 6.029908338010948610e-01 7.429482280270785499e-02 -5.114144907076353386e-01 5.219376801250202869e-01 2.355512149380209475e-01 -8.661871489337563679e-01 -7.638967136713711303e-01 -3.618283842677084694e-01 -6.082697994161355703e-01 -4.015614403513835806e-01 5.969427584974481560e-01 -1.036641494327367852e+00 -7.313365753002888381e-01 -3.831600111477332371e-01 -1.081674025268066774e+00 -9.765940559674931576e-01 3.022196318776984580e-01
-2.811681111930567911e-01 -1.092985136261506396e+00 -2.011125154734770826e-01 -1.139052639231771025e+00 1.684604601659697720e-01 2.308880524373617578e-03 6.797371518705840332e-01 -7.187267191834488533e-02 4.428548152179764275e-01 -3.065477804222651037e-01 -3.324200024429920797e-01 -1.611090773625176720e-01 -5.983730918239048568e-01 2.896099641256016377e-01 -7.205099226899595866e-02 -1.544946294299983092e-01 7.156511145213103608e-01 3.076512449715947395e-01
3.657786828666106937e-01 -5.560827778431429724e-01 -2.082312172250704307e-01 9.459471158435275862e-02 6.118835645700831938e-01 -9.396980868930780995e-01 3.946107021581023444e-01 -2.604249205287779700e-01 3.196077932814627709e-01 -2.722435135143309037e-01 -8.721684804624328935e-01 1.250036465437769917e-01 7.314439212032201043e-01 7.735736787608461507e-01 7.236049073677922605e-01 -1.991186039114052897e-01 -8.434197908296988677e-01 -6.828008929543684102e-01
1.336675572673929890e-01 -6.434228649365326680e-01 -4.721152098518714424e-01 -7.862742048911636195e-01 -5.523400362164226918e-01 3.372061265159838617e-01 -1.263847072653208059e-01 -8.071220338513341863e-01 -4.799529156625070292e-01 -1.073785631363003423e-01 4.378044492834687884e-01 -4.398822821949876505e-01 5.591232571014949082e-01 -8.808397245768172512e-01 3.615641412004446664e-01 -4.236346791819344815e-01 -3.201448153313158351e-01 2.184493479876695177e-01
-1.189613118234687517e-01 -4.063395782294678127e-01 -9.883391321332765100e-01 -5.617763550640862968e-01 5.239439111087120654e-03 7.661422496943134375e-01 -5.493377893230275699e-01 -7.610235079875998787e-01 4.900596167044647955e-01 8.157972013939774891e-01 1.307759407081420244e-01 6.006668304946857218e-01 4.399875221015686622e-02 -4.576918331617295388e-02 4.225521468688165916e-01 5.547427542896855579e-01 8.527545335578953223e-01 -1.003498655677854012e+00
-7.136343336083207367e-01 1.000616632973959086e-01 -4.017429798419996922e-02 -6.416526154357892198e-01 -5.193336253686177129e-01 -7.020368060608531691e-01 -6.549858949601553570e-01 -2.425441165262929855e-01 -7.839490865346412929e-02 3.896799121851651226e-01 3.280806718272140654e-01 -2.316188203057082395e-01 5.044201982997283951e-01 -9.189327837900814755e-01 -1.021639128719794121e+00 2.068205804181037499e-01 5.118185894443735284e-01 -9.915944484232416256e-01
5.615247929640426738e-01 -6.257706407184736586e-01 -5.882397306569732143e-01 7.039518246099980489e-03 -6.780953227221772073e-01 3.422075810882679314e-01 -4.530881540842392474e-01 5.770901863754119843e-01 -5.001793180905138581e-01 3.311693344759337188e-01 -3.230797500992197979e-01 -4.629800071023794650e-01 9.829153137459725742e-02 -4.420964710792515961e-02 5.102648982792211685e-01 -1.051509008931192479e+00 -5.062306020681975882e-01 5.750944878640545932e-01
-2.901440542741649531e-01 8.024661647446929003e-02 -6.645142069850436262e-02 -7.276841152232341736e-01 3.702660407001459597e-01 2.711877239011658003e-01 5.167375119017213470e-01 -8.660080653298237729e-01 -1.009214384041158041e+00 2.241829420657155403e-01 3.628999492145396077e-02 -3.564159276206314564e-01 -5.536034314406289569e-01 1.157494404846482472e-01 -7.528549778940357706e-02 -6.454161855701600059e-01 -7.090904256438111952e-01 6.026388777994667878e-01
7.640734909022329768e-01 -4.705413252573486527e-01 -4.431167993789694726e-01 4.906920920308742162e-01 3.729961050682226720e-01 7.818531034198655805e-02 4.566598647396604149e-01 7.234418375407686286e-01 4.898202307883428586e-01 4.808026141626796368e-02 1.593911885719465071e-01 2.238532302476295421e-03 -4.613323067016583123e-01 -1.065321564277313726e+00 2.659289945971661795e-01 6.680454514182138093e-01 7.578554097446169591e-01 -7.525287262489007700e-01
6.334958671469533842e-01 -3.507652968827992823e-01 -6.667263493280629616e-01 -8.018959557527199911e-01 -5.507175481395319983e-01 6.597241730152164640e-01 3.280253882438868840e-01 -4.700986030440947316e-01 -4.623728036061446889e-01 6.024670816854084121e-01 -1.668380019250314539e-01 4.197260689250461030e-01 1.078152806048236073e-01 -7.971141627134451513e-01 7.497274433571187169e-01 2.375737997374581800e-01 -4.962264871640642006e-01 6.690991813617382933e-01
