-1.147021801428872223e+00 -1.070268207423885176e+00 5.810437137776627292e-01 -2.060685069486967447e-01 4.090463893000257367e-01 -3.343430173573869735e-01 1.126513475870948855e-01 -3.664064543009503683e-01 -9.933247339962094635e-01 1.688399362729777267e-02 9.235724885035764831e-02 -8.484371830890398147e-01 -2.385811696064830956e-01 7.166249291948869615e-01 -7.039383548950414737e-02 -4.295704316193970640e-01 1.861193699999643958e-01 -8.384360662822487598e-02
-8.298656865156543994e-01 -5.803910137322778606e-01 -4.494277497548355149e-01 2.931797019296668583e-01 -6.854318796669800484e-01 -1.465041529039619872e-01 -1.580876279721318556e-01 -1.242307710682171162e+00 -7.298545636331033037e-01 -1.054276079335337180e+00 -7.311924466343620033e-01 -3.999698129784856060e-01 -1.998975498083292168e-01 -2.926328396294294865e-01 -3.770825145010418544e-01 -1.098706136770787989e+00 -8.205014378773787254e-01 2.871622762306644261e-01
-8.822488724966357498e-01 7.044749521559139360e-01 -7.683731740299322155e-01 -4.131813657525191252e-01 -3.779836301575773549e-01 -6.302660444787218097e-01 -8.691964971442172061e-01 5.388184503319637386e-01 2.222161619358642148e-01 -1.097160316230824773e+00 8.045665557047296246e-02 -1.137069531481559537e+00 -1.095787863351935343e+00 7.290750322801966554e-01 5.485454863871797038e-01 6.665960714537899623e-01 -1.041682942521958477e+00 -8.370515929782513798e-01
-9.102975494098139442e-02 -4.988392186545539952e-01 1.619532471136881091e-01 7.038363958426809841e-01 -8.923303520322400928e-01 -1.179062630232427633e+00 -1.634729800603111072e-01 2.554831554133943361e-01 4.176926959384618665e-01 4.004232244237705962e-01 -4.771990292022486035e-01 -7.122240055304867035e-01 6.509397277580650787e-01 5.998993957136655730e-01 7.386862948769750137e-01 -6.668249950011930771e-01 -1.477056549569580046e-01 -9.956621918583767883e-01
3.054361526888387801e-01 -1.140421233621738306e+00 -3.856034000529544037e-01 -1.118080520133978517e+00 -7.525025118019319503e-01 -6.466065118678847590e-01 1.847301507301654933e-01 -1.239158978684053170e-01 -7.016456867835036970e-01 4.590480857041862595e-01 -6.740131743770991779e-01 -1.219037958251903753e+00 -2.400442806628972636e-01 -9.404130628558156069e-01 -1.172912026241215155e+00 5.650542919568900257e-02 2.279653794661108679e-01 2.583950209562940192e-01
2.864865319805608990e-01 9.258540652161101336e-02 -1.139915405175322416e+00 -2.356782406047801606e-02 -5.126661686439398791e-02 -1.072571242373794587e-01 -4.344410552198490483e-01 1.420551800889817418e-01 -1.059686549767400177e+00 1.419358427086706287e-01 5.862101185480916854e-01 2.475015780389475673e-01 2.255644891149930220e-01 -5.870537876404267053e-01 -6.546276167993583250e-01 -6.481279916445648048e-01 -1.073381324772278766e+00 -2.745817393735204281e-01
-3.895847766293336067e-01 -1.170365120201424802e-01 -4.740068537537167059e-01 -9.219301846482541585e-01 3.640991323933485124e-01 3.384563657317238294e-02 -7.900730690057238270e-01 2.529166660293873936e-01 5.220194892495271244e-01 6.254055743278319479e-01 -2.145839110773988534e-01 -6.549134767042903427e-01 7.126254618769916060e-01 -1.073183047557109582e+00 -1.647970349986838390e-01 5.091466000295374883e-01 3.834682421171111133e-01 -7.386148761468493973e-01
-2.638404601011908324e-01 -8.423445058200820235e-01 -1.562306058961808464e-01 7.164861640392243824e-01 -6.121359595232132023e-01 -1.199590947127319840e+00 4.691339863211863581e-01 2.527893663041532180e-01 -1.114435402884697890e+00 -9.302987850221902111e-01 5.557996343253102101e-01 -1.173642842713837897e+00 9.401379140834040249e-02 6.394857691160271695e-01 -9.947857817640546330e-01 -1.117625938953470399e+00 2.128625765802276970e-01 -4.770111927712436528e-01
5.199244505825029172e-01 -5.982529437969970054e-01 -5.220777895097661325e-01 -4.724994097254687220e-01 5.211941029128308589e-01 -1.913087936649997822e-01 -1.161773374873159348e+00 -3.795034281262641973e-01 -1.004628272066214301e+00 -9.067311755918681104e-01 -2.413820562964073824e-01 -8.567574062825278336e-01 -1.636249676700117506e-01 3.068466361540020393e-01 -4.566440794694937577e-01 -5.997304809680609194e-02 5.855342038310245023e-01 8.383430027173296994e-02
2.400351123218415553e-02 3.973824580019461039e-01 -6.172327222792299839e-01 -3.489389504661041808e-01 -6.271607791662933695e-02 -2.890524161855046459e-01 -1.020074905142535293e+00 -3.285812205615392112e-01 6.117840565712460155e-01 -7.954489538287343731e-01 -5.992646829108607687e-01 -6.387850998854188722e-02 6.149554608827836333e-01 -1.157217900689117229e+00 -9.504712387304600774e-02 -1.042052750934902239e+00 7.492213605231208273e-01 -1.114083464630284404e+00
1.133128956336625359e-01 -1.189603340790146291e+00 -4.345778131572661240e-01 4.053179289202503699e-01 3.559540587371655129e-01 2.309747653790704403e-01 -1.002618970435642076e+00 -1.019351252422550758e+00 -6.925804318808435056e-01 6.602426533511371876e-01 1.990942126982254978e-01 5.317587098345495367e-01 2.628210328005555971e-02 -6.679778514026124547e-01 1.311592264659200468e-03 3.643675482336982685e-01 -1.049271235421816328e+00 -1.061150097422554062e+00
-2.924848696661904168e-01 8.109745862791517546e-02 5.699943221562215889e-01 -7.527866469442558994e-01 -1.036670399984380708e+00 -3.204976732761666280e-02 6.994127747460692213e-01 5.508492320430893319e-01 -5.842657849680961135e-01 -8.546228700382774157e-02 -4.707306053663954937e-01 -3.672047595953227828e-01 5.165548270598594449e-01 -5.854319289583417331e-03 3.773102985679253618e-01 -1.176974282250332349e-01 -5.068310764027518511e-02 2.841244119132078638e-01
1.802261545203346083e-01 -5.476566600605858870e-01 -2.441435336333514228e-01 -3.847402060454314099e-01 6.983312614214373464e-05 -9.263843105532456601e-01 1.669251159107899493e-02 -5.275452859509184300e-01 5.603126155012538856e-01 -8.699552147078346565e-01 1.547125147035267878e-01 -3.807830976779059129e-01 -1.139347141192708524e+00 6.830397986092762164e-01 1.678728923016107114e-02 5.247426340978555981e-01 -1.089863510554215598e+00 1.517865768254733350e-01
-1.041968311891643850e+00 7.182926541484790928e-01 -7.657694511924035830e-01 1.705119493757717708e-01 5.747581950364279990e-01 2.803135723057665132e-02 9.495273260334657905e-02 -1.147690205387698725e+00 -9.195977388858470741e-03 -4.554879909349785483e-01 7.753946801988256810e-02 5.717260136025421602e-01 -8.970706786808611000e-01 -2.724241540822899821e-01 -1.020685338203048076e+00 5.432028905001546892e-01 2.911458946455307006e-01 6.920512889675315381e-03
-9.755236187211737686e-01 6.095151667464948630e-01 -6.378679381557883499e-01 -2.424179689716867425e-01 6.932414400251138975e-01 7.942401392352693712e-02 -1.005942865434149125e+00 -6.048634345348384844e-01 5.055861982538287780e-01 -5.875038706487532014e-01 -4.759043775964219569e-01 7.303399271025488027e-01 -3.923624580163431186e-01 -1.400518524925693092e-02 9.563552382454079681e-02 -4.662090848079508132e-01 -1.105783510907351719e+00 6.401813906782463093e-01
-9.311387267449757754e-01 -2.530397948023391241e-01 5.114923105495574607e-01 -8.641251522680009067e-01 -7.650538519794405357e-01 -1.034100126872727010e+00 6.353235112987525302e-01 -7.032112376449688451e-01 4.850663497480717790e-01 6.024100826552094556e-01 -7.681756179200081025e-01 -9.439659470715280332e-01 -8.207071636940075354e-01 1.591817444952533800e-01 -9.848957898999386451e-01 -8.545482684522307526e-01 7.136963520704464603e-01 5.224325315338429476e-01
-8.562068681476802112e-01 3.711494476844613977e-01 -7.320547160772066242e-01 -1.186702585011562283e-01 -7.922670134399165676e-01 7.058517589976009976e-01 -7.274047715259099878e-01 2.855840265881412487e-01 3.509853061285569953e-01 1.098276289522860660e-01 -8.378684786444401400e-02 -2.855416753317160938e-01 5.672803272197868285e-01 5.653469019614147939e-01 -8.761134739319866860e-01 -4.239677596161632311e-01 2.630903802181542850e-01 6.758884719758548876e-01
-1.160284424139669035e+00 4.604685449766955929e-01 -1.224615774422981307e+00 6.016686763701852014e-02 -4.009132592481547408e-01 4.968134984406907817e-02 -4.697236304859194189e-01 -1.060078355183880383e+00 6.991508931203846977e-01 2.959821217553043060e-01 4.177944670945819561e-01 5.090305971703339427e-01 4.486541882467005027e-01 2.703996269214839487e-01 -1.055608263976213212e-01 -6.282629964327399730e-01 -6.095322034714947268e-01 6.211548750707687194e-01
