-9.012833361128431697e-01 1.109741126091180578e-02 1.795575035565352140e-01 -8.862265850489599028e-01 -2.993218001352370705e-01 -4.518781367420580675e-01 -1.472461718719476620e-01 -7.497906300970538229e-01 -3.210342738056199408e-01 9.249626432348073690e-02 4.707716506274657875e-01 -3.370993809791888451e-01 -9.120492192906122231e-01 6.718718020860243723e-01 9.062590635145711948e-02 -1.363337211566039049e-02 3.650366553718054630e-01 -9.391670905952906878e-01
4.338281805742565944e-01 5.607742638561892534e-02 7.035707386158452925e-01 9.202517569008311638e-02 -5.908014681855179306e-01 6.513913116447610507e-01 2.246843790167636912e-01 5.964448374948255749e-01 1.316291785047151441e-01 -6.340136044929681747e-01 -2.897048043730591771e-01 8.271379531419499331e-01 -3.696810933024540780e-01 -3.742278699375775619e-01 3.092351993791489506e-01 9.040616592283957642e-01 -5.233619454447583363e-01 -6.535436308575760522e-01
-9.016225545764421367e-01 1.110551622450088871e-01 6.721106268622917268e-01 -1.429569151555363238e-01 -6.680651909320211024e-01 6.786807606775694390e-01 5.327323526855606284e-01 1.622230633440959746e-01 7.267324374287721378e-01 -4.291655460458431159e-01 9.585026311187573311e-01 6.449897363374242909e-01 -2.757346253219080667e-01 8.582583485039441129e-02 -8.169141861900889312e-01 8.333754452596945361e-01 6.731108994086495434e-01 7.667548188773171125e-01
-1.694655141725837366e-01 6.499257101813833426e-01 4.787006896064244926e-02 6.987986608235596808e-01 -1.646418334887928270e-01 4.044771341902262951e-01 9.638133443681387025e-01 -8.600114449013878115e-01 -2.731085075941336870e-01 -9.928129708184599278e-02 1.351213433949674803e-01 7.703931761003792733e-01 -7.959376412281731206e-01 8.391962313091159142e-01 -4.287231980299556766e-01 5.728510559652428835e-01 -5.323981093763383576e-01 -8.007504515480847740e-01
1.132296874421383909e-03 9.299843039308323123e-01 -7.811063048677088227e-01 -1.437569499017406216e-01 -4.509511619653138181e-01 -7.452235403099364275e-01 -5.009086647642094769e-01 -3.902573905426117706e-01 5.734960379175689793e-01 8.705968245619634116e-01 -4.200302445629667814e-01 -4.454654516065198466e-01 -9.220563568587812897e-01 -7.618899366800805373e-01 -1.443934081871736386e-01 -4.441916088015162023e-01 -4.907041367597716475e-01 -5.216400916083646644e-01
-9.321522111511898467e-01 -7.159561482895567819e-01 -1.003921765929158098e-02 -7.224027056860583551e-01 -4.173516543955278491e-01 -7.944286281934118121e-02 -3.141707572395793790e-01 8.767293699456112366e-01 -7.995269002317054730e-01 4.855418573185685260e-01 5.352889378588644442e-01 7.998751224952370675e-01 -3.447054301626875650e-01 6.750259408214215329e-01 -1.987288140291185168e-01 -4.931515024138407033e-01 4.372936737466183721e-01 -4.419189029577360039e-01
-9.028870061297333827e-01 7.267688753282228742e-01 2.137593540230748324e-01 1.805532220429543755e-01 -9.512391214948352491e-01 -7.210193590969360411e-01 8.752716621240004269e-01 5.205807204199868199e-01 2.620595320568110398e-01 -2.644322408556086246e-01 3.542534582739564342e-01 2.951361605356419004e-01 1.567765385843433168e-01 -4.617802525036274752e-01 -4.725611055445593789e-01 -7.736486824506763060e-01 -6.580810643014227690e-01 5.647039783208915864e-01
4.261542541233240278e-01 2.143890549996392281e-01 9.735448931632444403e-01 6.050878070510714579e-01 -7.955322298961993166e-01 6.610882842416461180e-01 2.095981803527513510e-01 -3.805247623331016738e-01 5.939438755543169357e-01 -6.582888474959716074e-01 -9.073731567797542752e-01 9.182737264258380439e-01 8.715831080486882154e-01 8.827642832950330920e-01 -4.951145751414958718e-01 7.119126960881230204e-01 -2.302008246661022550e-01 -5.182314442272895061e-01
7.235136427994363073e-01 8.860229313190025602e-01 -7.170834841719652131e-01 -7.655834184290836175e-01 -8.180016115621869810e-01 9.609257705123161464e-02 8.830454664997912095e-01 -4.558731918882813483e-01 -5.090945479363465642e-01 3.907969465648554186e-01 -4.329718879876497395e-01 -5.058881556500208765e-01 8.308819259040823857e-01 3.740332753103735586e-01 3.287140257419752798e-01 4.254418042814217538e-01 -4.289361376702905959e-01 5.213266534245623168e-02
-7.625361972127941979e-01 2.078502220242243737e-01 6.197016425313994770e-01 1.925524725993250181e-03 -1.747615293944835835e-01 -8.469493152218436904e-01 8.567880346376781642e-01 2.178089099587582900e-01 3.271203101967232185e-01 -6.974972036593192204e-01 5.868011601443572783e-02 -3.146380895778258524e-01 4.138364050255025073e-01 -6.927154519739293637e-01 2.898853071424043262e-02 8.267698681094315383e-01 -2.320151787711651203e-01 8.848422638040454036e-01
1.598003087660973820e-01 -8.552230343559525938e-01 5.563997861306517745e-01 -8.238588725160813642e-01 -3.260632616442094706e-02 -5.688402746926610742e-01 -9.402625685639587338e-01 -1.457370054142582971e-01 8.547825935879274084e-01 -6.863948858126942554e-01 8.747308881833586458e-01 2.681569177299427675e-01 6.600496426711350839e-01 1.626941292193557348e-02 2.609733717129569808e-01 -6.010663646947271843e-01 5.639811844876116975e-01 -1.736555048330291895e-01
7.007999642252428218e-01 -9.392775001171712601e-01 9.297558699155074047e-01 -1.065959813971780051e-01 9.306464346015559663e-02 9.978147698843701230e-01 -7.692542722754830420e-01 6.707729463647630341e-01 4.477799730214557239e-01 -4.936893356987848702e-01 4.959281288697391932e-01 8.722356632208144722e-01 5.834469734083659320e-01 -7.333181967580241212e-01 5.329122621456895414e-01 -1.573171952754772729e-01 9.991495565780151855e-01 7.513503198693506357e-01
-1.349470811444523910e-01 8.425248405990534151e-01 -4.367754939797230396e-01 -2.584249099266049399e-01 -1.138315172763106412e-02 1.375475204507759230e-01 -8.490759856527826388e-01 -9.590551516959532341e-01 2.977231775577589001e-01 8.438459351584136625e-01 -1.685313744530083369e-01 7.363016070221786724e-02 9.221713672600796441e-01 2.836720486657895446e-01 -3.210689897665846004e-01 6.783522073595714685e-01 2.536505373427774268e-01 9.606045514862845414e-01
-9.629237728775867922e-01 1.179537673459905983e-01 -7.887821809426369679e-01 -3.659327872560907413e-01 8.326145644013300817e-01 9.992387768101855805e-01 -3.959356714140621070e-01 6.303193205215223971e-02 -9.113634322574805380e-02 -5.676339260960332478e-01 -2.174856799661011308e-01 3.848438794193029255e-01 -5.828535499927174346e-01 -7.041150419314501363e-01 4.811622055449537583e-01 -6.775028186767804161e-01 -6.462574529496682985e-01 1.680236071470022630e-01
9.446469342871598451e-01 -7.895975768742710121e-01 -2.716045950164992506e-01 7.640577152344979472e-01 8.840785257890882987e-01 3.385330355163348459e-01 1.820328639354406863e-01 1.176834278292359648e-01 6.055777451708633796e-01 -2.826603981060210602e-01 2.807020102557596930e-01 3.669273474191877549e-01 -7.750943955132211238e-02 2.948412511077226350e-01 6.222145044272614500e-01 -1.457770913755398745e-01 -6.452035060362525387e-01 2.116193895142519377e-01
9.774820214005832675e-01 8.128187466690484086e-02 -7.737352575565601409e-01 6.787246605285290890e-02 2.692043961730090640e-01 -2.754042097810061041e-01 6.187607969393116303e-01 6.823117634981605839e-01 -8.476933743088155282e-01 8.831047220301635470e-01 9.075937833144032130e-01 1.952286599350273044e-01 -2.086580365624630118e-01 3.167260675485179533e-01 1.811263379416255259e-01 1.187688379559586060e-01 -9.257994221901502119e-01 -1.152294302190020048e-01
-8.819666057671042836e-01 -9.884860741449559285e-01 -9.595415530757946954e-01 7.343976652228210167e-01 -4.302955408873758714e-01 1.356718724849347024e-01 -9.346427016127671905e-01 9.004442067861766485e-01 -7.774058710420237439e-01 -4.265443094929473045e-01 9.481169081290876655e-01 6.817895136498773601e-02 4.331678632402291562e-01 -6.700900557608560071e-01 9.599386776514025055e-01 3.518869233124921614e-01 -8.269506733989430425e-02 -9.340259406959598998e-01
7.591088491442901098e-01 -7.293312470784738544e-01 2.502378430188715863e-01 -7.483208144165283127e-01 -3.450943629657507450e-02 -8.541780313612024056e-01 -4.323981374996813121e-01 5.249832048505107540e-01 1.933855907280974951e-01 -3.352270293120816480e-01 6.736118535161332854e-01 -8.693085451697797339e-01 -5.454585376941576413e-01 -2.220279725351283762e-01 4.766130762013029432e-01 1.362542968743707672e-01 9.611841951635530235e-02 2.541573659510675820e-01
