-7.630441959815444930e-01 3.476817386262868320e-02 -8.448316712425126829e-01 2.672778629324052413e-01 4.772653907268154527e-01 6.623160403116334916e-02 -4.015434463103422780e-01 7.464112597340216704e-01 -2.256342366733850302e-01 8.538032921932000585e-01 1.243676708331938009e-03 3.477964772673241417e-02 1.861484736677967711e-01 3.267183096189535951e-01 7.407696585251543064e-01 2.278124528369227797e-01 -9.919415946996349431e-01 -4.682938016814466864e-01
-9.429570234294980535e-01 -2.252812065711367329e-01 9.546654924844291679e-02 -9.690507770514632524e-01 5.403397050889992975e-02 -6.479494987970374487e-01 -4.416528115317640002e-01 -6.627066569191512047e-01 8.110704916435121925e-01 2.226044881255989927e-01 5.851483539026706149e-01 -7.458756908724221146e-01 5.588446358655857482e-01 -8.945671272311920275e-01 -9.637164829446392966e-01 -5.172349135606741921e-01 9.046529000882498339e-01 -7.871066612088072345e-01
-7.126476688049224739e-01 -4.350016250382442995e-01 -2.700007304706719680e-01 4.747967769949409944e-01 -5.333609392832798779e-01 8.113829196544867228e-01 8.572472359728634528e-01 -6.330632818333188638e-02 -1.946125904231809367e-01 3.714207346540485816e-02 4.289689225679894219e-02 -1.369607473989447599e-01 6.531914142949105662e-01 7.459266149755926500e-01 -6.405168949628105013e-01 -4.468903724362712215e-01 -2.870744176820806959e-01 7.025165406303494064e-01
8.508380352947558789e-01 1.840916604992675343e-01 -7.658250877353173225e-01 -6.139071671702810429e-01 -7.800349125914803894e-01 -1.076729496324459801e+00 -1.324583947963192954e-01 -3.139051589819260024e-01 -1.095684262390518027e-01 3.687984803204555351e-01 -4.108768193979659977e-01 -9.836775139062370853e-04 -3.664331097992777342e-01 8.471233650155310935e-01 5.987738663514434456e-02 -3.995348030711055043e-01 4.806440079305828728e-01 3.802233610050626544e-01
-3.736387816821964969e-01 -9.624291145207340969e-01 -6.581284010180407096e-01 3.442632718214255205e-01 1.560223917487808254e-01 -3.471640160781808704e-01 -4.460548634213608588e-01 1.722551274753143791e-01 -4.788529263630057486e-01 -9.019617626998676085e-01 -9.619495656892179669e-01 1.221930039008809893e-01 -8.840662004102933791e-01 6.743413174825000356e-01 4.904227924156485119e-01 -9.867289845873713494e-01 6.539952534890335345e-01 2.781177935922868882e-01
-8.622018980481228612e-01 2.683724457510982542e-01 -7.609642685400125339e-01 -5.327537338684749102e-01 3.147227964648819376e-01 4.011272495462291920e-01 -7.866477589065216103e-01 7.757095795568172969e-01 1.458844271504237955e-01 -7.879256274214953004e-01 -5.586115680618627399e-01 -1.453101506771558304e-01 1.289155896425306647e-01 7.585675522387770320e-01 8.832093420448833276e-01 -9.229293801490033866e-01 6.558725583452577057e-01 -1.207040019541061882e-01
6.976864741420344407e-01 8.513802900961259246e-01 5.572235039750063068e-01 1.394953115807395505e-01 -6.713839347064080032e-01 -3.882457732642510817e-01 6.674170024023619030e-01 -4.013344921281208344e-01 -2.560888063971455963e-01 -9.005021090347863355e-01 -3.385962443878539063e-01 -2.002997380375532155e-01 -2.211506782494072898e-01 4.371101475139181347e-01 -6.165604000933398027e-02 -8.118230586126155002e-01 -1.395723198378744090e-01 3.221007439047627458e-02
-1.043830623437034921e+00 -2.093531061025735440e-01 5.131899354911714228e-01 -2.624740210290434361e-01 -9.540940180803151316e-01 5.271536090079481651e-01 4.680716590749255945e-01 -2.257195529952638335e-01 -3.444085527226291021e-01 5.032578764237837232e-01 -1.994667469179949582e-01 -8.304680063650063948e-01 -4.960915977422806766e-01 -6.154901539833038671e-01 -1.204181320125975452e-01 -5.942243577927989184e-01 -4.889972843977328787e-01 2.585971447592447237e-01
9.098943916855032343e-01 2.607224549767814259e-01 4.129556615853226531e-01 4.042785319104917341e-01 2.539822346928130581e-01 -9.629381279050386322e-02 -8.529120908366374931e-02 6.580008865958005826e-01 3.503063792999063231e-01 -3.500722182403746552e-01 -2.610726593380500171e-01 -6.297017118565467753e-01 5.717643064037706280e-01 -5.748826389950689036e-02 -3.679707101221602744e-02 3.221985456635724776e-01 -8.210750434546306709e-01 -9.784152004366731825e-01
2.162146601305305754e-02 -2.943260011946882693e-01 -6.782122734129597541e-01 4.987568736355300070e-01 4.881365336344944267e-02 -2.618852366892669425e-01 3.624525173752370377e-01 5.848132128768972898e-02 2.499114430824056210e-01 -9.288794254940590731e-03 -8.161785554297497081e-01 -7.757138503586834544e-01 -1.006262916775938487e+00 1.997949529746633479e-01 -2.290342483889336311e-02 8.046900312360726337e-01 -2.743923096372313242e-01 -6.500614397714364889e-01
-1.047535681901590410e+00 -9.938774641779385410e-01 7.835765571722680400e-01 2.787670580045730762e-01 1.649853854526241725e-01 -1.062223960495700670e+00 -5.232054395290876014e-01 3.085265955831592577e-01 5.354285116688571877e-01 -6.991806785447448602e-01 -9.729624031618310243e-01 5.080063096342070095e-01 8.083873411400753772e-01 -8.544562685435052041e-01 3.522248804094360586e-01 -4.725107867436464937e-01 3.588397088695209347e-01 3.441657091808271729e-01
2.279325628971023698e-01 -5.958213133188327015e-01 -2.846367024813304947e-01 -6.485962098883267801e-01 3.616843925705572338e-01 -9.340505225797862687e-01 -6.158973685149091853e-03 -3.604212280645980454e-02 4.526562426308523013e-01 1.424220904370414320e-01 -1.345647663666313665e-01 -6.167763013311403641e-01 -8.816899887365793331e-01 1.539853516234903352e-01 -8.428656111650342231e-01 -1.412122043027962126e-01 5.751978594487249241e-01 8.137447279707609171e-01
-9.563699226252696528e-01 -5.209092351804955889e-01 -7.504174413867800153e-01 9.997872829512532977e-02 4.371598516360796771e-01 4.299758676278765956e-01 -1.066562847778835810e+00 -3.336506202116163444e-01 -4.662752467942417600e-01 -6.425023624354301299e-01 3.996574941051104779e-01 7.088878658561207358e-01 2.041830332575563511e-01 -3.248724560660518068e-02 1.026573118758953573e-01 -6.623401334660495854e-01 -7.009660005578451786e-03 8.026572360919725924e-02
-2.363449797981935149e-02 -3.295583705698236776e-01 1.372372878093588155e-01 -1.257840545679347888e-01 3.569234678166245955e-01 2.778385678954939375e-01 -1.052594033032525411e+00 -4.220642238600092605e-02 6.214766102404590820e-01 -8.489772751368070969e-01 -1.038827781023283325e+00 1.655657950077180363e-01 8.177783517171054450e-01 -6.097416274837196282e-01 -2.122946172464253156e-01 5.271337730103434760e-01 -5.607029877242346583e-01 -8.811646514773355254e-02
2.703005715223438243e-01 3.583301197322849574e-01 8.965895394452186307e-02 -5.115172612615793701e-01 -7.167675400421266163e-01 4.616956395283943609e-02 -9.047158382776784302e-01 -1.049903951378748257e+00 -3.729087433894498482e-01 -6.924881884911499030e-01 2.230208185562339851e-01 4.588995912049836368e-01 8.340294426346678280e-01 -1.059227394848656134e+00 -5.864662461315827136e-01 -7.427727786760361939e-01 -1.547869536968825843e-01 -7.183299104963080106e-01
2.387020461106581226e-01 -8.186860296342045595e-01 -2.578890949961835655e-01 -3.186522382928704267e-01 -1.069391990982382357e+00 -1.032564290505554538e+00 -4.554389725238113251e-01 8.325418263512017747e-01 2.268436515676551524e-01 -9.340426019461967044e-02 -8.497773974226766613e-01 2.138928123983814544e-01 5.733302357246571335e-01 -1.010624486341475947e+00 -6.835554612704904942e-01 -9.994500284457373818e-01 8.147571044960640885e-01 -6.223733344789689204e-01
8.008653106825690537e-01 4.499485139329372774e-01 1.315413780861498239e-01 2.614392777267715018e-01 5.304420717451502343e-01 -1.072710355260557469e+00 -3.660715234756422576e-01 -3.197864816791322062e-01 -1.080550436761505528e+00 -6.898960401221555516e-01 -9.312631784465340568e-01 -6.364438681108420814e-01 4.424094304857241755e-01 -9.028147419822495356e-01 -1.695792272814194146e-01 -5.159256142039725379e-01 4.969959330869268554e-01 6.824354031618965477e-01
-5.213449885316763233e-01 2.395280112785918569e-01 8.466341459336238495e-01 -2.903066093854273499e-01 8.274058796858437814e-01 6.850193507819138938e-01 -1.007125365961326624e+00 6.495580540677395875e-01 1.248077888311969058e-01 -8.316163078629349448e-01 6.222511104093469969e-01 6.450678871101039880e-01 7.233401966964224661e-01 -9.021050000959774939e-01 -7.219823677667555062e-01 -9.752473307837229433e-01 -8.077530752511302703e-02 -3.315658839134170699e-01
