-4.276806251990097341e-01 9.260482285605700081e-01 -6.650368344889201477e-01 6.239325040890539853e-01 -1.285706118128963904e-01 7.822020448073965238e-01 7.772372017315669623e-01 -3.405219301260022924e-01 -6.228527781186576906e-01 4.390672522578014103e-01 -9.084672566592830179e-02 -1.182320455525759095e-01 7.731928506011975788e-01 9.788069236213379209e-01 -6.044754013558635286e-01 -6.771048950696123558e-01 4.821303217161214683e-01 5.887306354150605436e-01
3.476944569535938001e-01 1.789659804834641543e-01 -4.011739357148482732e-01 -9.349032947666021665e-01 -2.408196077166187832e-01 8.106925483534240806e-01 -3.483642218393070422e-01 -4.369653833397733056e-01 -1.800134517352341285e-02 -4.737884156048912665e-01 -9.219442203246465128e-01 -9.798145776407257701e-01 9.543115864013317351e-01 -3.388233262467650331e-01 -3.881189147184465060e-01 -1.353773244040631096e-01 4.599153896814338616e-01 -1.137195958747309610e-01
-9.430233574549151676e-01 4.063737084078132833e-01 2.313778585794422915e-01 9.947810089514061982e-01 4.055080695469516217e-01 -6.014205698675390011e-01 -7.739337583650003349e-01 -5.738737266146196614e-01 1.989661869127886951e-01 1.203660409623679046e-02 -6.414636223022904815e-01 9.175494406618758259e-01 -4.234581562399227783e-01 4.871314474158158214e-01 -7.513586475764542083e-01 9.002207493595315579e-01 -4.881601976859507586e-01 8.422555401469820069e-01
-8.794060202152265138e-01 2.013131869102265104e-01 8.079977618407343520e-01 3.918073287737490196e-01 9.904439966782960791e-01 -9.883273510320345068e-01 -7.615353647761671230e-01 1.596755564305758074e-02 -9.350626066398628478e-01 -8.646671364082516575e-01 -9.722397985371939999e-01 -8.376846458434907827e-01 -2.452910310900790758e-01 -4.502505308766434622e-01 9.664304369834386677e-01 4.859961368167707851e-01 4.620250823782779959e-01 -1.889299043117547566e-02
6.197255917803553248e-03 -7.393335703368265621e-01 8.261707488316304415e-01 9.051421313451654127e-01 5.289590301839873776e-01 -2.313618587306157104e-01 3.580086782474060647e-01 -7.692814595921667609e-01 -1.779776855070687724e-01 -9.859471060514460872e-01 4.338308102133802691e-01 4.321873436847373795e-01 -1.072399492915131758e-01 -5.657674893193830323e-01 6.470931268114293866e-01 6.520322039108702450e-01 -6.163200974119004139e-01 6.757663128680845288e-01
-2.267165947636869128e-01 3.531667667033138724e-01 -8.241347873867024276e-01 1.172406632820179734e-01 -9.142627062354500289e-01 2.117741359016844516e-01 4.298000472143559403e-02 1.107338161341242869e-02 -4.493654078781010308e-01 3.239968095724362063e-01 -3.765515095133268875e-01 6.485032436920405985e-01 -9.476226927082109786e-01 1.489355923134522974e-01 2.792127646162881338e-01 -8.885514386952443611e-02 3.502535502480955132e-01 5.511823378784321825e-01
-6.087688535968260872e-01 3.383658505490997337e-01 -3.749874236784228598e-01 -8.846042455282490113e-01 -9.284354207775298296e-01 -5.358403249681864544e-01 9.477251202745431424e-01 -5.738270073305762331e-01 6.880945928207056195e-01 8.338143109300062417e-01 -2.532952263771554025e-01 6.572301669294839943e-01 8.637997894695387258e-02 2.733612616602945633e-02 6.000254544553358382e-01 4.529828706671988892e-01 9.349876019979070918e-01 -4.807888701591865876e-01
4.479923257038024437e-02 9.209793898542056878e-01 2.876297536734953031e-01 -5.103832739090944370e-01 -1.069601106495878945e-01 -5.079425818066681808e-01 7.622036651982372346e-01 -4.624916064429667184e-01 9.930821858959343329e-01 3.518860917163881830e-01 9.681893370863224879e-01 8.475164972340262226e-01 1.711958885904144023e-01 -1.788543929831782342e-01 -6.952202151616456716e-01 -3.299571500238611677e-01 -3.682742304295465452e-01 -1.454789004129827812e-01
6.409539397007363304e-02 9.269561208637444594e-01 5.737563507866292323e-01 -8.518033259730573015e-01 -3.807808759166064760e-01 9.293965909432404526e-01 -1.940451990532160442e-01 5.584676172530125271e-01 3.686542946285613631e-01 8.932860998860858714e-01 9.774213749005566942e-01 -3.806587008902537761e-01 -5.849014689855955851e-01 -9.174124404844234970e-01 -8.497610187372364177e-01 -3.096070026291188881e-01 8.461033126957089312e-01 -6.641933897549026078e-01
-9.719125493536064919e-01 -1.867822607097945897e-01 -5.707719477073323056e-01 7.635489887087782979e-01 2.319622453430508213e-01 -9.272767519284517146e-01 -4.980086282598525926e-01 2.854224500993018943e-01 5.606338269543947178e-02 1.416302304919710431e-01 5.617857087483375533e-01 -7.963299773953087524e-01 1.265697979142457741e-01 4.003320961285330437e-01 5.051442412027649098e-01 -6.671499451681035531e-01 -7.973938680502552778e-02 -5.137044169293962792e-01
3.535289758335505850e-01 -9.930867428084169113e-01 -5.531837305026248153e-01 -6.732908910672898983e-01 -9.832910584972262558e-02 1.438049759967313379e-01 -9.918223459796857711e-01 -5.492769797016854305e-01 -5.257465526442013370e-01 -6.674842146209820637e-01 4.750476069636159204e-01 -1.577320224158874906e-01 -8.631317985207223042e-01 3.362541251234073547e-01 -8.430122271086830654e-01 6.485341202001029259e-01 -2.658088080348691706e-01 -3.684752825772464879e-01
-7.657294139321715321e-01 2.228017207147521273e-01 9.560431779213769410e-01 -8.249050608940855511e-01 -7.043010214776550537e-01 -8.036955537727052956e-02 4.274907750784880112e-02 -3.046934640434194042e-01 -9.878736685434519327e-01 -7.873151306200636412e-01 9.465027335697977495e-01 7.385142413809475670e-02 1.144601639142586169e-01 -5.127824004170100647e-01 -8.658768084728412084e-01 -5.516589788886208101e-01 6.280331879730227662e-02 -1.259246843873766952e-01
1.857472628293269368e-01 -1.229886432979404171e-01 6.283326185541809883e-01 -7.285837883406643956e-01 2.763215066601046321e-01 -9.376219948329510556e-01 -5.488090197992635533e-01 8.714649031277078572e-01 -8.477415248702889761e-01 -5.911312265689728784e-01 -4.136309921683913315e-01 7.585742572148285179e-01 -5.131077339795254710e-01 -8.161135772516848741e-01 -9.223428527334872618e-01 -5.033570335698328568e-01 2.262219188599673136e-01 -1.307544524994964930e-01
1.204252072984197119e-01 4.919117396523179919e-01 -4.053139126398988545e-01 9.588894201104828374e-01 2.683549545654608237e-01 2.970975836252149338e-01 -2.577048454335065242e-01 2.932400091224950933e-01 -8.278200077758653963e-01 3.077421777390182966e-01 8.078706011361339590e-01 5.511051341174914020e-01 -9.899230808695437256e-01 -3.757741399763501744e-01 4.833437958142356439e-01 -4.452399053000862250e-01 -3.858731745830015769e-01 8.674982228570052856e-01
1.376003756565892522e-01 6.183868785619782704e-01 -6.398221954576394088e-01 -1.170040738452569340e-01 -3.078184471673099387e-01 6.647221266386310612e-01 2.995308548797244730e-01 3.005725230254026603e-01 3.712381658358421821e-01 7.182827292472432346e-01 -2.554221904422639411e-01 4.211321212442878381e-01 -3.407400782540017103e-01 -4.930268142525319752e-01 -2.139529113947400904e-02 4.302760317755767727e-01 3.701051006765499474e-01 6.894527538419327195e-01
9.908038982159067531e-02 -7.664704056455221570e-01 5.419929054265116841e-01 -7.838463115780743840e-01 -3.228964382970559432e-01 3.849758800317276686e-01 -7.388504464480912803e-01 5.718633503351729930e-01 8.028748108567876907e-01 8.831105967366358334e-01 -9.590833790816374327e-01 8.345877476851141230e-01 1.416916283882640459e-01 2.208633506816288228e-01 -8.839659463191150701e-01 2.436397249979508906e-01 -4.892608443084748293e-01 -1.609006414157983511e-01
-6.469953713052222222e-01 3.433259919209872835e-01 2.442379020112753485e-01 3.409813517119054116e-01 2.640895208390324211e-01 2.637009868745801566e-01 -9.217766091268267958e-01 5.243998474842614943e-02 -8.822433648187150146e-01 4.791416727113811391e-01 -9.899396488814485862e-01 9.449691680303436980e-01 -6.451483723765051304e-01 -6.316944892106653164e-02 2.301475719918538443e-01 -5.253705433581948858e-01 8.934162750492754546e-01 -4.169822497463843702e-01
-7.328269037832463306e-01 -7.600329133514877045e-01 -9.112024984494869750e-01 7.492314494906172628e-01 -9.409323863090722773e-01 1.223891779471809327e-01 -2.919129634598751077e-01 -8.829917697450563319e-01 5.183510403266354816e-01 4.638195638639830976e-01 -8.545320108067039344e-01 -6.802578074268353925e-01 -4.194090019955271642e-01 1.812957713574709639e-01 1.894373956533592362e-01 -7.888817948730210139e-01 9.120664935842696108e-01 4.941818081419931397e-01
