9.215061787190687026e-01 -5.638912703855661346e-02 2.756379229046221901e-01 -8.076885586931249472e-01 4.976420692980327853e-01 -2.403493128245311472e-01 8.803967112067297984e-01 4.854632889785077676e-01 -7.216609435146045248e-01 8.641284235611413900e-01 -5.014260804242248737e-01 4.389648117385400727e-01 1.260442208328866331e-01 -3.375646788188171321e-01 1.887594352470569059e-01 -2.755935744044717417e-01 9.653216245359576009e-01 8.022590577656073529e-01
7.149157861153124793e-01 5.846221748641463600e-01 9.900205204272841675e-01 -3.504710653016045452e-01 -2.707566395069551657e-01 -8.471857746321896920e-01 -9.631142400775991042e-02 5.551282478807243459e-01 8.470156341908582354e-01 2.474534658295412526e-01 -4.495304566637907673e-01 3.073508482396492339e-02 -8.912287313715569481e-02 -2.194994133576471662e-01 5.485381808571373474e-01 5.690802989011355395e-01 3.802267595491140018e-01 -2.952314951751975336e-01
-3.037989723044176582e-01 1.100969783991216089e-01 -9.370001744156720713e-01 -8.831293669622334308e-01 -4.572342517267724560e-01 -7.523658969668450824e-01 1.287280547587307811e-01 4.128410189364664085e-01 -4.357344435048280396e-01 6.464331586346295788e-01 7.894225443155210575e-01 -3.353756517412338489e-01 -5.987171644106011881e-01 -8.240679500922037937e-01 6.512846300063933613e-01 9.133022442615118530e-01 3.410338674037124984e-02 -9.449103298943973828e-01
-3.210178771791780683e-01 -8.159862076617172000e-02 8.687759184818019120e-01 2.001483336326609908e-01 6.010886059400072368e-01 -4.991755740036178945e-01 -1.834511213712775590e-01 9.517708817582731795e-01 -4.830299646249156531e-01 9.875345000598113598e-01 7.239665391230915015e-01 -9.566343751025293551e-01 6.913805367425779336e-01 -4.278139398618365785e-01 -5.857693234944659766e-01 7.448128245716499896e-01 1.435998342345544583e-02 4.139668491868360705e-04
3.499968448503936180e-01 -9.708854371062508593e-01 8.047819299923736347e-01 7.388228393422927587e-01 -2.896372245474621021e-01 8.416641001201466410e-02 -3.153568693927546462e-01 4.296610343673405996e-01 7.722612277660357849e-01 -6.153689451163951718e-01 2.742390945325323681e-01 1.293583407419029441e-01 8.340281161277328659e-01 -5.300911021261832667e-01 6.375440660183854247e-01 -2.845994229628334704e-01 3.276376188601239914e-01 -9.623742342298465813e-01
8.975526890642450129e-01 -4.874663404523700283e-01 4.259833062452238472e-01 8.023840233450432735e-02 9.687209176681531586e-01 -8.783020071989769972e-01 6.477890154635658204e-01 -6.144879214867840500e-02 3.242585133067990011e-01 3.406650032270419626e-01 3.132599794162986839e-01 -4.209662113469487821e-01 4.830636506448198197e-01 -7.695059013771589074e-01 -2.741422889828526444e-01 -9.811945104843061705e-01 -4.171565547355611248e-01 -2.027354718958163798e-02
-6.618525358837535899e-01 9.918746109315806914e-01 -5.924996689431470953e-01 8.962805233282314377e-02 -4.645170130501714567e-01 1.587720733294141762e-01 4.741782596039287867e-01 -9.605091203407088996e-01 8.293028936316958477e-01 -7.816123080428579728e-01 5.298331823065153268e-01 -7.837929652165102068e-01 9.468348175728992233e-01 2.586217301153239667e-01 4.116011689639995641e-01 2.781928225053467152e-01 -5.248097358712290328e-01 -6.832036647663558560e-01
6.153983351869948271e-01 -9.668938257979814432e-01 -7.593337377170047420e-01 6.478032587589398483e-01 2.201447783561167326e-01 5.141577371836650867e-01 -5.432213378930411674e-01 4.266510234685116920e-01 2.470467196000846744e-01 7.087768602407614749e-01 4.277054116044720633e-01 -7.209549914958032213e-01 -8.855615963645377398e-02 -9.158484655307494449e-02 6.060394216700609737e-01 9.302687619070605374e-01 -9.564185751500756671e-01 1.464603253017288664e-01
1.295817737682262716e-01 9.529940393988717284e-01 7.301934712351290657e-02 -6.995702671953581975e-01 -4.105420022733330399e-01 6.197918311223044041e-01 -2.770454082916138372e-01 -4.555226458324160288e-02 -6.918442366668841048e-01 8.408524589678444405e-01 -3.609801970337538357e-01 -6.719212355224607469e-01 -8.005350863622765489e-01 -9.367998693886426809e-01 3.389921351653188419e-02 8.844399809143203006e-01 9.978578270973074149e-01 1.553252379206783718e-01
4.880868126697508469e-01 -5.262650918332484329e-01 8.024355560228265682e-01 4.435300014378040778e-01 -1.168295271684998970e-01 -9.174963432949018172e-01 -8.317599125225446643e-01 -9.624346082375497824e-01 -6.274713476670440437e-01 -8.506652439778411567e-01 7.421677364352815554e-01 -7.020648303260185186e-01 -1.292891538015675246e-01 -4.604330579705473436e-01 -1.989989273619639509e-01 1.594916099467024589e-02 -2.790299498454114069e-01 5.040328834364838917e-01
5.096316150099106101e-01 -2.030854990196813703e-01 3.304695446593517438e-01 -5.585273364485962011e-01 5.503534210309594110e-01 1.548872034740264580e-01 -5.111613435985585818e-01 6.979948704560287043e-01 -7.431186270934234672e-01 -7.668148040184062930e-01 7.361533373441940808e-01 9.939367271959090866e-01 -6.388913829358987551e-01 9.957322969383842759e-01 -7.175852624758373155e-01 6.493336409499594333e-04 -2.784611349377119627e-01 1.703130095660835841e-01
6.985463349504573705e-01 -3.191290076964805600e-01 1.253366778057338898e-02 1.995956530026771758e-01 -3.035329343072448172e-01 7.873153872817025833e-01 9.428543615870338401e-01 -9.922843747562585248e-01 -8.200222711926979935e-01 -8.638157730366159415e-01 8.634695085865055075e-01 -3.588946529056709078e-01 8.703443620020917537e-01 -6.683957753075410180e-01 9.698910374688124447e-01 2.597369316306687992e-01 8.699854722180572209e-01 -4.892292444925370187e-01
-4.298585798567544636e-01 -3.703293246541112804e-01 5.642807167388504963e-01 4.647025480805908049e-02 2.278061101070202876e-01 9.758040819142795863e-01 -9.894381824228980493e-01 -7.388639839280254362e-01 -8.402423912474271672e-01 -9.179161163627466147e-01 -7.247831497608007156e-01 -9.419501835003060153e-01 -4.858752849465244328e-01 -2.474991376855280589e-01 -2.372764530195792948e-02 -2.064069772199462194e-01 3.970043978973722965e-01 -1.938967045735325301e-01
-5.814758377057754890e-01 9.654214875599568257e-01 -6.054451167570309988e-02 -8.735527559895012173e-01 -4.068822622583319060e-01 2.696942218583684436e-01 -6.626587327370537794e-01 6.462584101870852971e-01 -3.080312263249951332e-01 -6.750636641357491419e-01 -5.322228991276131138e-01 -6.583429665386973939e-01 5.213101716372111616e-01 6.164645473107662754e-01 7.056070105765103184e-01 1.154726890302607833e-01 4.111687346844352664e-01 4.380001482800184309e-01
-4.663673334285407535e-01 6.183868661984422838e-02 -1.720532815145670580e-01 -9.322461236755831271e-01 2.562496563895191315e-01 7.627670622274896894e-01 -1.984546867963681849e-01 -7.195133501770144546e-01 4.639908336998597171e-01 -9.773172244502362771e-01 7.755959825928538942e-01 5.775782374580801237e-01 4.905455138101206813e-01 -6.589241601157874717e-01 9.039355156185376883e-01 -2.325027494083491963e-01 6.263036237335574130e-01 7.576297053065440545e-01
-4.043365820573201486e-01 6.299072431292841445e-01 -7.789094836361741825e-01 -6.624897252022087235e-01 -9.845830932009905778e-01 -4.711392851557767436e-01 -7.894119970782266238e-01 -2.667928536108000320e-02 6.757823433521999990e-01 9.888299983483334055e-01 6.711226526800541103e-01 -9.058301494638399953e-01 -2.559146067103519329e-01 4.664555829277492460e-01 5.928765290463006155e-01 -8.328019238737461860e-01 4.788336947129379073e-01 -7.716235720410687948e-01
-4.916226637352396622e-01 7.878274221846056635e-01 -1.008338458798712922e-01 9.139409624994451198e-01 8.540338281689660027e-01 6.751341491228338709e-01 8.166571434740989011e-01 -4.710281579592867640e-01 6.861610872407041262e-01 -6.836999895343011113e-01 6.497854116335554098e-01 9.946359423763754259e-01 -9.865680865259093268e-01 8.677845217883927154e-01 1.112209211940836939e-01 1.098783864585116954e-01 -9.749445272035593968e-01 7.452079971875483766e-01
-6.549173450059039281e-01 3.253544855623471399e-01 6.730546053726307876e-02 5.567839190727527088e-01 -8.217672647978310763e-02 3.918854399737055072e-01 -7.980952039786938235e-01 4.186001725918773175e-01 1.487006188299510590e-01 -4.845801409607266574e-01 -4.129879335298587417e-01 7.228283906035349871e-01 -9.355754684824856282e-01 4.691693378791825797e-01 9.893638201783913066e-01 -8.822622871857156435e-01 1.540168475269844683e-01 -9.747576292916734220e-01
