5.243225614002418045e-01 2.124315007058661664e-01 -2.028735985236874637e-02 4.362121863270090327e-01 6.793997171466810148e-01 -4.017999664828303952e-01 -3.563721286931482157e-01 -8.386016001627714100e-01 9.873224009847834104e-01 3.911838372746279657e-01 -9.375963977786185843e-01 -5.376704040486148806e-01 -6.092180245608034284e-01 -4.913948541778340728e-01 8.393950394871614318e-01 -9.223912288753690625e-01 8.404467317903676626e-01 -4.319678111571977897e-01
8.691647701642621904e-01 7.116925461509839845e-01 4.277048041893972974e-02 -7.533611653578613510e-01 3.163970872667877243e-01 3.782395893948921062e-01 9.336648049101552438e-01 2.248895082500021458e-01 4.175433962605025473e-02 -9.917215052648640228e-01 2.750158939871260033e-01 -9.356680608782921293e-01 -7.400808170923824925e-01 9.683197428254297634e-01 8.731602888762228787e-01 8.731809609980394349e-01 -1.309788584659657418e-01 -7.385087916729533575e-01
9.256431977684057566e-01 -5.884856961556351740e-01 6.816024071303544707e-02 8.467435742375925001e-01 -4.464603947576374354e-01 3.332798221611953382e-01 1.688178847696441831e-01 1.295670142710474149e-01 -2.734188466725869793e-01 8.280980760475870062e-01 -6.414039703676212012e-01 6.237701652134328839e-02 -7.348808611326392848e-01 7.222249658992662136e-01 -1.932867957123119915e-02 9.486220985077956636e-01 -3.282232292390788730e-01 -7.378249956892833916e-01
6.540342466651708486e-01 -8.264909119639446411e-01 -1.343391470277722766e-01 -7.601771080468054942e-01 -7.743286113132915593e-01 3.496549202456256111e-01 -3.027539077596355099e-01 -5.505812542054858150e-02 -4.146097560368178225e-01 5.915149343911804691e-02 3.088871383065621146e-01 9.512560180240475782e-01 5.053805282523281539e-01 8.012766050904290838e-01 -6.179686143301309498e-01 4.389927392643186987e-01 3.754063235714455438e-01 5.496615650826840449e-01
1.515896469018554737e-01 -4.753737424697259684e-01 3.598719405836212637e-01 -8.633930294649659887e-01 2.743625056759156980e-02 9.990893738163614257e-01 -9.635570190832684068e-01 -3.116248093912441508e-01 -9.148181609052489227e-01 9.996393258319083985e-01 -7.255109342243239168e-02 2.581589626445677244e-01 -4.566513966130450464e-02 -8.509617346465613297e-01 6.130629064094402780e-01 9.307098376949404228e-01 -8.123912866259620502e-01 7.967539542683360621e-01
-5.231131499664469775e-01 -2.191013428623060921e-01 -5.163430109308679850e-01 -6.685188629709228059e-02 -3.675093776655627975e-01 4.358834664209371157e-01 6.182937610060166289e-01 -4.657442781462016734e-01 -4.667041112943809411e-01 -5.861020950741960278e-02 1.700335960229186760e-01 -4.684858149573031261e-01 7.510855123169817293e-01 1.809493258787737702e-01 -4.207231176670908068e-01 1.390231291009402792e-01 5.780941511747372807e-01 -8.728710186272643778e-02
-9.724871496264523296e-01 -2.128788558846670398e-01 9.305801803615342260e-01 -9.821122752789693822e-01 -3.685177342584654570e-01 5.502131086372351598e-01 -9.090937795422123768e-01 -1.351235057645532311e-01 -5.051298433328527127e-01 -7.787075097298844506e-01 -6.972996040306932673e-03 6.379248354122272202e-01 8.664352374760003750e-01 -3.945050984786085957e-01 -7.047467538254069686e-01 6.666539634709819362e-01 2.011403250724108638e-01 7.702684456676575087e-01
-5.433911182248851723e-01 4.797221829907284962e-01 -6.650510649111324168e-02 9.469661373134459215e-01 -1.078449539740085478e-01 9.672007082510289955e-01 2.486879414356599760e-01 5.277130602216881794e-01 -2.707861814399921685e-01 -5.365243053836059595e-01 3.003791295168176112e-01 -9.296786315072745263e-03 9.737060741244036866e-01 7.490629053712551944e-01 -7.555263236521569947e-01 7.692414290345037653e-01 -4.672814366185602114e-02 -4.882658219003944144e-01
5.858491532455786244e-01 5.772080019223940067e-02 6.129122319605290192e-01 1.939242887363405374e-02 4.766775266518078480e-01 -1.216107409084447033e-01 2.739165659312686740e-01 -7.821146811948188615e-01 -3.236766085945305127e-01 9.363276722114698414e-01 3.453030429649045496e-01 -9.498700730588293117e-01 2.105102459109171875e-01 4.707637290770626537e-01 -9.657088227153746152e-01 -5.491084073937874122e-01 2.300655167860139738e-01 6.943633983373799223e-01
9.756966726990597971e-01 2.932301295271746433e-01 -5.582117568081306110e-03 3.258798314385304984e-01 6.688136623036319284e-01 -4.358709160422915563e-01 4.349597178756448024e-01 -1.116350430411544858e-01 -3.993682910253542051e-01 -2.087909547753060147e-01 -2.777589694393965691e-02 6.385117058619168562e-01 -8.718558826696002351e-01 2.516185034630162853e-01 7.739627373360483675e-01 -8.081857331349616702e-01 9.767846619867989744e-02 7.061953659963601249e-01
2.717224105107826082e-01 7.475586252854145020e-01 1.014156574855964305e-01 3.098964415516790583e-01 -4.737291447220240981e-01 1.792942485789806861e-01 6.700686812993799091e-01 -8.648334506649524300e-01 -6.980901712516593971e-01 -7.924567800870916390e-01 -9.755997455318278500e-02 -3.094354550891963429e-01 9.120553065242602564e-01 9.866870059027780301e-04 4.853440624667288588e-04 -3.348304111530292504e-01 6.714987808099460997e-02 1.517516657539922376e-01
-1.700616273184785976e-01 7.393823761600549771e-01 -7.833492264926341653e-01 5.318593979133338090e-01 -3.177811990191167224e-01 -2.118579694260026292e-01 -7.662320974765414183e-01 4.711814641246422353e-01 1.317824629650875823e-01 2.970912629962488838e-01 -5.924186166214046034e-01 9.591511091719245874e-01 -4.094783753999940989e-01 3.270218840753594813e-01 -8.141077531635666498e-01 -3.681849163413980497e-01 5.159763961016033962e-01 3.525502808838053559e-01
6.111095161573344425e-01 -4.483642300546549775e-01 7.658642479320790786e-01 4.747984665128907045e-01 -4.673835872402373193e-01 5.860157925285996994e-01 6.869928979336082930e-01 7.348908443753124353e-02 -8.885544567333586441e-01 -7.541562622419489825e-01 -2.996470265583476289e-01 -6.841523487340389620e-01 5.315516759934072466e-01 -6.601593112175460076e-01 2.574100902227517418e-01 8.989181634921986630e-01 -2.691181457560410939e-01 5.478449282830525346e-01
-9.402221883824687584e-03 6.023461262764343571e-01 -4.356152374778330394e-01 9.485314892336801362e-01 4.301918256890597814e-01 6.920936514038144027e-01 9.222378889839965010e-01 -1.669828689235169084e-01 9.123912076997219289e-01 -7.201516643232933612e-01 -9.672786395064322251e-01 -4.976902531103868377e-01 -3.320449739834869796e-01 -5.303089176006029470e-01 3.610805509826393589e-01 7.934927827444174797e-01 -5.066401860096433896e-02 -2.904197430098869326e-01
-9.115436761174918745e-01 3.575072555184526379e-01 8.672634403910209899e-01 -8.788374066225431713e-01 4.821507211360085421e-01 6.170386822704524432e-01 8.402314738662951532e-01 4.553025040887608288e-01 6.150764172615653669e-01 3.640342534827494259e-01 3.083960589286072196e-01 6.176041825388746132e-01 1.486209607684467748e-01 -3.687527030950545903e-01 -3.256304460236154608e-01 4.051690737697506428e-01 6.927265273644697130e-01 9.789018554345849110e-02
-8.368701235242194392e-02 -3.933985405098688326e-01 -7.892636391878645602e-03 5.160700245008251752e-01 -3.579704625851141686e-01 -3.271532400457915490e-01 -4.721667254440334305e-01 -6.981222710999388514e-01 5.579440190659099574e-01 -9.566597251170176897e-01 9.315052555464395923e-01 -7.865532034783881965e-01 -7.336125812294083115e-01 -9.793996634085733177e-01 -9.799544587540474083e-01 -4.896409425579174024e-01 1.539795998418908574e-01 -8.397951387046951321e-01
-8.139423487832245785e-01 4.944347662266366239e-01 -7.615479426923051076e-02 1.131509820852091702e-01 -2.793232911782399519e-01 -8.663558425393654838e-01 -7.468160608327744088e-01 -6.979568447482493998e-02 7.484150059924471465e-01 3.718533482082273522e-01 2.241444313085031725e-01 6.873557263284632013e-01 9.735170550553954305e-01 2.156329020014992326e-01 2.410009594653867160e-01 -9.378799740836590848e-01 -6.321189060915993752e-01 3.353215671740039650e-01
3.145956131324631477e-01 -6.117687638251546600e-01 5.757068256441310039e-01 2.103832678362993740e-03 3.198740223437145924e-01 -5.514536142886278247e-01 -4.138089347923966099e-01 -6.876633898569105563e-01 -2.117029080372944128e-01 6.664253550487085898e-01 -7.718696345294494554e-01 -3.689209768008241963e-01 4.280300715519739785e-01 -4.941708039333893993e-02 4.380196039396384022e-01 9.854699344310852149e-01 -6.838150208905476868e-01 1.616563066252293401e-01
