-1.013536027292736841e-01 -1.567479834816518439e-02 -7.114740194825781572e-01 7.688036435844045613e-01 -4.019131280506949011e-02 -7.916158077751289657e-01 6.863012169104822924e-01 8.644017436496289619e-01 -7.096075446963184818e-02 -9.610369180965614433e-01 -9.289867703614467231e-01 -9.063193271344771595e-01 9.075191460627372031e-01 9.996270988991824424e-01 -2.975496330532132264e-02 2.998889768814287926e-01 -6.715981698665434152e-01 2.929673118393818498e-01
6.631611879182055524e-01 5.547331033470663808e-01 3.814233432851694694e-01 6.883405927111656553e-01 9.125155629823926695e-01 -9.290096224229180688e-01 -1.251180739362852679e-01 8.727868727107452873e-01 -5.676489334951750898e-01 1.209796129272444065e-01 9.720124295442647000e-01 9.845470062809342782e-01 -3.704826111641261743e-01 -9.530309807041886794e-02 -5.538305703001200619e-02 4.988141918009640907e-01 -2.623097620384651218e-01 -3.355188344329331773e-01
-2.360930704931215596e-01 6.410802617228346101e-01 5.879955884600160942e-01 6.038745354261676468e-02 -5.641673551902925965e-01 6.453782140771378018e-01 -2.082138650870238861e-01 -4.932076448038478222e-01 5.383541437583092559e-01 -1.255312195895249075e-02 -2.191330496926063853e-01 -3.380506521055819391e-01 -4.842507678277208072e-01 5.102243638218282307e-01 5.114064880581570272e-01 2.510758497294820688e-02 -9.666667754997368966e-01 9.566327254427884341e-01
8.342315177863572906e-01 3.364237100759190913e-01 -7.333462724810790867e-01 -5.106108383726273292e-01 3.931280548269013853e-01 -4.487438097007434568e-01 6.032721580804001338e-01 6.572343070435859858e-01 5.589475448751599629e-01 7.283262396096783498e-01 -5.456051293976311722e-01 5.598008984437474744e-02 -2.233157731338325513e-01 -9.787529027239083579e-01 5.912328549499297203e-01 3.192238565428984209e-01 4.964650412363909027e-01 -5.641314511063744153e-01
-6.138919674860323639e-01 4.804183704163800250e-02 -9.441983149684693988e-01 7.178404164536649201e-01 -1.434531109485636113e-01 4.213459248199922236e-01 7.097197054333814759e-01 3.087435016086186312e-01 -8.196555777869490855e-02 -1.193731937438705093e-01 9.456560536296427788e-01 -1.546402130038720957e-01 -3.593416994721361224e-01 4.519262820550702386e-01 -4.271976744714252039e-01 -9.868423107012369577e-01 1.340244458246117043e-01 -6.953773132661082990e-01
2.377498541797745668e-01 -9.663588334490706977e-01 1.475536471030424179e-01 -3.635371046816806562e-01 6.502759642795181705e-01 1.387798798514784382e-01 -8.163180825893230352e-01 -2.226012257400556971e-01 -8.090516891857888471e-01 7.597244885469991438e-01 -8.885962147865034133e-01 7.356517440965852916e-01 5.322773094715709252e-01 -9.013601298927859107e-02 -9.502802039827034086e-01 -7.387420496175574058e-01 -3.093954784140962033e-01 5.403275320697549233e-01
-2.655883225003958792e-01 -3.956843921832442490e-01 -1.343707471816782961e-01 -8.981061740998430576e-01 8.048111163962166081e-01 -3.581714330505949562e-01 8.878811028702493502e-01 9.715253307068716371e-01 2.794357817396233568e-01 9.481995662298383643e-01 3.505539443452643233e-02 -9.551227863185984823e-01 7.906270601780593932e-01 -1.923025645858779109e-01 3.266628867997960484e-01 -8.285924320667997778e-02 4.254034517550127070e-01 -6.926328331576765418e-01
5.059038802834843196e-01 -4.859842066323700749e-01 -7.570592224392658220e-01 -1.054288694569199270e-01 4.333986139845966701e-01 -1.635551229442534504e-01 -4.884454245537876993e-01 -4.013343301226270921e-01 6.147031695569511456e-01 -3.527508002942951748e-01 -4.970447353041803629e-01 8.669212402223411829e-01 -4.680634265331420352e-01 5.221620266631668006e-01 -4.508803539357870704e-01 -6.252973181627208277e-01 6.099805498866661679e-01 -2.703036039652393363e-01
3.870370783713157348e-01 9.599091775806731786e-01 -1.817230701609226853e-02 -2.384773820248370368e-01 -1.695265337265753347e-01 4.361035413885820944e-01 8.745106748139885866e-01 4.268069628686272932e-01 9.834216694628921118e-01 4.059633191130733731e-01 -2.608765064910123499e-01 7.385753452903311977e-01 -1.048402546815512815e-01 4.428687356467075897e-01 8.276319031083736455e-01 4.461567281535201435e-01 8.809207277269248682e-01 -5.261851412546736384e-01
-9.368930843017324595e-01 -2.006486384405109513e-01 4.638921019014818903e-01 8.973041917178683491e-01 -2.101150680755535793e-01 -5.712141222221729375e-01 -6.043813281123959769e-01 -7.314212566946762806e-01 -6.219572810183406908e-01 7.105448578395405779e-01 -9.187059549721985352e-01 -1.499741989911268503e-01 4.470603871604643675e-01 5.143032104928486614e-01 -8.371926329101810893e-01 9.322756958490783230e-01 2.131969892411248457e-01 3.199635280050454611e-01
4.253677034824958625e-01 -8.656327407232604632e-01 -7.827148666566647872e-01 6.381503012016886967e-01 -4.803870636923341930e-01 8.160406303104870140e-01 -6.271127473484738868e-01 -5.964365559483357782e-01 -3.391959534606845406e-01 -1.619309235010221171e-01 -3.932489560466032597e-01 7.885346997320492601e-01 7.064524154668999634e-02 5.857278146364228721e-01 1.472630749458706534e-01 6.351152009856593228e-01 -4.607034861268290982e-01 -2.528637138362215264e-01
-5.673831607531141241e-01 7.752887599959665810e-01 8.289789357028205519e-01 -4.695872299726571164e-01 -9.917961870063090046e-01 -8.309472917890559085e-01 7.274199667626646097e-03 8.232147595776098115e-01 1.275076309250964268e-01 2.184324647889296367e-01 9.794543242795689109e-02 -7.984560411929211288e-01 -2.405627506239699231e-01 9.589728351627171410e-01 9.266387606814612266e-01 7.662646189875499392e-01 6.928294061458184494e-01 7.689402017934070521e-01
-4.630000224885981730e-01 1.487643448038261651e-01 -5.268674285460421824e-01 -8.712528495466420608e-01 -2.696289187112959063e-01 3.576447925741261802e-01 -4.651301184160812063e-01 7.601165121533781655e-01 3.790510593066225287e-01 3.571338818191425180e-01 -1.343551023421184487e-01 -7.882741077157657816e-01 2.903386204718185967e-02 1.624916684604053030e-01 -9.658979685800110904e-01 -5.361153993301710496e-01 -4.810778548055805182e-02 -6.540093852971065047e-01
-5.136175071311837037e-01 1.764736976320976369e-01 9.361800770014365725e-01 6.079696184549610027e-01 -4.393293641018998219e-01 8.357963729249402451e-01 4.274927602734159837e-01 9.884647130234851531e-01 4.865283836635068138e-01 -8.208390196368111624e-01 6.503075730913159269e-01 -7.120426405458120112e-01 5.587211351867653608e-01 -6.562477264853361358e-01 -2.338709455131237069e-01 4.659803355573248762e-01 4.590309420414426800e-01 1.542648040435871601e-02
-7.930043552591575784e-02 2.207311893192508423e-01 -7.086545209490929809e-02 -4.952038067541044697e-01 -7.007400316053102873e-01 1.746368092578870490e-01 -1.341900389384443892e-01 2.303366067744007095e-01 -9.167123410910809067e-01 5.761093250152549139e-01 -5.962646317776678639e-01 -6.216271009541414205e-01 -5.480816328708004725e-01 -5.338672072468830798e-01 6.790038981109940419e-01 -1.900529854977560662e-01 5.574647503260725667e-01 -9.963392712332999057e-01
-6.170766501812527949e-01 9.851827045311825071e-01 3.728738080212243844e-01 7.652798936832327925e-01 -1.314728638797869609e-01 -6.234767914376189157e-01 7.263552243334003844e-01 -6.026205214180986314e-01 -5.877876312735945685e-01 8.307939563237245473e-01 -6.561760037225699005e-01 -4.987873432083304026e-01 -3.012486329678429886e-01 -8.255113341025759333e-01 -1.063431140454370108e-02 -6.736665355171240765e-01 -8.119500323522663709e-01 -1.431932218115424815e-01
1.266273515250796733e-01 -7.924662224304618308e-02 -3.460288856914652822e-01 4.598185677587822706e-01 -1.748181163193175403e-01 2.459614857931971196e-02 -9.686926222027953948e-01 -5.661490671774258576e-01 3.810673251389502525e-01 1.476348067034926048e-01 8.867883086284991112e-01 8.367809195405777611e-01 -9.319202408553648453e-01 2.922586269598326236e-01 -6.242687173566947578e-01 1.010961042444410117e-02 -6.595213586285031404e-01 -5.147823047986044287e-01
-5.487075970302486283e-01 2.986554333727171606e-01 9.933593612807787299e-01 7.179200146998518939e-01 -4.981897998499372759e-01 -1.144392732912805077e-01 -5.856867236104086327e-01 2.141028736351960893e-01 5.987805000951924583e-01 -1.352419558992313808e-01 5.891570598860051966e-01 8.670554095910714132e-01 -6.964368430962371015e-01 -8.903165719542251999e-01 2.686631791590050611e-01 -9.767919876318047478e-01 -1.032819307340227533e-01 8.590543823757708086e-01
