3.823165453979371353e-01 -3.573432450900417834e-01 -6.021171009815009523e-01 1.139775897222893852e-01 7.822323182550339205e-01 -8.545218167438546342e-01 6.622760164623022749e-01 -5.452875443331455241e-01 1.054563588517566930e-01 -8.989341891154847275e-01 8.022055424360281517e-01 6.353074165007974727e-01 -5.472787743933384963e-01 5.346117313647384961e-01 3.897971998094360568e-01 3.722358921565018797e-01 6.489131254590954079e-01 -3.639851871398747107e-01
-4.078840161915384122e-01 -2.467454155058169951e-01 3.511829727378888016e-02 3.412664161130505858e-01 3.807815851926175665e-01 3.499125470781377367e-01 -3.342832682911122677e-01 7.775015214017503284e-01 4.898742629407167315e-01 3.456522896935084188e-01 -4.808871508334741640e-01 -8.051770762162123729e-01 2.644426692197884149e-02 -4.226704673030840520e-01 -5.504868961185806903e-02 -5.316585468982922835e-01 3.373248155682158633e-01 -9.926436439823390634e-01
4.843134429060411139e-01 7.790882674642726213e-01 -1.691636958924386536e-01 -6.059649212931076390e-01 -1.330072352215022451e-02 -5.293005758897221247e-01 -8.252837886282177182e-01 -1.232336863330899396e-01 -6.263468229332688209e-01 7.747742621593310952e-01 -8.406197217988350956e-02 9.190841493707931908e-01 7.309269537213150536e-02 4.953316767026473832e-01 -9.263602856643308181e-01 1.573101792600602733e-01 -1.613957022698625787e-01 9.187685584693984220e-01
2.093139381671953458e-01 -6.940194973648979859e-01 7.342299053772679551e-01 1.001751259870990785e+00 -7.588027187122302619e-01 -4.843578254495007895e-01 -9.190354897834257519e-01 4.689161052122389206e-01 8.671848913610727960e-01 -3.914143020500872039e-01 -1.374530092945225324e-01 5.329724530270841809e-01 2.637341292560483330e-01 8.709414559808695833e-01 -7.641975763446567926e-02 1.100225633868456288e-01 2.895691432813273236e-01 1.852350374826179369e-01
5.006396975927244197e-01 -2.818026979068935511e-01 7.364406080326355020e-02 -5.371538288684398754e-01 7.370831073145356349e-01 -9.075086100938107858e-01 -5.552023341551000080e-01 9.441699192089938464e-01 8.053416271339624011e-01 7.109780617274377157e-01 -1.790532698274878987e-01 -4.347690996307283506e-01 1.682990538399193048e-01 8.966723630236692055e-02 3.589888718767612619e-01 -2.756295359762757635e-01 6.538857777511881686e-01 4.739588217947194315e-01
-8.432313742209890384e-01 8.298777761464101177e-01 -6.279003105051225164e-01 -8.735405986296341796e-01 -7.807402698504551930e-01 7.661243822517561641e-01 6.494012264419474212e-01 9.769350342437875812e-01 7.047734937713187042e-01 3.121159230294808795e-01 9.721864726936993994e-01 1.300090288018422024e-01 7.943761091890481074e-01 -5.940132296767829390e-01 -3.301733880015745859e-01 2.624829232558957282e-01 -5.895013651688446599e-01 -4.160785997160704186e-01
-8.328509121244765945e-01 -1.762520984084812448e-01 -3.207176785375663863e-01 5.061117075060556081e-01 8.452377084289356413e-01 -9.425322554268663611e-01 5.575156262281072417e-01 -4.818467623344627748e-01 -1.750901661978929991e-01 2.805852330089378954e-01 -3.947319499378561247e-02 3.409890623748182970e-01 -9.525810877841781599e-01 8.269728040765865762e-01 6.398446387709414429e-01 7.124848506674218152e-02 1.524688989162554520e-01 -8.209495612845097989e-01
-6.470208651874570505e-01 2.178617301407791418e-01 -3.553052097215232963e-01 -5.766058378930832840e-01 7.846551709070236358e-01 1.852400485445079292e-01 9.653620630042530903e-01 8.135356384138608954e-01 8.312171912171309462e-02 8.759946056619684063e-01 6.369977564172327744e-01 -4.467843168638830353e-01 9.913408100248913835e-01 8.663094753845800300e-01 -8.659772408090496976e-01 8.440955396478436734e-01 8.349136634915784718e-04 -8.983516441892352988e-01
-2.949027163887328329e-01 -1.158303869521490510e-02 7.640692156962050063e-01 -4.471364536005831281e-01 8.490338920304691950e-01 -1.320813951013687371e-01 -3.293398305230342271e-01 9.769269468535162204e-01 3.477241942255770435e-01 -7.145703715802007583e-01 -8.866443690543333034e-01 -5.109256352254805122e-01 6.636722497804403709e-01 9.156854035504033984e-01 -8.688435580799662716e-01 -2.617841615975658159e-03 -4.829400288429757659e-01 -2.561671406337123202e-01
-8.196489104632342926e-01 8.527055983608768930e-01 -9.968709899366814398e-01 4.980571513127524663e-01 -1.983650063331056645e-01 -6.337774110310129272e-02 1.650496755670197158e-01 9.922514429683075843e-01 7.274865841966899893e-01 1.668326526008128696e-01 -4.191234503831212099e-01 -6.366931174606240695e-01 -1.046544447314962656e-01 6.432786640849210702e-01 -9.426164208873413219e-01 7.381029350633316888e-01 6.469948076180347396e-01 -2.960350581158917582e-01
-9.729245150719569857e-01 9.449250597893126269e-01 4.878609907743525209e-01 7.842449915629676749e-01 -5.701395149655021921e-01 -9.173024723279254999e-01 9.169769115810642024e-01 -8.116742840419852723e-01 5.871732101231241091e-02 -7.377636441954484869e-01 -4.656600278526150660e-01 3.748537968155707389e-01 8.311424907215427815e-01 -1.392591089192781739e-01 8.009110130590055832e-01 -2.334286026162526312e-02 1.389490710394661321e-02 6.352131455775222868e-01
6.118630525549700883e-01 3.651468026442161730e-02 7.912850189653405364e-01 -8.910322142707652882e-01 7.819885123626429957e-02 7.151662234389691841e-01 -9.574621059106348531e-01 -7.566557876954561612e-01 3.465968130733490526e-01 9.671439895039947166e-01 -2.301047797801401493e-02 6.058991016750677749e-01 -4.451054814714800467e-01 -3.509517837245159089e-01 -5.917468804609603561e-01 6.574565146437266749e-01 8.151474931938050839e-01 -7.966884818173187652e-03
-1.132649587974718791e-01 -2.280914655334441710e-01 4.816400900265037088e-01 7.464522399668108710e-01 -7.560817385580227527e-03 -8.214803776650002332e-02 -4.317631802458736234e-01 5.099400591550936612e-01 7.192524666938228117e-01 -9.700715465528134684e-01 5.124390489351901001e-01 -8.571713057193354190e-01 7.320206644316226141e-01 -2.131179292010719761e-01 -9.006045924084272736e-01 -9.865649354478002175e-01 -5.884901023537444376e-01 3.926688688622890777e-01
-6.387242925470347776e-01 1.358105189312350525e-01 2.463167707039170817e-01 1.740427337131358054e-01 9.130645478803993409e-02 -5.612297580917128270e-01 3.513909497716500852e-01 3.961295653094953906e-01 -3.159343480545018495e-03 3.546541938724239174e-01 6.992190979676536911e-01 -3.159447949805316291e-01 8.805764169195188229e-01 -6.281256632684636410e-01 -3.403307666368349249e-01 -6.686111986983266364e-01 4.434107261132576674e-04 -8.794419268442584814e-01
4.820475525110021198e-01 6.812824756641992774e-02 5.296352568530911936e-02 9.753388549324439882e-01 -5.052824667461182084e-01 -7.944284535496488608e-01 1.584364668185364589e-01 8.608966484706102040e-01 6.248645749540600036e-01 3.876196888734625978e-01 2.093960627812280761e-01 -7.813087690231517168e-01 -6.576859577579794447e-01 1.737895597227402944e-01 -5.899487749202845244e-01 -2.701184745704963697e-01 5.761249212655791124e-02 5.841450959927962927e-01
1.426194089792883202e-01 -6.694340086433958614e-01 9.024465311979803506e-01 5.167193919376364963e-01 4.769987261149303409e-02 3.052904332873334625e-01 6.112722989923755623e-01 -4.915314461400037138e-01 -4.468487321139530954e-01 -1.847241345793406153e-01 -9.286772656391679703e-01 -6.544124298672264750e-01 -1.395887946909556976e-01 -8.618990237812171884e-01 -9.324920053566017053e-01 9.930080469020681200e-01 -4.437652260721731134e-01 2.024728966045421380e-02
-4.192237841475986437e-01 9.488893832016669361e-01 -6.782986925291936697e-02 6.883638230155246784e-01 -8.592905016597649492e-01 -5.650303504826696965e-01 -2.348038003229419302e-01 -7.092795814142587307e-01 -6.793207109191112814e-01 -4.310826194952376289e-01 2.887363380196211748e-01 -5.640678493719788467e-01 4.574902289775398811e-01 -3.752946520396657215e-01 7.552349918836842591e-01 5.496054678874673360e-02 6.780693950835743333e-01 9.825402266377567528e-01
-2.106104181877287707e-01 -7.089079777520149728e-01 -5.578639000698341066e-01 7.442656162246475970e-01 1.125953483939292760e-01 4.816083306275486531e-01 7.326650695938853319e-01 9.614773839690279322e-01 -4.170638734488219534e-01 6.667853847356920438e-01 -8.776791567732539212e-01 2.451730408477529877e-01 8.711018578039871896e-01 -1.010515973192867234e+00 -6.734137948605122270e-01 -5.978241138737706573e-01 8.697874246644995422e-01 9.171841141320261626e-01
