-6.104276190149043879e-01 8.314520225772520368e-01 3.153151330787130058e-01 -6.112058215309176257e-01 -7.020447394554772957e-01 -8.787209804513537170e-01 4.505848737165090712e-01 5.483538263264685353e-02 1.084892179233929665e+00 8.035253632887985331e-01 1.264538681220791771e-01 3.069364979871758714e-01 -7.328507641577561293e-02 -1.600352331490640378e-01 -5.344154750710564672e-01 -7.519059564147468899e-01 -1.026392557595531552e-01 -8.872251362854463030e-01
8.785990843130435657e-01 6.856012275548990509e-01 6.242487863127581527e-01 -2.881271132495414333e-01 5.359611547173709356e-01 -8.065952593860330477e-01 6.008477359948813934e-01 1.072411471132948879e+00 6.339306986745263384e-01 5.624809703961424212e-01 9.046631113531666823e-01 -8.154986312273915239e-01 -4.567540038774210442e-01 -6.274236079092423424e-01 1.216350437588696320e-01 -2.653073379411440280e-01 1.100467470509284951e+00 2.371705073521674922e-01
-9.653354235871464128e-02 8.487025622218417886e-02 4.884932299292016888e-01 -8.654894975825206949e-01 4.013322743466453679e-01 1.003083284775747819e+00 9.559783063821785110e-01 9.439551884203105647e-01 8.262089377436798721e-01 6.630922058283552634e-01 -4.506701347888829035e-01 7.005912593108165609e-01 6.184502564003995229e-01 4.099231890010903157e-01 -6.953068009223324353e-01 -8.189490450524095078e-01 9.756959047301437885e-03 5.672921352350006607e-01
8.711770108905783072e-01 5.471922833207985004e-01 -8.635796148254073490e-01 3.383613564411129260e-01 -2.593162652191875472e-01 -6.610603168881272751e-01 -3.365395890445462279e-01 -4.694399185049722978e-01 -8.990940590372202834e-01 2.123528551144028276e-01 -1.245560678135232829e-01 -3.548760480138415940e-01 7.315400841939589949e-01 8.259383014777456344e-02 -6.922201475532687720e-01 4.116193629405279775e-01 -1.500108561316354505e-01 2.969648787677085511e-01
-4.440800777012163941e-02 5.483134335054592468e-01 5.940812275175609836e-01 7.188068683486740218e-01 5.261772563228918065e-01 7.954021478079681406e-02 -4.349627002981077961e-01 1.315050723965987822e-01 -6.640341539948823035e-01 7.593604476939036507e-01 7.476252504641928143e-01 -4.570018798356583617e-02 -9.231863006116197701e-01 -5.034042490133902037e-01 1.009205213420101499e+00 7.423349153237673859e-01 2.934826366527638619e-01 -6.302516432270665048e-01
-8.830799553852199946e-01 -4.881722256342244104e-02 -4.335931179047559092e-01 2.689905982588251532e-01 4.838133191486967410e-01 -2.218654918544757659e-01 -9.845717561342508528e-01 -2.648348458566331387e-01 -3.776989354240061769e-01 4.809583193444842419e-01 5.288204612557241280e-01 -9.178085402313178598e-01 4.993018595779217805e-01 4.222227691425181617e-01 -9.953356914878101758e-02 2.669618465708349375e-01 -7.469199221223656870e-01 7.586649450552573892e-01
-4.129563259892864990e-01 7.464084101715845465e-01 4.841938658175463650e-01 -1.992999676241038187e-01 -4.124234780147030821e-01 5.133988803952024282e-01 5.837925904099737495e-02 7.962060984591420310e-01 -3.148168902511382927e-01 7.136589904219664549e-01 3.091641889828158907e-01 -3.076768675469538361e-01 2.137397095784410450e-01 -9.498614192029068704e-02 -4.973893692428949520e-01 7.558849516918760003e-02 1.963484604705461323e-01 6.114659759096449099e-01
-8.612614072486924899e-01 -3.292042738153729692e-02 -1.881327351451584640e-01 -9.145159472463534334e-01 7.691694069436144643e-02 8.549800880580623597e-01 -8.522003650300099542e-01 2.654626158372811462e-01 -6.491148305289874409e-01 9.045487257376768619e-01 3.477915249588602320e-01 -2.100826204691041699e-01 -7.204461898751436388e-01 -4.787531010342739313e-01 8.472914215659846926e-01 9.938042285301852408e-01 7.107270862129818623e-01 -6.323512514354961978e-01
3.924656782597025773e-01 -9.680464458277361350e-01 -5.477045078551471269e-01 -7.213343675085303053e-01 8.060384553571177113e-01 3.325099155110828458e-02 -8.346786416173769263e-01 2.261554996730331946e-02 -9.931811978000065766e-01 -3.549819476505199356e-01 -4.124668276189670246e-01 -3.036463108270489597e-01 -4.346990751080342941e-01 -8.833937990490400294e-01 4.327918242454079634e-01 -3.128983298581257122e-01 9.567005301359704506e-01 -9.673605806101511773e-01
-8.267833296009804434e-01 -7.486682553323932565e-02 -6.495234190565611909e-01 -8.572969072857067330e-01 -4.984106768945898436e-01 -4.906753693060837973e-01 6.717827532206172014e-01 5.149753218349283346e-01 -5.210070285115421529e-02 3.396671035965669327e-01 -7.134186993978798297e-01 -2.689323430401234782e-01 5.784050410231139638e-01 9.183506438710097031e-02 6.035403447510295782e-01 -7.980353325767745032e-01 6.430933680792702001e-01 -6.680308782256833000e-01
-1.177951612130110626e-01 -7.413212005595701815e-01 8.404753581548949359e-01 -2.288069715670404125e-01 8.828058334029589282e-01 -6.271449347668869301e-01 -5.999722317091222834e-01 -5.183959953334028870e-02 -2.324531357024250677e-01 2.785113790666378097e-01 6.125297325426974915e-01 -1.037996217998892634e+00 6.339768003211732061e-01 -8.994658460242568321e-01 5.064548144971241506e-01 8.820646872959769791e-02 -6.495382199250279154e-01 -8.020980960019514772e-01
6.045555617823071826e-01 9.425415671013218644e-01 -8.703605393046368599e-01 -1.429643573431564341e-01 -5.651538425947578714e-01 -2.879328702921515534e-02 -3.566928090648760485e-01 -6.177486065450491504e-01 -6.812999755327654450e-01 1.720384756916637503e-01 -1.779939560095744611e-01 -3.279984681437211891e-01 6.604377644319453511e-01 -3.851802168193701470e-01 -3.411860830627316266e-01 7.030253186686689082e-01 4.476722906563716520e-01 -1.929673769180861864e-01
-4.343570193090950937e-01 -9.566843477504881621e-01 -7.259090408589027321e-01 3.621358185591549983e-01 -8.696556219274543809e-01 -2.779051025932226526e-01 -1.236999486346715971e-01 -2.278563504920620361e-02 -7.476287674295433172e-01 -8.732311445310428910e-01 -3.459634747983559855e-01 9.207621082964109194e-01 5.405443018508017117e-01 -8.901345974997413313e-01 9.796335097803133829e-01 5.067959711559043567e-01 -4.882600920383093346e-01 -8.265418801626297496e-01
2.352551004716165253e-02 -8.481175512815285547e-03 7.886581634192030288e-01 4.957355814171366948e-01 5.241366161569173121e-01 5.239920256426525320e-03 -8.123641033439065184e-01 -3.604332804361152220e-01 -4.800240360804093331e-01 6.491082000856877032e-01 2.948018081937480162e-01 -1.881645859778180718e-01 -8.836805858595248031e-01 3.604866175662344574e-01 8.649748550113024737e-02 -8.109892639829062722e-01 7.464710914350541904e-01 -2.409814375782357576e-01
4.864295087493165637e-01 -3.029914363705735192e-01 -2.641366862736025389e-01 4.730758430521184166e-01 3.800319826431101666e-01 -1.021608947427235181e+00 -5.214637176258057200e-02 -5.756240355813246889e-01 1.703009602599975802e-01 -4.773933458394353235e-01 -2.569979429059691678e-01 1.482499756884123054e-01 8.656871269005315117e-01 9.679213136228685954e-01 -1.386515442913741902e-01 4.223179604729783432e-02 -6.699694995998157765e-01 -1.346761828217502843e-01
-3.300031233928782948e-01 -3.305004680395017269e-01 3.605063424496380842e-01 -8.637158131772327829e-01 3.180529221679050389e-01 5.114718591978298923e-01 8.670160708988626785e-01 -8.281676180401812415e-01 -3.797314990684311775e-01 -1.735082641910777046e-01 -2.455236182995794991e-01 5.789029135748363641e-01 -5.033422759998794627e-01 -8.172633827906997661e-01 -9.310149820660783559e-01 2.442110737171201140e-01 -9.944910274203223599e-01 7.592886421824242005e-01
6.196175467417468496e-01 6.012138948337657496e-01 6.980358943706037600e-01 3.614615373262493603e-01 6.737280791161283366e-02 -7.181778001497829411e-01 -8.194262438874644339e-01 7.728548818469123116e-01 -8.271528802785423906e-01 -7.494446452145515636e-01 -4.568732963329286689e-01 -4.647334401646442958e-01 6.687285905910242967e-01 1.800487744055285777e-01 -9.624960446992354424e-01 4.131031655687907311e-01 6.534028693029945815e-04 5.595498868618911104e-01
-6.679077684584578956e-01 6.342740040842430593e-01 6.348425739383495303e-01 5.806849722225816413e-01 5.498574795908165447e-01 -8.309452392003428001e-01 7.133505985336899835e-01 6.748208671731278363e-01 4.628741937899184533e-01 6.570222822147587793e-01 -9.031281936336607030e-01 -5.325877550033298879e-01 -7.340283410258051644e-01 -7.142209019672353110e-01 9.505580634834546183e-01 -8.806488569582083814e-01 -4.687326462809272565e-01 9.244375000607619741e-01
