-3.002816770696278836e-01 -1.338485028283847855e-01 6.569942223326082908e-01 -4.256235641410752168e-01 3.192166616660347539e-02 -9.340617812696413447e-01 -4.465669157942965817e-01 4.330221330510884425e-01 -8.953399365221125228e-01 4.864884173631729980e-01 8.620156894520224489e-01 -5.372587339242315130e-01 9.870843982386891258e-02 3.700861570964027458e-01 -8.654803014767079583e-01 4.585905094725920006e-01 3.334284175393196770e-01 7.148012716804620359e-01
-4.303949555526297432e-01 -8.373373377982394894e-01 -5.388174379588382967e-01 6.641758847311557412e-01 -4.875686305814522781e-01 3.220796864468528087e-01 -3.575585194306830639e-01 3.379065338576824340e-01 -7.190926022878368906e-01 -7.616764180762310987e-01 4.473115390409349024e-01 -7.595164845070292992e-02 -7.013821588231868853e-01 7.377636640122157141e-01 -7.863082556885495067e-02 1.033818530393727231e-01 8.439057500681873547e-01 2.212762114564677529e-01
-9.731157683781650747e-02 -3.717422505703144031e-01 5.507857551177910427e-01 6.401018504126867459e-01 8.707907483160928219e-01 1.217822632103596064e-01 -6.782852547215596495e-01 -7.623889568056991806e-01 5.823069893321821677e-01 3.471291863665536548e-01 4.902423870113171711e-01 -1.208396989303765628e-01 -1.123840699633519985e-01 -7.937020507275465153e-01 -7.016937346720404367e-01 -4.581745277346139789e-01 -1.413394072014455272e-01 -8.960406505227760388e-01
5.202138474560384918e-01 5.233022412631611608e-01 5.742753740422676945e-01 9.808938385397709958e-02 6.197886051296384036e-01 8.590300978082461569e-02 -5.840111412730843998e-01 3.108592384594306979e-01 -3.793734378101360494e-01 7.898293669613161150e-01 -5.255870926782784114e-01 -2.642461456078448179e-01 -9.788843581831012663e-01 -8.249038562357107196e-01 4.840907444545328731e-01 9.975785562772534476e-01 -4.772224044314658520e-01 -5.925936927054843012e-02
-5.017449508911628886e-01 -7.803373386866414574e-01 2.365491153380226974e-01 -9.195625987602840112e-01 -2.964056668356325197e-01 -3.029941867578378467e-01 9.112028689189091146e-01 1.749875464051199314e-01 7.578752407817159753e-01 -2.927525425090611311e-01 -8.779769309327427607e-01 -7.502983256287585334e-01 5.806288941583921392e-01 6.466940452576317583e-03 -9.405716975408244807e-01 5.708565419377051864e-01 -6.865555855877452096e-01 -8.882798578511550414e-01
4.827873951951797138e-01 -6.645749117807095985e-01 -5.669914499209423031e-01 7.813928870561432927e-01 4.405742237671316786e-01 9.037336429403517446e-01 7.920041025317599015e-01 9.147326442443386441e-01 7.139031088220501586e-02 -7.415667566575712133e-01 -4.556059788684121981e-01 -9.610796493075115521e-01 6.223215551758214392e-01 8.486187857896871911e-01 -2.674489445525279341e-01 -8.306344531505545081e-01 5.674903918209266429e-01 6.632285302993348175e-01
9.691607920022016209e-01 7.837939693482847137e-01 5.578828032044285123e-01 -5.142101474682203577e-01 5.730310586041762466e-01 -9.895254940404534238e-01 6.258016317282875107e-01 7.047016407540385163e-02 -9.033999172297659808e-01 -7.800417612371972620e-01 3.577579626381127142e-01 -4.201177234749988582e-02 4.314100842556816695e-01 -5.909504119392068322e-01 -6.360825682954951432e-01 2.298564142800058607e-01 -8.401350903435504947e-01 3.169127807827876731e-01
1.191978030246876180e-01 7.119427614415055894e-01 2.252752358237887498e-01 -5.152179780859563740e-01 -9.280636392544129309e-01 5.219316088803995640e-02 -7.497574728322432547e-01 3.307893684734324324e-01 -7.423411698508118883e-01 5.325572740873598526e-02 1.315956143804293890e-02 -6.891214320899253787e-01 7.550137499338452907e-01 1.080949065050269414e-01 1.620854454454116189e-01 -8.644577940504255542e-01 -2.770132593019751788e-01 3.818937488305780281e-01
5.749838626473758874e-01 -9.811417491251320788e-01 -3.635225123682733761e-01 -7.355433335830220409e-01 -9.627798499225105333e-01 -7.270998398628220061e-02 3.195258467544256353e-01 5.603104158721593508e-01 -6.947939326543696170e-01 7.761511306392775422e-01 -4.677509557273592522e-01 -5.611734540399878624e-01 -6.041629787051060463e-01 -8.696997203513262553e-01 -1.920225856358272198e-01 1.278327666183790290e-01 -4.848326734132372140e-01 9.764851555796222327e-01
2.283190663773241591e-01 -7.325760662601447093e-01 -9.143550110561201594e-01 5.652577323176971591e-01 -4.006175439651611936e-01 1.440222832772134753e-01 -6.998379181160584439e-01 -3.794847540461719348e-01 2.443204707337577608e-01 -5.537917024575050862e-01 -5.047854868662166039e-01 -4.327431516285987212e-01 4.341845205277558573e-01 -7.939691676263925801e-01 -6.859038843332260216e-02 1.202263282412562861e-01 8.174800194147197052e-01 2.949462166196436530e-01
3.077055366807600056e-01 9.505742030644344087e-01 8.676782304939230084e-01 8.595512835158864995e-01 1.897887664148955322e-01 7.347750964157731546e-02 -4.951295685672584823e-01 -5.083290261274322486e-01 3.182248246933079838e-01 -9.262405306108782987e-01 7.390416573913751730e-01 -8.006946463932194556e-04 1.313387039638111153e-01 -9.649765349553662830e-01 -7.502730407325763906e-01 -8.420864880903886074e-02 -8.261708115186345847e-01 -3.045224438863387006e-01
-5.270709430935757167e-01 -3.649818206197404380e-01 7.629828751655730601e-01 -2.539240441881434607e-01 -9.021556554907125269e-01 2.039718670236619902e-01 8.221123099994313010e-01 5.014738639766468387e-01 5.407677350732501553e-01 -5.509431445692348772e-01 -4.191728127308847474e-01 -3.157467289682965306e-01 -1.141451514998601535e-01 -6.430670088998025058e-02 1.106181679983719857e-01 -5.356551184613037586e-01 -8.863210221652461085e-01 5.531871526253887561e-01
9.232273493967054767e-01 4.114773161077649455e-01 2.154351858006318121e-01 -9.477834971767735983e-02 6.563992204925497842e-02 9.541120348381512128e-01 -6.785329079693446230e-01 -6.164392826320640451e-01 8.327491296073720184e-01 6.933122919485087410e-01 1.763353148491777489e-01 4.062940803518573230e-01 -9.493819072312580376e-01 -3.910177049367669078e-01 4.411583864886090556e-01 -2.260035904403598916e-01 9.611770483120273267e-01 -3.175459441822248152e-01
4.006082738855535480e-02 -7.132271812262948318e-02 6.855299182566199079e-01 3.032217134772552947e-01 9.148553036264890359e-01 -9.634568418386988409e-01 -2.983385660301846598e-01 -4.440195624298603483e-01 -2.563721028346645503e-01 -8.871006112578843084e-01 -6.243577685718613157e-01 -4.167827736764347785e-02 5.270463231681492555e-01 -1.650721271486119968e-01 8.035528027822904651e-01 -7.204335900128084891e-01 4.844551114941598180e-01 -1.174602008540504144e-01
-5.406918045896547120e-01 -1.130481246923681488e-01 4.236107277688318518e-01 4.027591611627607260e-01 7.707959595313924606e-01 -3.127750664562938820e-01 -5.864643622369360987e-01 6.501461094231142379e-01 -7.957115578106706000e-01 -2.955754942439650645e-01 -1.607631324013592683e-02 -7.137993265070887716e-01 9.442006746580886567e-01 -1.622083942893770558e-01 6.590169982216871336e-01 9.708059009592620026e-01 -5.152649839012442001e-01 9.293056978888125652e-01
4.505358831675960740e-01 6.589120229861373801e-01 5.014915297967715846e-01 6.509465844169008975e-01 6.931274001844980326e-01 5.528030717171414921e-01 -1.159200258964989544e-01 6.689544177632318345e-01 -7.565477782264822260e-01 -9.085342604869177663e-01 7.489431543379005962e-01 -8.279690901711664885e-01 6.485390668165391670e-01 2.047975753825934109e-01 6.505755257947507531e-01 -1.396627659574570246e-01 -1.127925866204386035e-01 5.231123487196269739e-01
-1.606523465503623405e-01 2.993901100254054426e-01 -2.749063203058240146e-01 9.433820933210599335e-01 7.614418539164902189e-01 4.452371988987899321e-01 -8.217817518539995980e-01 9.494380579859222902e-01 -3.893467191425899476e-01 2.050710593893031175e-01 2.827313556703149877e-01 -6.507454050853369587e-01 9.838901871926721832e-01 -7.518992732027088288e-02 -7.735772938129805709e-01 7.220210309621144518e-01 -2.549683973680659244e-01 -2.355519247407270866e-01
4.189183513268135428e-01 2.014999296454668964e-01 -3.807162303567890316e-01 8.781371994497976230e-01 -6.018393092047703563e-01 8.031898023259772534e-01 7.455127563760478582e-01 3.419822009441242372e-01 8.305180473693979382e-01 3.470950197837336937e-01 -4.584331897912898857e-01 3.256144355757901732e-01 -8.381713888091343323e-01 6.362426834985152047e-01 2.068382582613841059e-01 -4.448450147678646438e-01 3.861195891066540042e-01 -3.904257498627692335e-01
