-8.021749731772358505e-01 -5.036738201844923601e-01 -2.130184867466613230e-01 -3.436475360205033525e-01 -3.069951900237732900e-01 -1.707993164016114729e-01 -7.598273387435328097e-01 2.329004379156916493e-01 2.398190623805037669e-01 3.925709441714069214e-01 -6.976971164553749105e-01 -9.648428575293084286e-01 -4.097227513062546844e-01 3.549156938077888679e-01 9.456984981216522979e-01 -9.097150673735185933e-01 -6.464087497940431692e-01 -8.209841829683388603e-01
6.411880537332791397e-01 -7.448251224756116118e-01 7.413405740836503943e-01 7.902540462152435330e-01 1.006740018556890437e+00 6.732976470429569149e-01 5.859706204566658139e-01 -5.208707692192448002e-01 3.950117272917559319e-01 -3.619256727059243506e-01 -2.607101546754124755e-01 5.261885114442549360e-02 -2.392109479956995854e-01 5.658281985388596835e-01 5.269395737677681213e-01 9.528050790644938539e-01 1.030907636611305467e+00 1.418889800481319685e-01
8.156481033942039049e-01 -6.732324767446048464e-01 3.394837112067714546e-01 -5.984061926110478824e-01 -2.373254899963374298e-01 2.041241949774793840e-01 -9.071065896070075185e-01 6.408784642609256510e-01 9.595328874299967614e-01 9.504974639072097942e-01 8.932997943672281727e-01 -6.989688098485705714e-01 -9.259892419589704771e-01 3.368784351023046408e-01 5.829863681768713279e-01 8.407144086127656957e-01 1.057496493887292305e-01 5.026699054407853806e-01
-7.949998002024947219e-01 3.276450523532757342e-01 3.119421914535214779e-01 -1.936379802942750084e-01 6.852488668449134845e-01 5.528331556864531926e-01 -1.434669797693369497e-01 1.407628951113117921e-01 3.268248222170442863e-01 -8.486519777913321683e-01 8.773082966316807507e-01 -6.917495914146186420e-02 2.488208055750757153e-01 -8.308172928350032738e-01 9.535514065510093396e-01 7.299039211687601281e-01 9.521172968577646945e-01 -3.056931623960170222e-02
-1.631365369817678462e-02 -6.720010758315266841e-01 2.574713691086029099e-01 6.929524000081410673e-01 -3.240372392821825320e-01 -1.004871671807035405e+00 8.271919407656820322e-01 -5.773941351000366762e-01 -9.728960833918063322e-01 -6.529855445027699101e-01 -2.151925188791946053e-01 9.770634693466377918e-01 1.939059773008797172e-01 -4.956720968759108503e-01 8.948858605478282602e-01 -5.893029026658371805e-01 4.125424418860036413e-01 5.721723857203908636e-01
8.932704285673871425e-01 -5.246545400255429037e-01 -7.393117872307011229e-01 1.779095169179951419e-01 -6.408217618314779873e-01 -6.557592060924353206e-01 6.990599654446025824e-01 3.877252698085155436e-02 6.336923843117410193e-01 -6.233406301977850728e-01 2.102765873640244088e-01 -4.236746175407463122e-01 1.042656259589493095e-01 6.529448966988327108e-01 -2.901834214620967467e-01 -9.375357298685025320e-01 -3.877618080671381418e-02 1.985995382298530731e-01
-2.521490077327465107e-01 -8.504320576219034922e-02 7.869946443245474654e-01 -8.226849689072883720e-01 -9.385389135820305651e-01 2.796938585232222607e-02 5.125796605227777025e-01 -7.836539346493884839e-01 -1.928173229856729731e-01 -6.548882178768529183e-01 -7.989312201308822470e-01 -9.973377586800782346e-01 -4.588233388105583677e-01 7.420386362496282917e-01 -5.683919298941173537e-01 9.275654375742854452e-01 -2.557963374024275760e-01 5.805411048717630251e-01
8.852683632709835715e-01 -1.888696368540355996e-02 3.595280614033148914e-01 8.516693492976296076e-01 2.840711553793961452e-01 -6.266154553451269704e-01 -5.504516102421456170e-01 5.286399473518809122e-01 4.305962868308871871e-01 8.128549015202272132e-01 -5.061566935270981338e-01 5.634053000133935063e-01 -1.371786797911786482e-01 5.264720682120452855e-01 -9.574160315460708004e-01 4.268963677640419951e-01 -6.407129619686009747e-02 -4.324726146418385597e-01
-4.788373629458023695e-01 -4.014804018268726127e-01 -6.306383063631384456e-01 -8.103787860328486303e-01 -1.094665766560818931e-01 4.717660972524598817e-01 6.476182232145639706e-01 -9.549523025035981938e-01 9.418369120567032793e-02 7.323873164142060688e-01 8.622194430932053066e-01 9.477164523650003503e-01 7.430453516387174329e-01 7.936142076523922118e-01 -5.629799818302734238e-01 -1.560294020987870456e-01 8.767158947451272333e-01 -2.767285803131630528e-01
-5.694334129764954122e-01 -4.347612641830567864e-02 2.019653881535657391e-01 9.208945539997540619e-01 -2.068314210978869361e-01 -8.135945666417129241e-01 -3.177180042759746859e-01 3.525744363118036850e-01 -9.394729824072708402e-01 4.513043059370955290e-01 7.690235530407457665e-01 -3.543341739033763482e-01 5.183518045153732295e-02 -2.878747568275271118e-01 -7.440774831341595563e-01 3.701590911064600031e-01 7.736862147884654428e-01 -4.888756650283122007e-01
2.404601523385010986e-01 8.635065017940506404e-01 2.173952998629711808e-01 1.258501777025764490e-01 6.606903304993874126e-01 -4.377271631001239949e-01 -3.237168240285692167e-01 -9.177259417625251992e-01 -1.797971872727026077e-01 -7.953966404017169811e-01 -4.626599803594388383e-01 6.450035690762669915e-01 1.752330549548409278e-01 -2.263951924403505983e-02 -3.182219986657377347e-02 6.586660641255250859e-01 7.317581319841981458e-01 3.216871870617100115e-01
-6.018989737401465590e-01 -4.794105123171932270e-01 -6.239986607194170087e-01 3.274838400085398060e-01 -7.866352603866755278e-01 8.891759478333647326e-01 4.837397661254534409e-01 8.967935143112397700e-01 -3.901123425639683173e-01 -2.911457278465501286e-01 -3.358262606829520713e-01 1.848684421469333483e-01 1.391705720677458846e-01 -9.057231517805863774e-01 -7.334059608772816041e-01 -1.651556633847141853e-01 -7.044520888691272464e-01 -6.430317581340003752e-01
1.828293108421029101e-01 -2.349166599660864607e-01 -2.198324634138628109e-01 -7.946269099645993927e-01 -2.151027728626841440e-01 9.020442411523049708e-01 8.713741902043027343e-01 4.021479307179814944e-01 4.235821607275144091e-02 -1.609527757399355496e-01 3.989909990944298657e-02 -7.267941259529312470e-01 -3.115527846925748578e-01 -1.353330267483642824e-01 8.560968963331408998e-01 -5.949344430417914387e-01 8.606285482130412445e-01 8.515400465455881251e-01
5.488732082322491518e-02 4.603010740444172244e-01 -8.973527302732748900e-01 -3.427860991575987226e-01 7.428450697022193072e-01 2.111721176106407805e-01 -7.401160583818378047e-01 -2.646748734950278292e-01 1.452917511178977994e-01 5.706866242206125595e-01 -7.899691217115789588e-01 -8.056295181194705890e-01 8.204671038342383760e-01 3.087604253943158072e-01 -6.659339304587597042e-01 -1.305314282645217150e-01 8.592346008352265141e-01 6.270951011348182558e-01
7.987161567945030294e-01 9.591393313694507317e-02 -6.437794366716277361e-01 9.250577300794632363e-01 9.510764829953733956e-01 7.509255217961899875e-01 7.089844098845644593e-01 3.386005565187832217e-02 8.759222753500403025e-01 -1.032926434824551001e-02 3.605457179715179650e-01 -5.871381880735832004e-01 -7.016731225087754487e-01 5.934641069074734349e-02 -7.801390444864039209e-01 2.381487539428945865e-01 -5.379917126662908666e-01 1.288205175652892276e-01
6.859707780358217377e-01 8.119150874935643358e-01 7.635508606562417810e-01 -2.700468593572949438e-01 -5.632397291757382796e-01 -8.205649865852151503e-01 5.401658821310035830e-01 -4.448610777039452846e-01 9.180449472386276177e-01 9.749985592617886887e-01 -2.914800717189579005e-01 -4.198967560142581879e-01 9.432283533655010377e-01 2.243604553762955922e-01 -2.823896468924572134e-01 -8.511674979515104766e-01 -7.791819122862639890e-01 4.776256639712530006e-01
7.068334145319647988e-01 -9.187687749679429583e-01 -3.061168636547759725e-01 -8.673490298364472384e-01 6.482728732399765104e-01 7.339611531098730879e-01 -7.536477625731849983e-01 7.038269286520906221e-01 9.962897280645388598e-01 8.600260370983858760e-01 3.414643084931747730e-01 -9.600789057381717839e-01 -8.909885830976955745e-01 8.001825857284241561e-01 8.964499736538447117e-01 -2.621720082143221831e-01 -4.267308125225806048e-01 6.804412087317219804e-01
-2.177703199814698398e-02 6.806202225545475715e-01 4.563991492951756102e-01 1.999494524493437286e-01 9.483755702906530027e-01 8.091804905131808612e-01 9.824106460575251498e-01 -8.233652512937980616e-02 -5.865453693576784255e-01 4.332961562435562741e-01 4.067674241914210342e-01 -5.300856564730228176e-02 5.518240477244750197e-01 5.542719396234850882e-01 -9.543925921465009621e-01 -4.970566029640337002e-01 -3.842552643886098518e-01 5.080069361814868456e-01
