7.317972114453511479e-01 2.994110690385408113e-01 -7.721306303009508598e-01 -2.002337972094091201e-01 2.051314595104071492e-01 8.932928983319016192e-01 -6.923771833475195203e-01 3.686267192977677465e-01 3.806223963541806588e-01 -2.718639492168985483e-01 9.576737515546059898e-01 -4.407564157357150569e-01 8.530360462600820037e-01 -4.477119105515960373e-01 -9.171457344676706702e-01 5.365048340434558360e-01 -7.749255139638643319e-01 3.410464396690525146e-01
7.933814579580115156e-01 9.907159828276562719e-01 1.936322704741414991e-01 -4.232265385621813980e-01 1.656846403601172635e-01 -8.730461494264604161e-01 2.132553682001764872e-01 3.485415768405877301e-01 3.554588162776843585e-02 3.494986485734485459e-03 -1.778937913832366324e-01 5.461196696464701850e-01 9.836805359510888414e-01 -4.413582405247373774e-01 7.214066970897080600e-01 -4.496434533166036029e-01 6.317406425330919229e-01 6.178219535608696633e-01
9.222637067899672747e-01 2.421875966398547020e-01 -8.263884106779773031e-01 -6.049064025890893426e-01 -9.573010133828812052e-01 -2.394121610574720671e-01 4.712885405250020754e-01 -6.101098330184040464e-01 5.121857296800009784e-01 -2.606041022784847949e-01 1.645036128095903882e-01 -3.830489669104719108e-01 -6.427213274287633116e-01 6.863576493994418826e-01 3.506149316533667126e-01 -2.044061438932652519e-01 -4.401556115403428282e-01 9.318491032155942211e-01
4.643351769744125113e-02 -1.975682170953801248e-02 -6.582898889586022984e-01 -1.405371488838185745e-01 -2.538979053576808087e-01 9.810165613210851676e-01 -5.702415044064151894e-02 -8.082910923991443175e-01 -4.208653785983073603e-01 9.310677333752609419e-01 -1.574190246858767073e-01 -7.675601040940079889e-01 -6.543086284765319283e-01 -4.539378817286649492e-01 -2.290027034647486581e-01 6.766073664042367986e-01 4.108624888403243358e-01 5.752789595684987267e-02
1.736955129356070604e-01 1.223169884332131821e-02 -6.828147125623660330e-01 -9.195155740291716118e-01 4.974279526727171108e-01 3.372688215704450210e-01 9.680545758567535852e-01 2.651370735806682921e-01 -5.475583570756572538e-01 3.708722042012914111e-01 6.185350623423828686e-01 -9.115156373624380137e-01 -7.523151072062281841e-01 2.525381609367792768e-01 -6.487905048696096522e-01 9.538909003883719873e-01 9.424356880047533025e-01 5.289106105803815794e-01
-2.993266227582778646e-02 9.966903215652883619e-01 -8.089808708528819503e-01 6.679624904866211521e-01 -9.472107463916509262e-01 -3.209447352100623652e-02 -5.077371476154081131e-01 -4.404908103773831352e-01 7.934088658226797763e-01 -4.065465483228402066e-01 8.935214146144391245e-01 -4.711179843603882089e-01 4.184425807904389449e-01 6.604741711648102198e-01 -8.745302660136488049e-01 -2.367594657423654214e-01 -3.648955036957043374e-01 2.274874033745818147e-01
-9.229792166261555075e-02 2.564710435876699224e-01 -3.545728045494164204e-01 -5.441865729095388682e-01 5.885301507159163004e-01 7.963122018082672282e-01 -6.209988912754892398e-01 -6.450985710471460188e-02 4.408601911300694676e-01 -9.095066008574320682e-01 -1.351601825279862834e-01 -9.310578067888281018e-01 4.849724562085708929e-02 -6.301112682880326554e-01 -2.805387712063834860e-01 5.100078203395767007e-01 -3.408745629786315984e-02 -1.198285009338943274e-01
6.431081691043629700e-01 -3.547522748602570108e-01 -9.488687345639401638e-01 -6.553597375452846485e-01 3.922682196331505611e-01 9.318053172500446735e-01 5.913616905752610009e-01 -9.545038697173011677e-01 6.236646252649522548e-01 6.585283565084329438e-02 -1.960625133046296209e-01 -8.807468703929380305e-02 3.839203955510905181e-02 -4.650816648768896777e-01 -6.435351016995130013e-01 -3.255629192427436647e-01 -8.278385692409790941e-01 9.815602251895405583e-01
3.874974623520665434e-02 2.650811181808604977e-01 4.920505146956572484e-01 -1.121293770536136991e-01 -9.407586290616734015e-01 7.775070630594487220e-01 5.789008983496752858e-01 -9.107231967145152929e-01 6.447108224377471331e-01 -6.751276201050073755e-01 -1.453298981754136965e-01 4.866169951443325981e-01 2.701685114483491981e-02 8.704421663156891587e-02 -2.240426206344890425e-01 2.764582880508985041e-01 4.703768117301318497e-01 -6.428454781632375603e-01
7.039052875987763525e-01 -7.936069816664033105e-01 5.478755006947393369e-01 -8.832473786189005693e-01 -8.072212700533337726e-02 9.650806333022149408e-02 4.259087459751726423e-01 -4.278238854431389293e-01 1.605176735776348840e-01 1.361589656967000239e-01 8.122176502862572534e-01 9.399537939826825284e-01 3.223187310112990978e-01 3.777405307339598006e-01 1.485937097426037745e-02 -7.939513254982721868e-01 1.480243145385107262e-02 7.581902725622660100e-01
4.331266217609916480e-02 1.002769938018077817e-01 4.972929778834664361e-02 -4.069554834400114229e-01 -3.360702862592416240e-01 -1.177368592788654439e-01 1.442882372190466833e-02 -3.704006727019087952e-01 8.519449031966226382e-01 4.813619696544993998e-01 9.208193767054174972e-02 -6.302550284126267055e-01 1.039127556431907046e-01 -5.812336289596196082e-01 3.986027471982364623e-02 -5.387229350980886622e-01 8.877720355179183898e-01 5.856733491837404215e-02
2.872873107916280033e-01 -4.192186820570749650e-01 -8.532045464958589731e-01 5.039525386760362879e-01 4.477477989199868946e-01 -1.430085561161466012e-01 2.209806160162607336e-01 5.830687871268661615e-01 -7.732587449506255206e-01 1.424831653565737932e-01 -5.240514074145868895e-01 -2.728251013604335307e-01 3.705535738872315910e-01 1.689550572512265036e-01 8.283920203022111517e-01 5.740557212896805206e-01 8.154020937830862570e-01 -3.093115469510654969e-01
-5.985905181625913452e-01 -8.011010207768717306e-01 -5.773358146239758737e-01 -1.990601243116518412e-02 -3.529537587625358741e-01 -6.827854620359613547e-01 -7.457720323986259947e-01 5.147358200347974533e-01 4.597787449359617140e-01 -1.112393455472650700e-01 -7.369907215225494079e-01 -4.064487473060175438e-01 7.182228889104251557e-02 -8.713220072509196834e-01 1.834876421907702393e-01 -4.137477289173095985e-01 8.029824104702624199e-01 5.803282233342671459e-01
3.478644580133162245e-01 -4.710015602809304314e-01 9.148247163991872766e-01 -1.533252873684924633e-01 -5.251889433224502524e-01 -4.340366427014740180e-01 1.317063399405569435e-01 3.727115095164547087e-01 -5.773885422930710026e-02 -9.543467208914989675e-01 -8.444447821657291575e-01 9.255501803627667057e-01 5.266150217549822043e-01 -2.726219737635465767e-01 2.147384081117747201e-01 -6.030957449584591901e-01 3.005667013852431069e-02 8.746859860732089098e-01
2.201925358422384960e-01 5.877458192912701218e-01 -6.664625749891051054e-01 1.673666817860448297e-01 2.853764361442093223e-02 -7.954276910706736814e-01 -8.901360407585261481e-01 1.817122392579981482e-01 3.306562472136124198e-01 -9.971182688050046483e-01 3.706572772012003414e-01 2.991162993621877542e-01 4.870893428785428858e-01 7.370989165426071743e-01 7.933195187384560754e-01 6.710232984782966703e-01 -3.840871069848822428e-01 -7.106421245227081407e-01
-9.308258815722405544e-01 -9.622056136211551980e-01 -7.022081823836963110e-01 6.683925475235410474e-01 6.332622048395368797e-01 8.184158274592634452e-01 -9.402429793321429585e-01 -6.329155038143459144e-01 8.225350340324182330e-01 -7.766022212605665498e-01 8.999547021614153763e-01 9.219558989767944190e-01 -8.964104088194422282e-01 -3.743027140211322434e-01 -8.721968920438307737e-01 -8.168292753511738891e-01 -7.944419361342387464e-01 -9.325200465247500681e-01
-3.648525376290874811e-01 9.042884681770410049e-01 -6.518874683082170884e-01 -6.909615657376465547e-01 -6.016467122391490063e-01 9.645962596139640022e-01 -7.302562395369083248e-02 -1.807899832785197225e-01 -2.094911395802319387e-02 -7.436332366853680709e-01 8.711434382822447198e-02 -6.308207188607605209e-01 -5.010508774196845705e-01 -3.060594748261474263e-01 8.489258509236136119e-01 6.092084995492356159e-01 5.355099903722108090e-01 4.934199288784066328e-01
5.352104169922357046e-01 -1.009788617062671624e-02 -6.224443973269698782e-01 -9.426976978648246019e-01 7.246266475063180001e-01 2.436941913478752886e-01 1.056848206182237626e-01 -5.811528001629319151e-01 -1.022577214746881770e-02 7.697432626386447874e-01 -1.143491858219673474e-01 -2.789371288233125773e-02 6.870627518096513731e-01 2.462355366676477475e-01 -3.582580180999220820e-01 1.641739703389250016e-01 -9.657705587610861953e-01 -6.193489268219289773e-02
