6.615528121556174534e-01 -3.378310838895345891e-01 6.362490280598441794e-01 3.231100715512729704e-01 -9.442473032136725619e-01 6.971386245254886094e-02 1.392320579255412194e-01 1.789303396175396244e-01 -2.833151292518642506e-01 -2.283547354483386749e-01 -9.809040635406066633e-01 -4.294485091621872974e-01 9.158147754752784531e-01 -1.772596298711870966e-01 -6.871537586144268461e-01 -9.430281669471444195e-01 1.649452960100207810e-01 -6.953822568293842599e-01
3.471710708295669967e-01 1.143188059491896114e-01 -8.899102839087293937e-01 -6.408466953595985949e-01 5.993365718044096901e-01 -2.696950189741977866e-01 1.057287663007260882e-02 -1.075752243228573178e-02 -4.242119756206983450e-01 1.310650695616540073e-01 -3.530525956193404369e-01 -7.730557332320355801e-01 4.433095202318413364e-01 1.281111120588964737e-03 9.976351681044286490e-01 -1.359166712936840937e-01 -1.242587069420450219e-01 3.529245235817053405e-01
1.074774801133802915e-01 -6.961226167488780980e-01 2.348687147204953640e-01 2.565072699665748024e-01 -9.477199033083327784e-01 6.709568281005631185e-01 7.213572266739347594e-01 -5.453520062199077589e-01 6.841113896535357952e-01 2.616510904198684484e-01 3.577325185383822825e-01 4.933117236545477013e-02 -9.614124499290301884e-01 -4.617706181562021284e-01 -9.484235758784769210e-01 7.269855446448103553e-01 -8.750984493406170905e-01 -1.723314617400688031e-01
-7.001805402663802136e-01 -3.654587691727470555e-01 -2.539781782512042230e-01 9.304171422881831743e-01 -7.683681076232894425e-01 -6.684298052830551784e-01 2.638052190312306089e-01 9.966537330458503652e-01 2.347825345438761258e-01 -6.512749025725276253e-01 -9.034506893410153283e-02 9.226819460715595111e-01 2.500022588325276351e-01 -6.901389484427021825e-01 5.912791303975887258e-01 -4.678968446462476449e-01 4.035549876016857884e-01 -2.782514883773232195e-01
6.547379983302237250e-01 -8.992134458784106776e-01 -6.547064720613520183e-01 7.180957559745380914e-02 3.153914816103903784e-01 8.921124156151992446e-02 1.690951329442011708e-01 -3.506376229004617984e-01 7.097423069393087314e-01 6.303707268184455259e-01 3.550156865895863212e-01 -4.799856237680027449e-01 7.282732887660321452e-01 1.640787964803369359e-01 5.695812398109445507e-01 6.110566542702657866e-01 9.425876088982922951e-01 8.098314146157816751e-01
9.980051234951411443e-01 -7.671836832611699242e-01 5.111344207660625250e-01 1.646449789837053090e-01 -4.573858363354739165e-01 7.569162967663146668e-01 5.009934711191256218e-01 1.651157444426646081e-01 -7.693265924165265668e-01 2.474798771056570257e-02 -8.298691406141814886e-01 -8.030761242672336264e-01 -7.303626153475545335e-01 9.051476476087635392e-01 -7.430178439596958340e-01 8.430141400787823924e-01 5.433969937198749323e-01 -5.121561685666827790e-01
6.775854933545185643e-01 -1.309726821900435434e-01 -8.157834105179683215e-01 3.621729220431295637e-01 -4.085386978386564838e-01 -1.140258217599763035e-01 9.394513033459083173e-01 7.160273279155836557e-01 1.080252268068826738e-01 -1.139331651772721062e-02 4.661614690118178750e-01 9.267278138295206302e-01 -4.191115497415265345e-01 7.916220008147419884e-01 3.893633795967037514e-01 -6.467678654262355442e-01 -1.837408638378706938e-01 4.555150840419009556e-02
7.442479644439607966e-01 4.976169782372636408e-01 1.684367075936596680e-01 3.896454904959508192e-01 5.836458938457411705e-01 -9.503844024241843158e-01 3.078832677416596941e-01 5.569122351916471203e-01 -5.695906771197885021e-01 3.482331685587803372e-01 -6.615957745508622700e-01 4.470915758496405989e-01 -2.591141665477289524e-01 6.439697750100710216e-01 5.802364188932247480e-01 8.243834272836454424e-01 -5.227602611228041596e-01 -8.623699702040987791e-01
-1.003027036494924806e-01 1.982198501022558457e-01 -4.816048834689989205e-02 3.992561717779907204e-01 6.251981070301278892e-03 7.600402806711289427e-01 8.736154163188981636e-01 6.519253006810052375e-02 3.723670041296029409e-01 -9.813450269452165253e-01 -9.284940140353606375e-02 9.299458297684246033e-02 -6.288392600217121986e-01 2.569373884889029624e-01 3.492237390080019099e-01 -5.418843012485105026e-01 -1.862354140504016708e-01 -3.068788751695575301e-01
9.778552696776940389e-02 -8.902520659632436884e-01 -9.504552009129343948e-02 4.557031716916862263e-01 -5.806116607521601969e-01 -3.483854958816478553e-01 1.789647173926829926e-01 1.688082647098653995e-03 2.850444741762230838e-01 -2.535511130138685121e-01 -1.296831559305928194e-01 6.006663473337451320e-01 -5.457016082742068841e-01 -6.952069250585649618e-01 4.207562328146728370e-01 2.460722995772777755e-01 -4.405117197876526336e-01 -9.546299712244218361e-01
-9.266259989277731979e-01 -2.357838272077392716e-01 -6.994153044996869184e-01 -8.208230957472519018e-02 4.503117660521153698e-01 3.818929845329212536e-01 -3.549472444373927282e-01 8.744444644534268285e-01 -8.315799772326590844e-01 -7.460412393735795789e-01 9.254765424204376423e-01 9.554940055587433922e-02 6.397106829113823334e-01 7.500970804475155518e-01 9.663034011752060781e-01 -6.556472295376494230e-01 -3.441514727103263671e-01 -5.339269587640251835e-01
-9.124015388523781800e-01 -7.147956136034060437e-01 6.328181152709922985e-01 -8.890303704537211305e-01 -4.685012424821153876e-01 8.254250355432602992e-01 -1.501031264347527650e-01 -9.962721910472064346e-01 8.146015572332369059e-01 -1.136723156265670165e-01 -8.715124683470257261e-02 5.800500879950020172e-01 5.158899004405067545e-01 -4.178865453210883069e-02 -8.562989000146753460e-01 4.003806671106079906e-01 -4.398873498717364300e-02 2.524497218033465162e-01
-5.979794834602424336e-01 -9.775396105692021331e-01 4.583094319955866580e-01 -3.469460901150308446e-02 9.070259262838172853e-01 5.681400026854043217e-01 5.518253232227200433e-01 2.724434822315675020e-01 4.769666329872456756e-01 5.315995931124452012e-01 8.311253973028723818e-01 -1.896163114509269165e-01 2.846962235275978664e-02 -6.168844818643098860e-01 2.604739024432298211e-01 5.786759663892538930e-01 9.575805266961731066e-01 -3.784636453184522797e-01
-4.736820417594878596e-01 4.271884304910317787e-01 1.521359435358321521e-01 4.449630357693332150e-01 -5.227184658569108411e-01 5.082632300519374091e-01 -6.211268117697179569e-01 6.334194629724591852e-02 1.659446953909778921e-01 7.028019737611332918e-01 -2.785445835789888691e-01 6.173898127073527142e-01 -5.488941568114857894e-01 2.260382356435087781e-01 -6.606614148225816623e-04 5.925267595773313634e-01 -1.114233671867644049e-01 9.301530841438518382e-02
8.024546195601738041e-02 1.575479286431388792e-01 8.706253251078811539e-01 -9.327791818883909292e-01 5.299583769070207451e-01 -4.260936918323538491e-01 1.164517394077766860e-01 5.907163650760708373e-01 -1.360717803375189328e-01 4.661976220171757945e-01 6.748168189193863575e-02 4.648810598654563031e-01 7.927317966985859554e-01 2.990935563282162701e-01 -7.162556220821111319e-01 3.243755421590815424e-01 5.826279929695182824e-01 3.951126493311614696e-01
7.480068031126736461e-01 9.397097308591544074e-02 -9.135342415048730569e-01 -3.089205105995125322e-01 3.893543428002050888e-01 -7.198417305735909100e-01 1.931851146964013721e-01 9.326797253750460648e-01 -4.598293660146353101e-01 9.088595148563574089e-01 3.028503099613327407e-02 -8.294249962023392264e-01 -1.630788937616995185e-02 -9.468888162894268934e-01 -1.514979426086593972e-01 -1.307568808308410234e-02 -4.608089013045095772e-01 -7.502021236689930817e-01
6.649870355221608742e-01 5.379291739047645793e-01 5.176938208187887858e-01 -1.385368182013275440e-01 6.574855064091448265e-01 -5.937307144085172128e-01 -2.264001756620052930e-01 -8.814608252407764022e-01 2.502814286134706911e-01 3.263467400745377889e-01 -4.287622059887655768e-01 -4.832143270637437871e-01 5.721344383356440355e-01 3.655149702909193943e-01 -8.314938688495975283e-01 -5.534629978540121092e-02 7.746631208272575231e-01 4.272966934333296551e-01
-1.679502581521718010e-02 5.865226231690853220e-01 9.917714903172737406e-01 4.566417006643969101e-01 -9.996738751978425652e-01 7.927475828870361729e-01 -4.299319433864244866e-01 -1.689681993274486649e-01 -4.087409567566927526e-01 -6.730784331287301692e-01 -6.443723976861607250e-01 -9.358601617361644864e-01 3.366948472688404553e-02 -3.567885001954754776e-01 -2.461161073454632975e-01 7.627799772704831893e-01 -2.470679930033826688e-01 4.875042470753035984e-01
