-5.922393054878047902e-01 -9.621233576077894423e-01 -7.513272488997775334e-01 -1.260574436600385706e-01 5.070712065225100318e-01 8.757905849355132055e-01 -7.072295759029092466e-01 -1.428092772475526573e-01 1.455030791334226137e-01 3.872217663705881940e-01 4.654749041199231496e-01 3.531320816607471103e-01 1.552692351195022191e-01 8.413459834701677575e-01 -6.664372882076634586e-01 -7.157683460302290968e-01 5.802028172208544277e-01 -2.941108034528553961e-01
-1.931657615630792135e-01 7.059141980202848776e-01 6.125256734681764348e-01 9.200951615594227251e-02 -7.843859339428430610e-01 6.364612974075384288e-01 4.493466904489215596e-01 -4.741537536917180273e-01 1.954500399426234158e-01 9.505348366103550939e-01 -2.234111634379579991e-01 4.340525316841511994e-01 -3.107397176599256405e-01 9.311376769028641975e-01 -4.546134869587237781e-01 6.978733619487359485e-02 -1.258676645084352320e-02 8.534764123342447606e-01
2.767353983237127446e-01 5.472032234772604697e-01 -7.038756569717204981e-01 2.882448758593988414e-01 -3.473413831811361652e-01 -4.703010023568127140e-01 3.270846971195172648e-01 -9.464606798335913895e-01 3.269648744318692790e-01 -8.132112826950509410e-01 3.334466911602441686e-01 -3.818315250682443596e-01 3.545316514359552196e-01 5.213513364007450468e-01 -8.084146698608843939e-01 -6.849815135226896556e-01 -9.374519102261077430e-01 3.954882387413148903e-01
-1.782979450012741884e-01 -1.213184953955064871e-01 -5.644990339623131570e-01 5.746611721710710718e-02 -7.780168176999616714e-01 -6.532751235288947189e-02 8.375940123373607493e-01 7.065508101008700637e-01 -1.224016243634826751e-01 6.358572637267593253e-01 6.121328006696958868e-01 3.952751921269925806e-01 -1.336321591509281037e-01 9.348429015588756164e-01 -5.113623447787577492e-01 1.633795073895617234e-01 -1.460147482476807090e-01 -3.557617569774076394e-01
7.938520723895855502e-01 -3.762847979799177622e-01 9.979171405243164594e-01 8.063596344017148754e-01 -9.366955314413262235e-01 -8.634884594361854626e-01 -2.523056443494113843e-01 -8.275352893189692471e-01 9.367648570744328829e-02 9.175487465263992837e-01 8.961911103035240245e-02 5.361244795193124135e-01 -7.482218542571009712e-01 -9.902336965806107782e-01 5.318525588629100520e-01 -7.657629886361844163e-01 3.750790730548723140e-01 2.717968029838788713e-01
3.228545631246164116e-01 3.169906596540725263e-01 7.565903728471710943e-02 -3.919539898218254437e-01 5.519616612586000226e-01 9.427679559142405630e-01 9.542155856309091355e-01 -3.895987610839347082e-01 8.297337235149857548e-01 -4.784090695131218429e-01 -9.354629650179344669e-01 -1.197024177224975811e-01 9.557872143037547674e-02 -6.098145317309193736e-01 8.043052553729089504e-02 5.345009818068220397e-01 -1.465677519226520342e-01 -2.119346300539253214e-01
1.552861377508561735e-01 2.201621887309882231e-01 6.827585648535481333e-01 -8.899662615542478505e-01 8.743198470563160463e-01 -2.365012310300128873e-01 -7.465341399048848192e-01 8.920391401553959820e-01 -8.239273593913059024e-01 -4.308827482620081195e-01 9.353043745990743396e-01 -3.995284285568960758e-01 5.941974303055541640e-01 -6.869582384243755335e-01 6.444166049162465271e-01 5.904125421046672872e-02 1.472663507174319479e-02 -9.304251791193502985e-01
-2.782025376345670029e-02 -4.318441484883009940e-01 9.176709035952679283e-01 -3.471878094756347677e-01 2.481473631401648061e-01 5.589850624513474919e-01 3.311543778866258281e-01 -1.189183388056738178e-01 4.503599812737982822e-01 4.271134648890172469e-01 -8.018804916473638578e-01 -9.233905067204049022e-01 -6.635441979894891595e-01 -6.025547216396749395e-01 -9.924346093483624731e-01 2.173274394363314543e-01 1.040580777370414545e-01 1.523417591402778937e-01
-8.076877382488658608e-01 3.397286984728146719e-01 -6.879964075267315238e-01 3.042936759789944268e-01 2.560927252522801623e-01 3.885958706465009876e-02 -4.217629160188035020e-01 -8.264977759587468498e-01 7.863610773939422316e-01 9.439689151982391668e-02 -4.366830674206859109e-01 -7.657985186965781121e-01 -8.830252128482101170e-01 4.813038199189267341e-01 1.023416533185881605e-01 -2.291498573014166817e-01 5.027248905626851005e-01 -8.773598458964126934e-01
-7.367906141206591319e-02 -1.525045706840216508e-01 -4.590965669460848053e-01 -6.167131818546935929e-01 5.332705430082635978e-01 8.091890465895106299e-01 -6.355156115055173860e-01 -9.673604673640381346e-01 -4.410831559538933577e-01 1.503088409405962944e-01 -5.059166074683449366e-02 2.984704375094499040e-01 -3.176589694131949360e-01 -5.774975169812732734e-01 9.610882905648558960e-01 -9.342681386409643629e-01 -6.859362530207553377e-01 9.137259777880841760e-01
8.126106842594281732e-01 7.238618050598345510e-01 -8.584327193229995823e-01 -5.883395400549888687e-02 -6.554553840785842800e-01 6.372880999964821713e-01 -9.470692196655591255e-01 -8.095274887247937423e-01 -1.631110269911786315e-01 -9.145918386256416399e-01 1.995360059972832723e-01 8.350855232685975293e-01 5.651734098500765802e-02 1.135466067649489735e-01 1.948761401424696782e-01 -7.803369244210610622e-01 -2.084941158171091935e-01 2.671797193917031521e-01
-1.442796842620986675e-01 4.716165114653642632e-01 -9.011944555191121475e-01 8.937100356420996095e-01 -5.107345834296473930e-01 4.195002086578265010e-01 -3.045802509587932083e-01 -6.983778261627840989e-01 -2.187000598051854483e-01 1.644330354276290207e-01 8.844479361158817943e-01 -7.800054141218591974e-01 9.781547108359486264e-01 -5.415449375124524733e-01 -9.246566611688863402e-01 -8.725223567448189277e-01 7.548275008078347836e-01 -2.210426004604445216e-01
6.854578164847568988e-01 3.362218756449091711e-02 4.486577617322606293e-01 -2.326074333041398545e-01 3.571669544885113790e-01 -5.985010653099323008e-01 -8.081369765503065850e-01 -5.529908027312866459e-01 8.274762813071507850e-01 2.408709118157477957e-01 -1.884866263743350812e-01 -9.848869531407220546e-01 -8.347407602951981698e-01 -9.697197926144540681e-01 -8.987670833996237452e-01 -1.137542491063766315e-01 1.097668102988455519e-01 7.179733520750666287e-01
-4.323106320184638696e-01 1.013081211458590092e+00 -6.529963979105875005e-01 4.950872479870692677e-01 -6.329982455727984902e-01 -4.347630577334739010e-01 1.038093544991515627e+00 -7.131428807356687827e-01 4.240476829030094263e-01 7.668119428631248180e-01 -3.344616940725445575e-01 4.752643706233582455e-01 -1.722508233382975904e-03 3.998082170533140411e-01 -5.119124045586256333e-01 -5.501529472019739408e-01 -6.313184763077019923e-01 -9.506798454417888511e-01
-6.015297791414426776e-01 -6.376409656267298942e-01 2.107213667850717786e-01 -2.878472989144337246e-01 8.567377701632734599e-01 4.387609076330621916e-01 -5.088131268649478400e-01 -6.414304856541752642e-01 2.953335713660162343e-01 4.400109250595042321e-01 -7.740351178723925418e-01 -5.898608354455272540e-01 -1.187379813019228264e-01 8.124500390954985107e-01 -5.178724066688371597e-01 4.145527568845018829e-01 5.857299562703049273e-02 6.387121176174246351e-01
3.770656270463134674e-01 7.253730257231019163e-01 -5.154583261630061308e-01 2.110099609584346059e-01 -6.559147266117815178e-01 6.947526313920060481e-01 5.001456480616693900e-01 -8.291413270211831499e-01 -8.567420517114792133e-01 -8.683194795338498861e-02 -2.796153455125812148e-01 8.357969635792807939e-01 -4.243658738834253374e-01 7.878479715668444960e-01 6.970925815068613751e-01 5.302965459735722309e-01 2.307183444519191884e-01 -3.040891482613883867e-01
-4.163957027241617370e-02 9.866997064219501859e-03 -1.107799936760077257e-02 -3.641228592265017827e-01 4.457657237819807605e-01 8.682444395489062883e-01 7.332523026625287210e-01 6.809075101736731250e-01 1.095231893861859096e-01 -1.718121630736562933e-01 7.579776183650989152e-01 4.596759861145738313e-01 4.600630459001682215e-01 -6.374395634157180579e-01 4.929060599893351213e-01 -5.966579202037231022e-01 2.283768643928238140e-01 5.457207897673334029e-01
8.195180578578917796e-01 -5.680583982828977252e-01 -5.555993177236648872e-01 8.704986895878339404e-01 5.056131865692266025e-01 2.202728523690140328e-01 2.354601636978983226e-01 -1.741384756629627273e-01 -3.939746205953550962e-01 1.332415529753085692e-01 -7.927682071014463538e-01 5.237733868797946890e-01 -7.954547700487892836e-01 -2.611900701810094261e-01 -2.303597018754846293e-01 -8.084326363958895811e-01 -5.206241019571469231e-01 -9.510334652971679237e-01
