6.234708535658045614e-01 -8.338893172551541388e-01 -4.244034338283899643e-01 8.298683752769678845e-01 -3.772614114274380759e-02 9.171557019468842276e-01 1.652434175031278207e-01 9.411513581239794313e-02 -7.985379409823417651e-01 5.623007998284713649e-01 4.784959380931732564e-01 -2.637496316639066293e-02 3.304369302948364506e-01 6.345779213762264837e-01 -7.370506700493396623e-01 5.289936966652374339e-01 -5.303098222807746120e-01 -2.847793584143649692e-01
-3.100952928031031064e-01 -9.199876270672773318e-03 -1.379168078977182632e-01 -1.928014601962631525e-01 -6.035066924773010433e-01 -6.491527557061179676e-01 -5.078026048748623955e-01 3.652087519944826610e-01 -3.847354041240311773e-01 -6.748975545571004320e-01 1.080786712736019339e-01 5.321152305475241873e-01 -3.892657831606758378e-01 -2.982451199658376836e-02 3.580030161136837918e-01 -7.985023644028793610e-01 -6.279360311765876945e-01 -2.688390275536975960e-01
-4.171743190977175164e-01 -4.923756830684622443e-01 4.690824783336171588e-01 9.164640947872294552e-01 -7.912928738457153388e-01 9.391554596614359873e-02 -9.811732445149751181e-01 8.457806873527541347e-01 -9.852575122988763701e-01 3.306532250644262927e-01 -4.958218037066906003e-01 -5.478147657066084752e-01 -4.741360852019422811e-01 6.705433960550640782e-01 -7.061546340465706395e-01 -8.532068249568481866e-01 8.204579730123892078e-01 4.759914818534269898e-01
-9.077364826185666535e-01 5.773197877624297591e-01 -4.151719623423819616e-01 2.915782055512314841e-01 6.473250986074879920e-01 4.500720035506020622e-01 8.529407089344315240e-01 -6.686243302598792182e-01 4.836336679622146306e-01 2.084157563924790568e-01 -7.549130414564945157e-01 -2.556301187577560974e-01 -6.877626550655758586e-04 -6.687485979905268829e-01 3.086977886719817210e-01 6.277229108799960988e-01 2.639511096135918056e-01 7.752575454160975932e-01
-6.837028404783541680e-01 -1.259681923004186133e-01 -3.337516349821276762e-01 5.963301458679269862e-01 -8.108861435110364946e-01 4.682381136195952198e-01 3.576629470363728025e-01 4.246811383136881446e-01 -2.186544263758707918e-01 -4.028786333100642381e-01 8.332887388057409472e-01 2.241373164435410750e-02 9.468508896672628294e-01 4.642772900271368020e-01 -5.956391093691856264e-01 -8.055312605873069520e-01 2.569181043318835567e-01 -5.149179565436449169e-01
-2.230505329906165568e-01 2.078851072915543496e-01 9.643280300544333494e-01 -8.386002923793346442e-01 4.274344095839865965e-01 1.231339467421632694e-01 -9.097052528407699734e-01 -4.665692234501781499e-01 4.687816924897956206e-01 6.229668708909598118e-01 -1.601108219156779922e-01 -4.129235763330083575e-01 7.857521704316571265e-01 -9.769091703407951632e-01 -8.165185797153476921e-01 2.221849363728016225e-01 -4.830088137879688936e-01 3.188441836131312712e-01
-3.468347515649988777e-02 -5.178850322932732064e-01 1.035884214590536700e-01 2.483192158794078064e-01 -4.480149362960466064e-01 -1.900487718336550391e-01 -1.694658126921278971e-02 -2.985873937356500196e-01 -2.547620217936179543e-01 -8.114602929264935760e-02 -8.232020763500756955e-01 1.588492188335536848e-01 4.720334633941205560e-01 7.436084335251226252e-01 1.928768354445046795e-01 -6.567649056113672446e-01 7.817774772788518289e-01 -1.686262246130166773e-02
-2.467160839432869790e-01 -7.853938289139458240e-01 2.263464923575400807e-03 -3.164727106561706638e-01 8.513440713519365710e-01 -3.369088851576655941e-01 -6.107383800661153606e-01 -8.985509854893912740e-01 -4.130944702071659425e-01 -1.336536614573571868e-01 -3.900114025427620090e-02 -8.325134092397211694e-01 -5.946869819375487642e-01 -7.265284883603447819e-01 7.408138625519063991e-01 -7.322565022255477230e-01 -1.357329782528687301e-01 9.960646785764483147e-01
-1.752457535922738452e-01 8.619926560022442841e-01 3.105869535413370297e-01 -9.393100757685991509e-01 -3.991908527605201318e-01 9.513380898247844053e-01 -4.343074967714897205e-01 -1.815541045934717101e-01 2.820438427445468577e-01 -8.200172030872919793e-01 -1.079500796489120569e-02 2.861456340466048687e-01 -1.446577218791683106e-01 -7.109253901658959540e-01 -7.111156710553913074e-01 5.639894356797653385e-01 -6.128991711138355100e-03 6.506683462493677572e-01
8.019822271751836373e-01 -7.019595460247797236e-01 -7.250226941613188147e-01 -2.079461549009347654e-01 7.448852654904550841e-01 7.014398944724654639e-01 8.032537086509937696e-01 -9.375566666112972181e-01 6.539247549396723924e-01 -7.400942771459068092e-01 -7.504851655851821901e-01 -8.606639098731433402e-01 1.120937806675375015e-01 -7.989131366046052785e-01 4.340843957619051618e-01 6.404781980845944966e-01 -8.542374900347814437e-01 9.203563614089488309e-01
-2.425128820089983983e-01 1.025082851507976844e-01 -4.042607102538751107e-01 -7.084258148606396022e-01 1.880041932608173538e-01 1.151590302428036061e-01 4.021887923815223864e-01 -7.591462702329244694e-01 2.386561075925519027e-01 -7.652509599279569974e-01 7.146948705776260402e-01 -3.373418424976379892e-01 -4.073862468165905248e-01 -9.786236690801827232e-01 -5.748420898004328317e-01 -1.642529994666591109e-01 -1.095832626568022938e-01 5.443933812060294253e-01
-3.828785139535819670e-01 4.809253724207658287e-01 -2.849781677709304351e-01 -3.330993620803310851e-01 5.894771392291134893e-01 1.877751271212397266e-01 -6.850772312638420125e-02 -2.343184139466319427e-01 8.947563576096625448e-01 -1.938575552570752092e-01 8.628529064865119169e-01 -7.503664473669480195e-02 -9.991848721669721600e-01 -3.210227595159285130e-01 -9.620930208244019566e-01 -3.411107290246859769e-01 -2.942494048532249273e-01 6.137768936400306297e-02
-7.500836556629241203e-01 -2.596703642026059189e-01 -6.888454123327436562e-02 -9.381427978644402144e-01 -6.215035460920815824e-01 -6.097175414994427944e-01 -6.146168366232770408e-01 -8.102632275397391171e-01 -4.588922781563693487e-01 -2.231011514984200805e-01 6.112511904057297274e-01 4.619739462654604001e-01 6.500454989177969489e-01 3.224923181921846016e-01 7.129244722391171463e-01 -3.975835950322998968e-01 -8.477305250544352466e-01 -7.986633006247222388e-01
-7.311665241833532614e-01 1.108297182784114820e-01 3.750806774684214417e-01 5.818113838852293496e-01 1.309682506983320116e-01 1.921828998144980427e-01 -6.520228533338187082e-01 2.362129055454797455e-01 -1.397775685032832116e-01 4.477472183540305295e-01 7.885012905836300545e-01 7.012457162099020591e-01 -2.704259850030747980e-01 8.650157973368680642e-01 5.032158469560420455e-01 9.944374973930639738e-01 -1.323009582189849653e-01 -1.765400227045901826e-01
-6.353616416795543342e-01 -6.186831851863136000e-01 6.262200855567435775e-01 -8.652701400568353352e-01 9.906373998662451053e-01 5.043619018706985146e-02 -2.663501643366059657e-01 2.209932525463155772e-01 4.234333754237684655e-01 5.381842014659726781e-01 4.887023212056642585e-01 -6.612096788303524209e-01 -2.740958738329604127e-01 -5.193249305744734867e-02 -1.759016440196797260e-01 5.576834689944912826e-01 -7.949449608304065551e-01 3.319289931216964362e-01
-9.721570498544148675e-01 -1.541134877325010533e-01 -4.884359750276905388e-01 5.158994283215875276e-01 -6.627119055182562057e-02 1.531834392812578272e-01 -2.712806619436856082e-01 9.247290494841887698e-01 4.797902902978259387e-01 7.276467305400436958e-01 5.397572137050165031e-01 -2.749470091934725843e-02 3.955565881979328235e-01 -9.542234822345055933e-01 -4.874071568761197959e-01 -6.326003472706652753e-01 -9.764063460350835832e-02 -2.972677069288083285e-01
2.748299615249108659e-03 4.241158969209191110e-01 -9.495911226222794044e-01 -9.542820161091677411e-01 2.230939819998677479e-02 -3.371120914303955551e-01 4.300425180082343424e-01 -9.532181812391438136e-02 -2.212956992145876378e-01 5.598173595220529153e-01 4.983674765058045963e-01 5.992593116739056702e-01 -5.162581626181216299e-01 9.795103144723315003e-01 -9.553616141541833029e-01 -4.848156492665829376e-01 -9.451285396880270140e-01 6.836773042248595056e-01
9.377285079496876508e-01 7.847329022534611509e-01 -1.252071192274826772e-01 8.191542425018935036e-01 -6.252402624197160863e-01 -5.807327883717458006e-01 -2.770842872101673127e-01 4.101758724172772652e-01 -6.312675913235309411e-01 7.340153769275393758e-01 8.885436769654643241e-01 8.467174310076316379e-01 -3.903942407629372724e-01 9.054728149797549586e-01 -2.525886807387720534e-01 -1.709850128006840664e-01 9.801797093730940658e-01 6.709886953253586528e-01
