9.511220861322940978e-01 -5.694143527575540320e-01 1.923232587331935306e-01 1.811725788719195929e-01 5.007208012688549870e-01 7.381983855160710872e-01 8.770883494924842649e-01 -6.426513692631706798e-01 -4.948684448627730936e-01 -3.879560684554319017e-01 -6.011101102410399966e-01 1.099353914071906357e-01 -8.423121694816129712e-02 -2.708321181767576191e-01 8.986471574499818038e-01 8.690436150613957134e-01 -1.819697155079027795e-01 -4.207983307454913890e-01
-3.749948211289166888e-01 -8.468134119294873363e-01 -5.597241065473829158e-02 9.269642826293046367e-01 1.199328439425429021e-01 6.028141729660519976e-01 8.091943160058120421e-01 -6.517932462826997453e-01 -6.144943486241433162e-01 1.327827606348184475e-01 7.007399660738174996e-01 -3.655649714797386540e-01 9.029802346929368673e-01 6.615015956332760683e-02 -1.973948541358614139e-01 -1.007324016213797385e-01 -5.925345549501873643e-01 -9.695523620929821229e-01
-8.162887496346451499e-01 -3.995509242573920816e-01 -2.930234171761288420e-01 -3.016708342437580126e-01 2.303739032151767008e-01 7.481588177708564658e-01 -5.308219440523946897e-01 9.613782669053021479e-01 6.782058555085244134e-01 9.242721316083437610e-01 -3.521641201216457184e-01 1.510604545592776349e-01 -3.141352028811397745e-01 4.541199352136555123e-01 4.244008303569026669e-02 8.936066508585660539e-01 -5.666275054536493716e-01 -5.327357139314277124e-01
2.654200525532727228e-01 8.089862396507356557e-02 1.001010010681769175e-01 1.000707401421585957e-01 -5.579911516386510950e-01 -2.117349069394464933e-01 2.034846248610129582e-01 -3.487282242677772759e-01 -2.549587080297711639e-01 7.319989219280826909e-01 -4.669024164439731228e-01 2.054604303731027148e-01 -6.528590502685840402e-01 1.114535126220635303e-01 -3.597427807312462283e-02 3.614578293158129257e-02 -6.389528241035820066e-01 1.184635048219655901e-01
5.737758462383327762e-01 1.434110904729563561e-02 9.631574351898103403e-01 -7.811725433839035171e-01 5.955919267229644598e-01 -8.517154674840926587e-01 5.879353092525225338e-02 -4.537973486303035209e-01 1.862009074830930921e-01 5.261201863096930387e-01 -9.158963053445675628e-01 -4.658342809789850492e-01 5.809668567467604072e-01 6.386898065697358406e-01 7.598849692228001329e-01 4.600627412551603346e-01 6.594445722124798737e-01 -2.158301465526827889e-01
8.043124474449412364e-01 2.998041896475260315e-01 6.174430181061187906e-01 1.100572284450958005e-01 5.135812914956339181e-01 5.230616070674347640e-01 2.303393045067801403e-01 3.961911707315550202e-01 -2.402082776270943465e-01 2.960178019319303355e-01 -1.951461916054372803e-02 2.102778466068329632e-01 9.262252782587907518e-01 1.731309217533956724e-01 9.103136019996103112e-01 7.145162737412380505e-01 -5.375964423936014924e-01 8.355589599297894576e-01
-3.927501907361408695e-01 6.552214079016691617e-01 -4.828229497324874608e-01 3.588279926050612079e-01 -8.128965964859447002e-01 6.349429517436451231e-01 6.795952106604328247e-01 -5.054958167563763372e-01 -7.661710916659920656e-01 -1.738669962072902087e-01 6.570601432789533458e-01 2.596318732009902930e-01 7.353226915140389508e-01 -9.835308589476403629e-01 8.248007425315353469e-01 -9.581498015963367809e-01 -3.075693798042478666e-01 5.833481051039068888e-01
7.088414784408639813e-01 2.515477495223935045e-01 4.639392092362600861e-01 1.800542351960837673e-02 -3.001136066831152638e-01 3.515568221372326052e-01 -1.495269933003844642e-01 7.756798728630316664e-02 -2.915948970838598830e-01 -1.771850660323837368e-01 -7.816553420826498622e-01 -8.618311611910537406e-01 -2.350094144710104527e-01 2.856493440902007075e-01 7.401995099391779354e-01 -9.193065850804121864e-01 -1.443450343563615068e-01 -4.016696277521595304e-01
2.531991545310174896e-01 -3.283975809595277018e-01 -1.238261621380671584e-01 5.935350848896869813e-01 -4.397140597975495724e-01 -2.027063048287186253e-01 1.983922693139822668e-01 1.482298442275552797e-01 4.056777393782866059e-01 -1.797393608927756181e-01 4.381126077995096124e-01 -8.805757785702807983e-01 -3.768152591706506738e-01 -9.466895449566570253e-01 -5.498559930608473180e-03 5.651331205410681235e-01 -8.885180935907466271e-01 6.282204185802844343e-01
5.316444664358772887e-02 8.818539484363544512e-01 -8.381533620806330687e-01 9.970946603209925874e-01 -2.407597320578802255e-02 1.357160243960926077e-02 6.211242364274399685e-02 4.812944810452339794e-01 -2.705410898319422497e-01 5.593425094526406349e-01 5.813458375130059475e-01 6.092989482819614055e-01 -5.749046707495314434e-01 -9.206755625156642919e-01 4.524187939794566127e-01 -1.486150971733728177e-01 -3.074758092999487769e-01 7.040806784055176903e-01
5.134101222037316115e-01 -4.434089157776954782e-01 -7.627188543438973012e-01 9.973248609264672160e-01 -3.521350251556396582e-01 3.990292494334060081e-01 4.363294091369416261e-01 -6.001235003173032156e-01 2.507507263891641802e-01 -1.639050013955161422e-01 9.628140601741302929e-01 4.061573262472357726e-01 7.347502205072512504e-01 4.376765314304089660e-01 3.569299474266722783e-01 4.863734622719075862e-01 -4.689795818104547376e-01 3.507453388499832680e-01
-2.270593541969213591e-01 -5.345578011379058525e-01 -4.494998631226787000e-01 2.667591863713111421e-03 -5.577989173954732705e-01 -8.846100401235440502e-01 -8.392133280313535115e-01 9.701325240829522523e-01 -5.132239476439247605e-01 -8.959328967203070149e-02 -3.749144296537558207e-01 7.835625409427798838e-01 4.219041870854914333e-01 9.137979069504899021e-01 -1.633027793209659295e-01 5.632403014122476792e-01 1.348139711001136165e-01 -1.561899435422550164e-01
-6.253444996321521065e-01 4.334933671140768774e-01 2.112888382728835557e-01 -5.115827639790798687e-01 1.584179124089564461e-02 -2.990008873026536729e-01 -6.114823215836645565e-01 -2.475724120194286448e-02 -2.771792807813932558e-01 -7.413968700888663443e-01 4.904102233243343156e-01 -2.065893385603483762e-02 8.502517487142387254e-02 -8.929955965170207621e-01 3.420887973997835396e-01 -3.074699671306510562e-01 -7.044466532107233059e-01 -1.011092515758027499e+00
9.061196181600170707e-01 -6.240140380327976466e-01 5.469977351574639712e-01 -8.213871874513158922e-01 2.248165091820207573e-01 1.101121591843720604e-01 5.962398916034057361e-01 8.870399883733719459e-01 1.471713179894139356e-02 5.286383960102341018e-01 -6.973434292178013472e-01 -5.213584075683521668e-01 -7.896003699343403515e-01 2.843096781279564333e-01 -3.909169701055225654e-01 -8.595250145482091764e-01 2.418915595033831190e-01 7.252461386967177237e-01
7.823429069198752916e-01 -3.751989580384144235e-02 -1.782642851910519188e-01 -3.904864114475561365e-01 1.511186754199202453e-01 -3.078425200961969477e-01 -6.389026474887500306e-01 1.185512983228630968e-01 -7.866853457970459651e-01 2.536343510568013215e-01 -7.986645797188351992e-01 1.451177898077370965e-01 3.146275809128699225e-02 -3.243319659463548277e-01 7.210316727673082848e-01 -1.524449560458154829e-01 -6.531977687824277456e-01 8.510086514113863743e-01
6.845339600846683803e-01 9.057143516902964597e-01 5.891418800332307582e-01 -5.798869637111717656e-01 -2.916087969963176985e-01 8.809436466842527347e-01 6.987973552115002152e-01 2.698601758023947972e-01 3.435403380247803451e-01 -8.132562112880202809e-01 -3.139298968460206840e-01 -2.398222192055455004e-01 -3.194561533191295766e-01 4.502833006308357700e-01 -7.568867917236447029e-01 -1.728675343142764276e-01 3.026496021502504963e-01 7.403302378058617128e-01
-1.493648041315923936e-01 5.836696334535581565e-01 -6.553133576016861861e-01 -2.374393198003118821e-01 -2.512205896352924239e-01 3.336139942111852608e-01 4.069106967568336120e-01 9.724846679180209064e-01 -2.481527719314417235e-01 2.193541186141595156e-01 -4.953925390853442523e-01 -6.248057890761762184e-02 -3.775402008011357613e-01 1.549942575078314400e-01 7.554320282476089110e-01 4.024938018201364431e-01 -5.802409370634625807e-01 -9.852272443430069027e-01
-3.817724033609621870e-01 -7.460080068398818876e-01 -7.709951965940072816e-01 -4.299203580062244123e-02 1.498245610004171890e-01 -4.038959524254093214e-01 7.618154109879414770e-01 -6.450700414567133167e-01 1.911886246346599094e-01 -5.355086871278947891e-01 -9.580450867204178822e-01 -2.944476741878205850e-01 5.237150056409228815e-01 6.619600003225577511e-01 -4.488105172959380162e-01 4.351374372215368602e-01 2.288900622573433394e-02 -6.060504202047239941e-01
