6.742071303307491104e-02 7.548107609761749437e-01 -7.235306422697884710e-01 -2.619103512468674497e-02 5.508542362411061877e-01 -8.198801397075079489e-01 -9.391518314610907137e-01 2.707365029026667647e-01 4.698319714434923133e-01 -1.036866546936060729e+00 -2.388196339316707786e-02 6.573518608281567754e-01 4.422011027189137189e-01 2.403545154687663013e-02 -5.369595148840778931e-01 -1.049714025407992718e-01 -9.568724492058888753e-01 8.340786352006528404e-01
4.095303273781350506e-01 4.608541609597568978e-01 4.157862474843503908e-01 -9.338964531972437921e-01 -5.158584812485599302e-01 8.640841714373679316e-01 2.898613242456122077e-02 8.283910016879072469e-01 -8.297542581530782668e-02 -7.513552525433915275e-01 -4.073010846170061483e-01 -7.915461325536214954e-01 3.784313754659505702e-01 -6.774039246172685047e-01 -4.059815039412807969e-01 4.013551931714519072e-01 -6.930998879281686786e-01 -6.762245987441246609e-01
-1.863549413063015359e-01 -3.243247963410655355e-01 -1.043575089906179532e+00 -1.443326991123891623e-01 5.387383193795507452e-01 -1.051353094833021640e+00 5.204955040099019659e-01 8.988325798928458177e-01 5.206430286776919658e-01 2.762620909096119015e-01 9.084359882642607520e-01 -4.674228291703136917e-01 -4.293648887786149504e-01 4.471123940638007666e-01 6.760312475576739644e-01 6.581676315790241372e-01 6.782491816588389622e-01 9.328679499075638315e-01
-1.884783717268659342e-01 7.496301463548162881e-03 -9.446335326075736560e-01 -1.323000897334098910e-02 -9.312431571539503405e-01 -9.588434429747756671e-02 3.022110703634451334e-01 -9.314011434899653885e-01 -3.713309957911003489e-01 -4.137896252696581789e-01 -3.110670834919468386e-01 3.027783898363856641e-01 -3.935143431454284774e-02 8.384814837945835098e-02 -3.903450504141262739e-02 -2.527824654131087811e-01 -1.665620828107204979e-02 3.456040655710115872e-01
9.429652437082178817e-01 1.916008265670378630e-01 -2.978658935707219069e-01 -5.815921141565139063e-01 7.032791551018215959e-01 7.691291241914233190e-01 -7.537994891543240428e-01 -7.875535424294137776e-01 -3.255270424870350676e-01 7.916260503387380354e-02 -8.061290467709458785e-01 -8.670866850892990918e-01 8.252623606354852343e-03 -2.080582277466894170e-01 1.966687988669056919e-01 -5.534787391056873451e-01 -8.304873609086103545e-03 -3.650997989578270153e-01
-3.859569213959425649e-01 1.038138222040750486e-01 -3.099450036572575992e-02 4.519746509496913034e-01 4.282400310912942154e-01 -1.928380310527886832e-01 2.978607524240371451e-01 -5.697618956608805352e-01 -1.076993512059623986e-01 9.386858843142678044e-01 -1.209986950129266353e-01 9.001973998190436477e-02 -3.874456591477394851e-01 6.444291531797317063e-01 -8.004279643332599115e-01 5.881077440382469490e-01 6.446319135678819645e-01 -3.807998125303860976e-02
7.484429532284049280e-01 7.020677621788509182e-01 7.060113444595461640e-01 -6.936783840037807902e-01 -5.094025598721214632e-01 -2.386357930735890087e-01 -1.399864385664641442e-01 3.709545705827154566e-02 3.463636967781196785e-01 -6.434381922133420861e-01 2.795666471254383834e-01 -6.819539164888570593e-01 7.726886438135545099e-01 -1.226464138157371958e-01 8.155881060931609028e-01 -6.800022059242979630e-03 3.098944242497654877e-01 2.751811810235649802e-01
-1.945982531705039986e-01 -8.733903253942270073e-01 -6.940036934706232952e-01 5.565853440708552480e-01 -8.334537663087502324e-01 -9.238198192077375914e-01 7.237095984528742199e-02 -4.989983050292016720e-01 5.566951626159568622e-01 -5.070205533180128787e-01 -6.644036493344267491e-01 7.652553766341476660e-01 -8.590926000968117648e-01 5.228716109278528368e-01 3.054022077763117182e-01 -2.025125429444623593e-01 -4.859154529894746388e-01 -3.328561944812981621e-01
-8.463054861204335477e-01 -7.574952552205811429e-01 -5.390533567319597541e-01 4.395560662381441941e-01 5.924184647437982232e-01 -2.031483664749407850e-02 3.927618764844878485e-01 3.109322802498655780e-01 -5.196113358180562969e-01 -6.752243675298759129e-01 2.727660031998074275e-01 1.619492220787663306e-01 8.026160792651517717e-01 5.080274000105171606e-01 9.066436703127642716e-01 -9.406623398212084208e-02 -4.256730754336185973e-01 -4.336104802886235343e-01
-1.628658822631763869e-01 -1.041098433004158386e+00 1.890457320109268369e-01 -5.568087522698776937e-01 1.589073720705315718e-01 -8.856980599142305621e-01 5.566927152445262372e-01 -1.397181289752358335e-01 8.040639332535282069e-01 -1.025603442245216934e+00 -1.246951100923955752e-01 -2.942381459326077683e-02 8.012756536971703536e-01 7.688843634775737179e-01 -9.987661314833413684e-01 -4.415201131501253484e-01 9.023186707626502656e-01 3.518101199972086257e-01
-9.179145996423005993e-01 -3.011585487788080370e-02 -5.479750106419106759e-01 3.383235156860476267e-01 1.472673828081040859e-01 6.615983485908842887e-01 7.904913594974951607e-01 -7.470114194861301460e-01 3.343535581893193886e-01 6.459508736499772752e-01 1.073398902204784483e-01 -8.735965809048833186e-03 -2.028477281365628770e-01 6.373980035059059190e-01 3.610549685290552202e-01 -9.640250438028525881e-01 8.412282751640762779e-01 1.607868109475611429e-01
-8.815655074553070403e-01 -1.054760891238340159e+00 -5.523534772745313237e-01 -9.618900043553546553e-01 1.894696098901889683e-02 5.109485289810510728e-02 -1.023224495376312326e+00 6.592660770769132039e-01 -1.747273719422454130e-01 1.985561207803578920e-01 -5.473831767993274644e-01 -9.983349476202567629e-01 6.758502588801897915e-01 7.842586899832770797e-01 6.780804097654662410e-01 2.596257907778319329e-01 1.421663295011274530e-01 8.412388936771182379e-01
-7.421042049525201634e-01 -3.464065860849729339e-01 5.362730560641357780e-01 -2.332348324216651503e-01 6.147671745468787918e-01 -6.290903538701588804e-01 -7.783057079348887353e-01 -5.172940652564294028e-01 -6.438075692352809298e-01 -1.044098974427546817e-01 8.561172881760561459e-01 6.385270659687769523e-01 -5.034358955241998723e-01 2.879216240816698247e-01 -9.239442961742687643e-01 9.231775415328682399e-01 -2.279370280363211543e-01 6.736235986502494555e-01
-8.382873658921146109e-01 7.028191591720673870e-01 2.461802626594668253e-01 -7.946566588650481044e-01 8.151400482854076479e-01 -2.687012437017116118e-01 -3.118579313924202956e-01 5.766721679304218640e-01 -7.247731271980404344e-01 3.551899716583498123e-01 -2.010906597149558217e-01 -7.569237127270733723e-01 -1.769432200152323276e-01 -1.542022314317669229e-01 -5.588801853994771474e-01 -9.209937827105583175e-01 -9.627509930506141789e-01 -6.674537859709974708e-01
5.454713109000519644e-01 -4.951397407694783648e-01 -1.074874399946082887e-01 8.642399934085138735e-01 -2.060208072071028629e-01 7.240709150057123011e-01 7.807886820428981967e-01 1.701918462416211189e-03 -3.485785633328656874e-01 7.050433687269379579e-01 -3.703757867256571995e-02 -4.263296013376760007e-01 -8.450433384451834229e-01 5.754030097815676648e-01 2.213675807321677791e-01 -6.190838419235924484e-01 4.724669900716658155e-01 5.355280051825344056e-01
2.070748815652067032e-01 6.867103600493185134e-01 -1.879254046351644392e-01 -7.105214267232160541e-01 2.654985728654378208e-01 8.738006723900819672e-01 -6.773514081066465964e-02 -7.847739846098324978e-01 5.650866376808465555e-03 3.107863675766956227e-02 -6.862865381420230060e-02 2.575293107378005542e-01 -3.725999381399657806e-01 -9.125964463571771823e-01 8.824729735366818595e-01 5.017332155552591821e-01 2.089190758802355122e-02 6.025627396853328044e-01
2.919234190694382503e-01 -5.681233253663520166e-01 3.350145057279762389e-02 1.434659315394152812e-01 -5.764534022223439386e-02 -3.312368113877923181e-01 1.910048228014764038e-01 3.205814865966499227e-01 -9.318585788058646457e-01 5.830107774736505988e-01 -8.522149248370589625e-01 -6.663750699270407085e-02 6.425833394897735307e-01 5.868094302423436659e-01 -4.140946907108417618e-01 6.206300703724898504e-01 9.201226236874335829e-01 1.038758564314040539e-01
-5.795806523258659887e-02 -3.583800996913654724e-01 3.668280774315214043e-01 -5.174763938441533373e-01 -2.681302610996625369e-01 6.525252663117653285e-01 -1.036994920919005692e+00 2.127349778840424421e-01 -1.519525449139380036e-01 -3.856805060924756723e-01 8.596270105376524473e-01 3.633243948256215661e-01 -5.356473696950937446e-01 5.846544228268510945e-01 7.733106516789018947e-01 -6.635502779106989824e-01 -8.670191326658398534e-01 6.166977695347279909e-01
