9.056449201597253085e-01 -2.949812992451848470e-01 4.145128843682878705e-01 7.285267106618812383e-01 -3.291749872524554754e-01 5.687620861252132287e-02 -7.323660259261851602e-01 -3.535248522257872783e-01 -4.957516601149374869e-01 -9.987062984705784574e-01 -5.296283047089286322e-01 -3.962952694817017396e-01 -3.734378921157497921e-01 3.460430348095248632e-01 -5.937090409426822868e-01 -8.891974143952118270e-01 -7.648279369666509675e-01 -1.721529535272006139e-01
-5.964741379929746623e-01 8.990255608700977730e-01 -5.131014317864309726e-01 -2.252787467339520955e-01 8.972542898468335304e-01 2.426747272347791196e-01 9.229244588739650146e-01 -7.073064944502537310e-01 -1.918150205022852717e-01 9.991379208020083613e-01 1.019076541988262787e-02 7.245726071843893168e-01 -3.522735180079837325e-01 2.279810367204715416e-01 3.608261403370446874e-01 8.250983462103044230e-01 5.792751900101326124e-01 -3.797927089826083624e-01
-7.654561884176142028e-01 -3.312281438916704901e-01 1.010299598943862759e-01 2.395444210455239809e-01 8.989880402020921091e-01 8.964371382655330622e-01 -4.742648026399512440e-01 -2.313887853387881499e-01 -8.780408392694534492e-02 8.834919559619606177e-01 6.163031599129250582e-01 -7.939768976791935495e-01 4.867314629995393438e-01 8.378453540372204911e-01 -8.478408644647568437e-02 8.533618639938355122e-01 5.185401430130692768e-01 4.971136966789249656e-02
-4.527083758512859268e-02 -6.275576505383572146e-01 7.117977028821530494e-01 4.517145350332196219e-01 -6.744779585549579570e-01 9.209439731629264214e-01 8.990575301073621128e-01 -1.604565430444937491e-01 7.603545898058062802e-01 9.076967700872252687e-01 -6.314467763693486502e-01 2.563097069902000036e-01 -7.290174532333176804e-01 -2.049094913931346351e-01 -5.211504464347961330e-01 4.695574940560660049e-01 9.680892092359149048e-01 -1.711664997567399205e-01
5.806422321111784357e-02 4.040023354301895409e-01 6.852030797362392844e-01 3.427867954186764599e-01 -9.666906655926675862e-01 6.545170934054916900e-01 2.575072098368480847e-02 1.039554974724217623e-01 3.954724868990108777e-01 -2.206808618287159005e-02 6.787776947963216623e-01 5.817270274825391274e-01 4.635006858579912570e-01 8.109616219674459225e-01 5.883253287952087129e-01 5.065385284664282173e-01 -8.280066188335425403e-01 -7.838459324499399417e-01
7.675690839288257239e-01 -8.034346275875599297e-02 -1.791937221865116392e-01 4.885406069042991795e-01 -3.990391348826425877e-01 3.799137961897402493e-01 -7.694577857123360287e-01 7.098010300255556126e-01 -5.632944902532507903e-02 7.160325589204264984e-01 5.418526508406030784e-01 4.128700018795076754e-01 -4.002056298791814570e-01 7.979758409337748271e-01 -6.966506153778336818e-01 2.561337848584044688e-02 -1.778349527895282112e-01 -3.476539858083541046e-01
6.049036130975621317e-01 1.833816127483498537e-01 2.661600736084803187e-01 -1.305376614133251234e-01 6.595058345654695175e-01 9.973909311087705287e-01 2.424774774799476340e-01 -7.023238003572321864e-01 5.729170533285027345e-01 -3.988824341487547387e-01 3.762443361144846565e-01 9.053959697874401913e-01 -1.282855657840231700e-01 3.716953613289754599e-01 1.294119849054065075e-01 8.782996548488494204e-01 -1.179715566376786234e-01 3.459188578863989227e-01
-5.567197280803838355e-01 -7.111638311993572215e-01 7.593110554010822077e-02 -7.500881734792367306e-01 2.818892135682877220e-01 3.725466556377702854e-01 4.623292276651526644e-01 -6.595893274140435247e-01 -8.781670864045149072e-01 -2.128808557177568339e-01 -5.825014473903263879e-01 4.838533921041032193e-01 -2.384694760747523290e-01 -2.927073557187445663e-01 -6.083077383478520117e-01 -4.982039916864574036e-01 -4.835671811693292299e-01 1.622715571822561653e-01
-1.208904184808625298e-01 -4.999194547876227301e-01 -9.445356856060994621e-01 2.967508942539475725e-01 -8.602453909782332986e-02 8.520461008460743502e-01 9.004448633320544237e-01 -1.667362493317512406e-01 8.154492081397083370e-01 6.995033312151527349e-01 9.384311413607012708e-01 3.615492861030680793e-02 -5.848771440191166682e-02 -6.570531957059358996e-01 -4.607420484945657368e-01 -8.147063293808161355e-02 -9.551928032371826971e-01 -4.173203266480554618e-01
-1.197310632076233478e-01 8.531851723596769466e-01 -5.305871365432821007e-02 -3.916187841557548510e-01 -6.600120136613411015e-01 -8.672225374432670497e-01 -7.650348718374607726e-01 3.404874302485995652e-01 -8.249471458435156945e-01 -5.358843087317105569e-01 -3.486911592944235694e-01 -2.811002055254088750e-01 9.622260631481753534e-02 -5.511680566409057902e-02 4.311028669990770168e-01 -1.833562179769825384e-01 -4.200231730744259928e-01 -2.861738963368126165e-01
3.452666572261590683e-01 -2.729319525506619937e-01 -9.303379161362129723e-01 5.914115305335888584e-01 6.283347566706164455e-01 -7.354002168739338652e-01 2.321724044628998840e-01 -9.906003462815246019e-01 -9.940788185489347617e-01 4.711717133551699965e-01 8.999748007871416489e-01 8.727731992797665983e-01 -3.578513239105008403e-01 -6.176781127558989004e-01 7.606541480376757258e-01 -3.221272604782406401e-01 2.989499202095566299e-01 3.015783739239225603e-01
4.421414665785010079e-01 -6.966820667867245076e-01 5.473284787585822597e-01 3.090464366040172189e-02 -2.595027096000067091e-01 -7.678941374067159709e-01 3.927575765738242075e-01 9.048180628738632381e-01 5.807599611670091755e-02 -8.834699843825540022e-02 -2.298759912082652956e-01 -9.618157579846693672e-02 1.512507330467108280e-02 -2.826262656717680177e-01 7.559303101941586833e-01 -3.794011428099464678e-01 -7.653729561093706169e-01 1.234562536673634719e-01
2.300157582271775691e-01 2.042130029917976763e-01 -8.130014819166232476e-01 -9.735081757323612583e-01 4.700240926451512702e-01 -7.319932337601614547e-01 -7.756787398142218626e-01 -3.852054807540855053e-01 -4.338797709922988521e-01 3.675398970898308693e-01 -1.317746510730435361e-01 1.658988058611701177e-01 -6.323111861392899380e-01 -1.200364773524531109e-01 3.599926039790457000e-01 -3.366502649582930329e-01 -3.474172164906435545e-01 3.714920087210437649e-01
2.495365512685025211e-01 -7.464656667103771737e-01 -1.384499118334443502e-01 -5.741043573009706469e-01 -7.629782818698588320e-01 -9.994227285110678372e-01 7.739495048330914395e-01 4.748650361814694132e-01 6.004482660567552754e-01 7.711690124460911511e-01 -6.706823727757195153e-01 6.801551513565123885e-01 -9.128752567565086296e-02 6.522804296470069430e-01 4.944309023978383233e-01 8.147159489029113244e-01 -2.421120122578042100e-01 3.758865668241694880e-01
-3.291518736067447493e-01 8.333447373119741153e-01 -1.209030551110907431e-01 -3.072689456112174811e-01 -4.441942079885716210e-02 9.469239537262902351e-01 7.850623529842520876e-01 5.472482534424770728e-01 9.311498179876406267e-01 -3.897596241942951623e-01 -3.485981692357940642e-01 1.192472326841274438e-01 -4.821297776978348826e-01 -4.176165899551199101e-01 -1.082576249899149384e-01 -2.572977468338187301e-01 -3.617394381112700175e-01 9.191519916699323334e-01
1.160476078509489611e-01 3.327076442259175315e-01 -7.206400793392303550e-01 -6.423737042779874562e-01 5.132794191509314485e-01 3.153418296121012765e-01 -8.163347953228523857e-02 9.225873354423007600e-01 -7.922544012484243892e-01 5.150132572469122705e-01 -4.601314208703339778e-03 -1.887461823139249262e-01 -5.851820387948204472e-01 -4.793707411986412592e-01 -4.752842260704120414e-01 -6.080909547885323674e-01 4.892173924585640488e-01 -2.039253200545949607e-01
1.946246888013258847e-01 3.016519502887060056e-01 -9.181346697764906084e-01 -7.432143858365932720e-01 5.127918980332822896e-01 -9.237354463927581749e-01 -4.484686232125570382e-01 -1.073758414028411351e-01 -8.492648714433997936e-01 3.207269198715603786e-02 8.125818511524246501e-01 6.137887561711047324e-01 -2.646049983761989410e-01 -4.412678028157053789e-01 2.538263020742407838e-01 -9.606531064823925492e-01 -1.458896295528921971e-01 9.643253544856525972e-01
7.998198918700681892e-01 -7.912532913436437498e-01 -5.629674810041752631e-01 -5.166437677744345480e-01 3.801415761480992361e-01 -4.654595948357569957e-01 9.447178143187769939e-01 -6.937487798770637371e-01 -3.619495292957695676e-01 1.722920859014536177e-01 5.728831180259633116e-02 -2.790196056993210147e-02 -5.284969810272406934e-03 -1.969969373460831452e-01 -2.592872471868903905e-01 2.484234090727178434e-01 -8.523037342090636903e-01 1.512757200832790527e-01
