2.333794720826239122e-02 -7.896751210719868963e-01 -4.728991443002634742e-01 -8.017429600980706672e-01 9.278071377075828297e-01 -3.378457778859952215e-02 2.095244718459411681e-01 -8.406666665755563317e-01 -4.537421600570368252e-01 9.866617286711577561e-01 2.231841815810774732e-01 -9.721089291013796929e-01 4.650492261966534535e-01 5.732748643851085513e-01 2.469150695473666668e-01 -2.593664068962912850e-02 -8.519253594825474396e-01 -6.096143690059799836e-01
-1.063325504245477698e-02 1.795443785580754237e-01 -8.315584877201215308e-01 4.448480327164000547e-01 -2.309037896305892734e-01 8.327994762266689444e-01 -8.160187547902600924e-01 -1.981523045057727583e-01 -6.721958039682681685e-01 -5.049190627565799394e-01 2.298859907145540116e-01 -4.166548304955480786e-01 -5.416349674915282852e-01 -1.999367480661436436e-01 4.991819084913317051e-01 2.847580947185303080e-01 1.012586618602080851e-01 2.338540079510122438e-01
-2.170789953033017694e-01 -7.137097668638902048e-01 -8.406455656382528785e-01 5.951522880293308448e-01 6.080812091497681537e-01 -5.008362725781577707e-01 -6.327121962392668886e-01 6.971410761957160807e-01 -5.033116367119424561e-01 7.964809626403325238e-01 2.509907068883979742e-01 7.147395353721857324e-03 8.611823036464508752e-01 -8.939727465140004936e-01 -7.960352838307930279e-01 7.738402889204613055e-01 -1.773120771393129624e-01 4.018100545847224092e-01
-5.694819571934193192e-01 1.824242775910036585e-01 7.719895425763581009e-01 -2.496019382789962382e-01 3.998911135272741335e-01 6.471798663992324625e-03 5.560181916130468860e-01 -2.738209670807850715e-01 2.588919110839805748e-01 5.407928422726044904e-01 5.995146373173489973e-01 -4.697475440352744114e-01 3.431671911165142808e-01 3.842673777332934054e-02 1.607902379810189492e-02 -8.833727855581174904e-01 -7.164515276360121643e-01 7.432788596708239659e-01
7.297204101031716517e-02 -5.992105087695557275e-01 7.669461192463827848e-01 4.504941499009380013e-01 4.794162712119342529e-01 -9.352641281722223754e-01 8.459737777977996975e-01 2.254146312703740329e-01 4.797981162283838051e-03 9.840461753597685712e-01 -7.908860440171928685e-01 -5.455207273554832925e-01 -5.235435565859983820e-01 4.742354764095410569e-01 -5.101115560909906810e-01 7.809878029075952854e-01 4.586952849337948002e-01 6.347493555802506959e-01
8.474291090699989093e-01 3.953599302398411175e-01 -2.386505466663248476e-01 8.735525730576073622e-01 7.118844722429208405e-01 -6.075880762286924031e-02 7.303157263510050567e-01 -7.263825204177557504e-01 -5.890491571640500412e-01 1.387040294786808237e-01 -4.052443425119798825e-01 -9.265264387090338394e-01 -8.313860369173321496e-01 -7.551331515683034068e-01 -2.116646589245440579e-01 -6.251087059669854229e-01 2.994895562248522380e-01 -2.920333556020354160e-01
-1.020613343320055239e-01 -4.095533069823419359e-01 8.038181373282256292e-02 8.746656410436043361e-01 -4.548889471457943090e-01 -3.413779876672397018e-01 -3.565471601097608412e-01 -5.749199630680333906e-01 1.893720417614740970e-01 -8.988968332045162990e-01 2.086748045260855000e-01 -4.363985348014366439e-01 1.737386103087765199e-01 -7.376449428110499751e-01 9.084005626133635769e-02 -9.524738243490468159e-01 1.507307062103726003e-01 8.437662892125009639e-01
5.758899715741926384e-01 9.635728430487547902e-01 3.902996072834996610e-01 -9.459183303579804525e-02 -2.212950319681263600e-01 -1.987552171762389797e-01 -4.993822372878755633e-01 5.326611502413690635e-01 6.052584412566685418e-02 -4.906704845448615071e-01 8.758769585151270354e-01 -5.001181333398302398e-01 1.647474585967641236e-01 2.354593176772406260e-01 -6.833973239460330307e-01 -4.417560965487383751e-01 2.870663387558869406e-01 4.570864331806567815e-01
-4.761530477338491996e-01 3.209428873983943276e-01 -4.315605544807007976e-02 -7.873809201575435734e-01 -2.019686437891321518e-01 -6.400675256477851294e-01 4.092183128901141775e-02 -6.385227928965454547e-01 -6.441161654727075581e-01 -8.997985466700925139e-01 -4.910223162110274875e-01 7.394300618133406444e-02 6.027649233906532400e-01 -1.556224567431689909e-01 1.490309121854533903e-01 9.500872707281463603e-01 1.355057508688894963e-01 2.497944751125478202e-01
-6.514295735211520499e-01 4.555774694293718285e-01 9.172482373013656209e-01 -9.399556202766187196e-01 -7.555530167734975100e-01 -5.045944319053471405e-01 -5.406853807193311434e-01 -2.662351622234991888e-01 -7.433329258034383769e-02 2.067418102922480017e-01 -2.525128201482343959e-01 3.735776161712826005e-01 6.214969863220712876e-01 5.922995609317635024e-01 1.013198875476227639e-01 -5.041529195415377085e-02 6.126763232475863630e-01 -6.401268953462881106e-02
8.932647709940538805e-01 2.597524560602666455e-01 3.304922171012394383e-01 3.247230784364334433e-01 6.117072299278464298e-01 3.737275895132403658e-01 9.658598292363042015e-01 -2.539458866748189880e-01 8.684364627197708186e-01 -7.682924785591201955e-01 -1.896358681621176101e-01 8.740356786440003356e-01 -4.207138484216459418e-01 6.870567310603760136e-01 6.289007382937227275e-01 7.269688024990214603e-02 -7.783557476418955234e-01 9.325402589113117591e-01
-3.119798701291365967e-02 -4.781460790399725824e-01 -7.627441337830744850e-01 -7.993590452439505167e-01 9.835904692522035031e-01 -4.897475176459849255e-02 -5.008648540310103314e-01 1.415180541042951323e-01 5.933730500907983263e-01 -1.029909054726647621e-01 -6.240189863405487536e-01 -6.657852271075170858e-01 -9.640528664385032975e-01 -6.417726793925975226e-01 -3.430807390105302113e-01 -1.894492855421167632e-01 2.195387420665427247e-01 9.426443526093866154e-01
-1.903101238822530183e-01 3.959801275088913886e-01 7.527391281699095937e-02 8.354912844256194571e-02 -6.057235380982869399e-01 6.708637560238400743e-01 -1.003168674881674410e-01 2.923206330718443602e-01 1.978321567962820493e-01 6.419436879357575121e-01 -2.177045389011333099e-01 6.489124895269834381e-01 2.510734590492488816e-01 -3.236130639349160121e-01 2.821053774552140583e-02 1.804574466358462581e-01 1.873096983399565596e-01 5.679160422028336486e-01
1.703152089641870870e-01 -4.040485203405453363e-01 -7.889043542484664995e-01 8.166363340542525107e-01 3.482502607937338346e-01 -6.049427511271806557e-01 -5.538412570541187963e-01 -3.226063158945840503e-01 5.047190803305393603e-01 5.647864064632716063e-01 1.565693501292440282e-01 -8.741354779715103662e-01 6.540171046006951761e-01 -6.213361598282892556e-02 9.822575625603341409e-01 9.666834234392019942e-01 3.322858829304015660e-01 1.539014071461602129e-01
5.696051929555803195e-01 1.626391794279960223e-01 7.966374131214748466e-01 -5.414101574228593616e-01 2.071298220460846828e-01 9.324425936367450873e-01 9.551319367603157140e-01 1.835372730675670916e-01 -8.095739410128490743e-01 -3.432022140161890555e-01 5.052199264989181149e-01 8.650775133849073484e-01 4.659418573588133827e-01 -5.862366905402438544e-01 9.966743869442387105e-01 7.561219245351797902e-01 6.204336993447674420e-01 9.860969750517573074e-02
5.360929348562782915e-01 -5.440695287690479331e-02 -1.907272905161842835e-01 4.078647640397948804e-01 -8.760817054369917090e-01 -5.729762986614569398e-01 5.623528759626795770e-01 -8.394266824431216856e-01 8.524676665209914850e-01 -3.107494443370325543e-01 8.478276015923577047e-01 2.691932435572506194e-02 -3.789864645073254268e-01 -9.598598161170671661e-01 6.177256434017314168e-01 -6.285767549861915812e-03 -2.876984352981198922e-01 5.455630597344977017e-01
-7.119951613289484671e-01 -8.407566654636892123e-01 -6.697677253414314746e-01 -5.668986825453229406e-01 -7.167205308760150606e-01 7.375765611658865462e-01 -3.065792114425644477e-01 -1.884104622218583380e-01 6.346265010769779336e-01 -5.557962089677525030e-01 -6.575845988988794355e-01 6.267383283709494490e-01 9.482410449026995591e-01 3.244539431389897310e-01 5.631518059774974772e-01 -3.723776228018637613e-01 -9.399418919557464003e-01 6.509821893742749888e-01
-8.475139854450326471e-01 2.867560132841251441e-01 -2.714058727541743821e-01 -5.891413613221501561e-02 -6.715998276384318455e-01 4.892683343214738745e-01 -8.471177934124050068e-01 -4.263529091522093584e-01 9.027955565604122157e-01 4.032763495416880062e-01 2.570797505310540298e-01 4.494567300502774199e-01 1.945774431979553354e-01 -6.652574836542307288e-03 8.354989735046864929e-01 7.827802564702766031e-01 8.470554382378763236e-01 -3.792292708647693189e-01
