7.843332516548202626e-01 -2.762333770968777857e-01 3.106464765507312986e-01 -1.016046014468255043e+00 -7.680724072766988986e-01 8.038788216565082578e-01 -5.774266528883176264e-01 9.205343083587160802e-01 -2.261206760137363103e-01 3.239632116692185981e-01 -5.149189541788334878e-01 -1.296150624921428574e-01 1.035258181326008109e-01 -7.603047096612516320e-01 -2.437513157848277823e-01 -7.938722925557453181e-01 7.138369794682697389e-02 -1.759626987251080577e-01
8.320177245161860524e-01 -4.635415238641348856e-01 8.989572134267574954e-01 -6.215973764317191952e-01 5.576839689897371555e-01 -7.937535169163442150e-01 -8.615539015304055637e-01 3.546356107678752534e-02 2.483133343385512948e-02 -7.729648034203865370e-01 2.817028061750981860e-01 -2.815737115445801630e-01 -2.657259267522293356e-01 -7.305209022628239568e-01 8.270076853643074655e-01 -6.589414157362593061e-01 -6.326693902919767742e-01 6.705475600788862733e-01
2.325282205560178506e-01 -2.387326901468419527e-01 2.269227927844522652e-01 9.407203019321204174e-01 -8.502380281374080084e-01 1.435763724352839832e-01 4.056007553550794453e-01 -3.250652957592964354e-01 -1.868252081586950775e-01 -6.001671385568743133e-01 -2.048231955566223172e-01 7.415877637167720415e-01 9.161264653583967021e-01 -2.785405246591422523e-01 -9.347166706918917656e-02 -9.405742248513042636e-01 -6.401396595262409672e-01 -3.268389079406816000e-01
-4.319194051512871835e-01 -8.976805276001383893e-01 4.718272199176031800e-01 3.951002203314861183e-01 -6.512101321986262237e-01 9.611017950997319259e-01 -2.699119606926652648e-01 6.503054087172924769e-01 6.175422874610597690e-01 5.117132272770296142e-01 -1.977344581953559555e-01 2.626466688106054437e-01 6.216230355459327894e-01 -4.983718201968746486e-01 -1.661811368327350547e-01 -3.517464983113845478e-01 7.546368312860792793e-01 -5.140276497836745451e-01
-9.293910055169044560e-01 6.772603024580458042e-01 -5.737911808408818065e-02 2.702189976026293447e-02 -7.042681250820760352e-01 9.587496171874200224e-01 -5.137364662733071574e-01 5.011807483654432405e-01 -7.412138254276655625e-01 7.971931557887829145e-01 -6.869509619318433513e-01 -1.742083546068174671e-01 -3.009513452429772307e-01 8.105851406813876503e-01 -3.702427146073776210e-01 -6.710045218885550833e-01 6.662340558235476662e-01 -2.091737503291953570e-01
-8.301959190341500205e-01 -3.179669473875028629e-01 7.929114147657373435e-01 6.103611592482279802e-01 -3.190621454829434267e-01 3.772925556542983117e-01 -2.751129119811339674e-01 2.030815600081039562e-01 1.082901785498081804e+00 3.223359453686693299e-01 -3.295246478661155720e-01 8.296788884935059061e-01 8.697239247814406715e-01 8.318782260341585078e-01 3.859194359656348272e-01 8.524005601416653755e-02 5.344714341141005853e-01 9.720287160401012150e-01
-8.335220862806839159e-01 8.639860651894323285e-01 9.062598970163245893e-01 1.964133330284472123e-01 7.055722869785278073e-01 -4.466308080835596495e-01 -5.542823238023261156e-01 5.409920625155052454e-01 8.318153870084444845e-01 -9.823232494671886306e-01 7.959244025483592777e-01 -8.320923580120608287e-01 8.379064778545035341e-02 -4.283560386696749211e-01 1.562154042415464517e-01 -4.510491218834610794e-01 -2.586564159812327346e-01 -2.885157061486904317e-01
8.957041451567679391e-02 4.990618672106365006e-01 7.730418006538687381e-01 -9.314481172457399483e-01 7.484768407389194023e-01 -3.288459048726876111e-01 -8.185398036478549466e-01 -2.208247818055009970e-01 -9.539065378519853700e-02 -9.395910490043740682e-01 2.126268986627800894e-01 7.037045397526381363e-01 -1.679535501907598177e-02 -4.709763071307814242e-01 2.070080948085516875e-02 4.041968121408917591e-01 -2.286113242142649715e-01 -1.648700269093366921e-01
6.860694130070235097e-01 -3.395346385915021248e-02 2.902667927232783773e-01 -2.155837876634536521e-01 7.360647095712105070e-01 -5.538916772281232692e-01 -5.953354774068904121e-01 1.003615833645940203e+00 -7.055831426913889981e-01 1.009446127683639505e+00 -8.260721598380844632e-01 5.452323923259041472e-01 -6.066217767979227293e-01 -7.973035934391971280e-02 -6.154685571049054449e-01 9.368440949872256507e-01 4.149931328494108063e-02 -6.424800315165779541e-02
7.639287226358864036e-01 3.686241547979530186e-01 9.922780549949281603e-01 -7.038005096186989995e-01 7.038200507718184173e-01 -6.437897924599136346e-01 2.930690284509654409e-01 -7.120511082922582613e-01 5.269462542145788575e-01 -8.993215853878893107e-01 -4.928087494379697620e-01 6.724215838254434807e-01 4.687218286024508740e-01 -5.390462187532452099e-01 6.885008279246347396e-01 6.495205108661012972e-01 7.486326908610878572e-01 7.525655077986670438e-01
-4.577779154192743727e-01 -2.684818466035238105e-01 7.360557211956254564e-01 2.615657332940385382e-01 6.919875696804650422e-01 2.267370743048552628e-01 -7.930230267258084331e-02 7.703317157593770892e-01 5.218167524008868741e-01 9.178305656130786305e-01 -9.099327710992010099e-01 -1.635990597593269535e-01 -4.056951475701379151e-01 -5.188528838577305402e-01 2.718225731701727765e-01 5.390576513184920371e-01 -4.982122322469330067e-01 1.217746554737844135e-02
-9.604781031498285104e-01 -7.910316666321368095e-02 -5.597695628268829493e-01 2.907306180375037186e-01 6.972166367340554283e-01 7.032326012534076964e-01 -3.284349102685074073e-01 -7.152276382303343061e-01 4.146500486548760356e-01 8.552750754879091533e-01 -8.279816261375364528e-01 4.254362614504027529e-01 -4.293110849044806110e-01 -4.007306519133578271e-01 -2.733827533084586814e-01 3.379097526550753350e-01 5.198297623199120698e-01 5.862721439482203312e-02
-1.606108609855246283e-01 9.710828557929266358e-01 2.494658066304424326e-01 5.392806394096489875e-01 1.616099340127014339e-01 -6.703992770152688019e-01 6.186984675463679251e-01 -7.726851682753618222e-01 -3.118615701351924452e-01 -6.668038232007932331e-01 -3.255051164867900360e-01 -3.676606128264333639e-01 -8.812947530770615101e-01 -8.304953678368657277e-01 9.348253995957224172e-01 4.375610568221063312e-01 6.805333513092398645e-01 8.896388527265502999e-01
-5.888352955144435796e-01 -2.848749013063407443e-01 1.147288744609920724e-02 -3.161515700837000953e-01 8.182300666222948049e-01 1.569277156442726306e-01 6.274087451841086072e-01 -1.964387613673363175e-01 -1.005425927166063937e+00 9.174313334252077734e-01 7.916304450107483071e-01 7.815812152135281909e-01 -3.936217671704096421e-01 4.506208529038076005e-01 6.814096059664174199e-01 -3.557155873620077013e-01 9.543768977526974062e-01 6.566245995737616248e-01
4.747868452546400997e-01 -7.964836751317345698e-01 -3.268328751475607641e-01 -9.415624401791846676e-01 8.740258144496220183e-01 1.003981636033499103e-01 -5.536821080478659951e-01 -7.320827387062196490e-01 -3.250868286669365004e-01 2.036721325465748814e-02 -4.270000353419353134e-01 9.286856357400867790e-01 6.937923616760865997e-01 -7.134402736652385446e-01 -5.498813829720747837e-01 6.633243164499018629e-01 -1.873558746039649114e-01 -5.406721352804384484e-01
6.626118043154641812e-01 -9.607043122052428830e-01 2.931879656439488890e-01 -5.952228022506081961e-01 8.207168733520254778e-01 1.003274103834350672e-01 -7.672380218294548859e-01 -8.878491894963286279e-01 3.050537462834437274e-01 6.665902096553719125e-02 6.945383347399102826e-03 -6.400726037500464871e-01 -7.274754254023890754e-01 -3.370567447086876278e-01 8.791173360713894214e-01 8.455368305023857056e-01 8.002608593528216518e-01 -5.459330650586283751e-01
3.121834894034980902e-04 -4.147152338210279288e-01 -9.023845658075462239e-01 7.836419699359966629e-01 8.995978710774066300e-01 7.254815241350915933e-01 -7.301312970363134092e-01 -8.607403023411728249e-01 -8.418688790394210919e-01 5.077302505838343638e-01 2.823327421255578118e-01 4.544577853154526670e-01 2.050945048793493750e-03 -7.635297506414773228e-01 -1.858485033395128327e-01 -2.767602714907867467e-01 2.741640793234926265e-01 -6.139461489409057116e-01
3.247502370911538594e-01 7.535965571351157521e-01 4.237820623858170044e-01 -8.843154823940051479e-01 1.137881986518885780e-01 -7.397586276497698510e-01 -8.029368821333155992e-01 3.738253083306927738e-01 -4.830784425760124567e-01 7.267230640757618154e-01 2.465457762785139562e-01 -2.295409510956223850e-02 -3.853717359417872523e-01 -5.597046475160678547e-01 8.149849825462618380e-01 4.023399637661328465e-01 -9.375927165095900850e-01 -3.140149335474178849e-01
