3.288266063111877080e-01 -6.207227525778357125e-01 -5.032452091453948340e-01 -3.741866847603976809e-01 -8.084744175824517542e-01 4.095842494993102156e-01 6.554501851761994624e-01 7.146932342483226508e-01 7.085017893244175413e-01 -1.112147972501881937e-01 -1.135821833559822053e-01 5.569334175978707391e-01 9.436122142408757130e-01 6.412799159181924447e-01 8.185216572386343481e-01 1.240274100203653945e-02 4.355769683159491090e-01 7.781111571573257057e-01
4.939954369433989800e-01 -6.151782608258485330e-02 -1.327299658181267661e-01 -6.488869442125736464e-01 -9.834371778124161301e-01 -8.639825856915889224e-01 -1.087755743971049738e-01 -7.852518687900874594e-01 -2.919610241162029149e-03 -5.136193851143872058e-01 -8.321735410481437833e-01 2.916064504664976909e-01 -5.448462926443787824e-01 9.315662796073728158e-01 7.456593549486957295e-01 -4.842236555812724497e-01 -8.385341001400740124e-01 -3.258000134783864965e-01
-8.054155501977369180e-01 -1.296806409043473399e-02 5.075123481156638139e-01 -1.841961705354264733e-01 -7.763545395649659731e-02 9.184855874192101588e-01 -7.984667865387915509e-01 3.726044946473587305e-01 -2.126466008831464638e-01 2.655224176756242893e-01 -7.411164817560373930e-01 -5.719442792122644281e-01 -1.000134582029660046e-01 -1.753310056883554680e-01 5.698452859664486780e-01 -9.528489305414649113e-01 -3.795199691816491527e-01 6.868583828003185232e-01
4.121348204849041852e-01 7.575848645414484661e-01 9.254634643908270508e-01 -1.513186231605202076e-02 -9.152666078047830833e-01 -6.735837448332357980e-01 -6.428042660517825357e-01 1.188114312979859089e-01 -8.787977235622106420e-01 -1.027601618548082685e-01 -4.809621470084025074e-01 -1.831119405297383738e-03 -1.965037231558853237e-01 8.414789119294432407e-01 -4.115522056358933978e-01 4.095812518691543391e-01 6.578365396535679199e-01 2.962216036104780570e-01
-5.561380049605102460e-01 4.614061540922249904e-02 -8.542375604847536330e-01 2.502390884197192022e-01 2.003485578369861575e-01 5.332910944387714292e-01 9.718951542606943939e-01 -5.102890450999331140e-01 -3.556346050993008934e-01 4.874223601456064703e-01 -9.319848364250872541e-02 -6.381484068105387486e-01 -6.336590179471092432e-02 9.235208578106057775e-01 8.368037579674729720e-01 -9.139453460551985042e-01 3.421625933163028321e-01 -5.210345110854718541e-03
2.026961111416366590e-01 8.304562511395248148e-01 -1.649343140318014767e-01 2.046360522755866773e-01 -5.198941954171698576e-01 5.862455413730363052e-01 -5.110177727185081231e-01 -8.543380203389392413e-01 6.975106100314567570e-01 8.840504040830554633e-01 4.563230638099597392e-01 -3.730302757483932585e-01 -6.050958563307267113e-01 -8.449534614530112009e-01 9.654045061839835462e-01 -4.983334853622776728e-01 4.272896108601721976e-01 8.119772512412672949e-01
-2.201340587584664221e-01 -6.974283164719933259e-01 4.098211751048638218e-01 9.928767371351164828e-01 6.796595776359796170e-01 -6.086909087148187902e-01 -4.711732231904398605e-01 9.582063691389458571e-01 2.264571547365514248e-01 -5.685432324014131344e-01 -2.109265858730634616e-02 -2.675646099511134191e-01 3.896684302815068834e-01 -7.913293414205556653e-01 9.127232008394735585e-01 -6.317933836520753244e-02 4.715111637883205864e-01 -4.242355337292830209e-01
4.789112598421979006e-01 -4.817888932485100972e-01 5.987418501552036476e-01 -1.233146968659346865e-01 3.129718912497053140e-01 -9.344365826139998665e-01 -4.248012659517483303e-01 8.537293920009344506e-01 -6.690072888515113947e-01 3.391642014729712717e-01 8.639947966462780959e-01 6.415226155215790760e-01 -9.166436829854863744e-01 -1.517325818439662910e-01 8.639316653011725605e-03 -4.512323131728614434e-01 8.474140536231132836e-01 -8.297502163058692592e-02
-3.343541540247697008e-01 6.836710470247839844e-01 -7.913843750986131187e-02 -5.439017926334570596e-01 -9.970033960974562515e-01 -3.429227134618933470e-01 9.638128426457077680e-01 9.241605030416784050e-01 5.167312808927091439e-01 -5.971569134856371530e-01 6.760639852504353176e-01 5.662402381635840420e-01 2.228269317708872488e-02 -5.194604816500316691e-01 4.756928065846801647e-03 -2.800728052119423883e-01 9.090597996946403470e-01 9.242052128291684820e-02
-3.252132969306130161e-01 3.670451344543576577e-01 -4.861937906746734428e-01 8.515909153187443126e-01 -6.097373922917915801e-01 3.766931199604070524e-01 2.979476761366681159e-01 4.228111985697477482e-01 3.975906382588897947e-01 -5.641314199901877741e-02 5.785370020661561030e-01 -2.189117159440217009e-01 -4.023935395501737067e-01 -9.998620606846807535e-01 6.164444788505617501e-01 9.485068231634047331e-01 6.212602945189585890e-01 2.834602753767627159e-01
-1.115300827742786438e-02 -7.857852721996777534e-01 6.036816404494006472e-01 1.623953615208816592e-01 1.384504405751826595e-01 -2.082458260903682079e-01 7.557176690396923135e-02 1.103393132000305005e-01 -3.289739911166876807e-01 -5.147526664621392412e-01 2.796057933984791299e-01 6.846225371465996037e-03 -6.495171768248398925e-01 6.412403253334378883e-01 9.054566919841048334e-01 -3.798826266746754277e-01 3.222712883431039232e-01 6.512235314698689992e-01
3.464678687444995853e-01 9.395570204533597591e-01 6.096732814230364506e-01 -1.666640752442951623e-01 -5.783084774525825145e-01 -5.301465716897143521e-01 -7.135328015551199998e-01 2.228824940312574832e-01 -8.535472135148761685e-01 -1.170483575060130422e-04 -7.366653592251032334e-01 -1.282908389614632050e-01 -5.717776444257064439e-01 -8.971729449075521723e-01 5.938567485684352887e-01 1.131519404377952925e-01 5.250199071033435638e-01 -9.619418786157488688e-01
-3.651402268833686682e-01 -9.074011878054202285e-01 6.758694017328934489e-01 3.084853031781026322e-01 2.198422130887118797e-01 5.544262476107681969e-01 -2.486242747263929243e-01 -2.178903189944074725e-01 -6.164573532600305938e-01 1.795276220108750209e-01 6.943817553815360977e-02 7.861766063810435856e-01 9.848192463207934289e-01 9.002189763395413991e-01 2.930512332240445827e-01 9.108612687694197518e-01 -5.690468600858165082e-01 -1.752102449687973837e-02
-1.360211634645363543e-01 -6.716816965701069009e-01 -1.942379740875981864e-01 5.443660556694027708e-01 4.232311717505047310e-01 -5.787840928496179593e-01 -5.450075766660251730e-01 -7.828629904519821547e-01 -5.781161797559410953e-01 -8.939480213688686394e-01 2.253713007228285714e-01 -6.809167287221193909e-01 3.549838026305977001e-01 -2.345792321748523812e-01 -6.421299380567638271e-02 -8.904772626145551762e-01 3.537050850218240727e-01 -3.490948520088120732e-01
8.035274077682169613e-02 6.157550002889976559e-01 6.066872967084285806e-01 -2.996701048707521853e-01 -1.520090155955532152e-01 5.317000761851785329e-02 3.406473072807432168e-01 2.858428900403653383e-01 3.586404667095741683e-01 -3.420662425673568485e-01 9.056125740262183088e-01 6.101342518653861680e-01 3.166215929113627148e-01 -3.779919027350987781e-02 -2.833506728525569951e-01 9.742183182817910625e-01 1.539692578017778646e-01 -8.582924388732641185e-01
-2.153521590376215877e-01 -1.072046783405298104e-01 8.873128493563188224e-01 4.619684582499338221e-01 6.375055484324378130e-02 4.785231925091789629e-01 -9.269564588183049070e-01 -8.702049029395083624e-01 4.732807087134817126e-01 -7.046285374968773718e-01 -3.258736924202719765e-01 -2.490557550836962619e-01 -5.496731554221075955e-01 3.377494151605483497e-01 -9.738183300217723160e-01 -6.953740827774322897e-01 7.039634520160543696e-01 7.940089154502197877e-01
1.595539721921488963e-01 -6.381975745405197298e-01 7.791777419525856008e-01 -7.275039118712960384e-01 -2.287323815806636129e-01 -8.001172354267629405e-01 7.422093730614856000e-01 -2.900958439942520339e-01 7.647797973572212360e-01 5.676571088515973695e-01 9.017822304235125763e-01 3.016716893160182877e-01 -9.637988985331495950e-01 -4.977756054264843577e-01 9.240600126935252234e-01 -4.117352350854457388e-01 3.013136100513671423e-01 5.013730594363470239e-01
5.912106944996701197e-01 6.942842478698126873e-01 -3.389497359390128972e-01 -9.315705587442674185e-01 -2.120022837227634460e-01 7.992555826332671254e-01 8.126311510939493443e-01 2.508604226276204274e-01 8.115680219405628781e-01 -9.324035549747814455e-01 -6.899534371660712706e-01 -9.009234745948936363e-01 -8.963630921707178567e-01 3.898233305301338492e-01 -1.090382857222424312e-01 4.740097573324019153e-01 1.977190202078014589e-02 8.321100621403308972e-01
