-1.072902961128182203e-01 1.866882258230382480e-02 6.415336290644424455e-01 -7.945157210940778647e-01 3.667857288190530807e-01 4.387265654069699150e-01 8.060145158475875427e-01 -6.553338104212906856e-01 2.943676243423412608e-01 3.878710310474685063e-01 5.434826954124128556e-02 -9.505163156536324820e-01 1.764346964028405407e-01 -1.541483604800374940e-01 1.408615968264513296e-01 -5.715419891202688091e-02 -3.777717779396636000e-01 5.901508792098268952e-01
-9.617387323831640966e-01 1.886203076720036065e-01 8.750694887664405286e-01 5.130378437666220925e-01 -6.453498480707768881e-01 4.531725735613942874e-01 -7.307265032965049034e-01 -7.874103782327999124e-01 7.394813885951039278e-01 8.643548576829969132e-01 -9.305795715443883065e-01 -3.478466057987259497e-01 2.254010954864673066e-01 4.974436870587389814e-02 -7.873978116940274496e-01 -9.826802488319412721e-01 2.822073272131202515e-01 -3.395113348552933896e-01
5.199572036317289259e-01 -2.796693136381184219e-01 -1.760925521291431817e-01 -8.468198366440161939e-02 9.324091306371523613e-01 1.703954137283714421e-01 -3.942732122958706453e-01 -1.507120720591987595e-01 7.362736819856706694e-01 -7.542184102882089347e-02 3.259237698430083041e-01 4.569163702405375505e-01 1.164967386116880499e-01 -7.439177454113654608e-02 5.791517451171327435e-01 4.090214931920744812e-01 3.825894309034340024e-01 -5.971558371397150955e-01
4.526469497721520296e-01 -1.023711587787047850e-01 3.934076724967203176e-02 3.682954664700693881e-01 -7.981476753536687063e-01 1.593804739591902775e-01 4.342446805158693968e-01 5.754117595592633805e-01 3.575172888926750892e-01 7.562875454789077523e-01 -3.093532924102971871e-01 5.455495847576581347e-01 -2.362596835332714529e-01 -4.619514893028949798e-01 4.873419018800845270e-02 -6.625217306250519300e-01 -5.249860025788226636e-01 -2.369791299638843718e-01
2.517721406403393702e-01 -1.616348635316828541e-01 -7.402086339513748170e-01 8.690450299114315102e-01 9.453088991915762351e-01 2.073423458536030328e-01 -9.818756049748914583e-01 -4.169249126561432872e-01 -9.486466644814713911e-01 -3.282077479706871914e-01 -1.937795118288205554e-01 -1.897815987186401709e-01 9.841830235924201586e-01 -8.610772630596862376e-01 -7.216338804435477039e-01 -5.548169843797191580e-01 4.142822062210110845e-01 -5.507513198703798407e-01
9.133484539233458488e-01 -6.988434571438620346e-02 -8.633591130262103785e-01 1.621819928354422957e-01 -4.029212966921225658e-01 -8.961124380813858536e-01 8.873431054780895888e-01 -4.080171816772822369e-01 7.431508884334239173e-01 -7.954094743857775818e-01 -6.993846128095380088e-01 -9.854704311652304760e-01 -3.089273843834812738e-01 -5.990586982386665316e-01 5.893352841506065420e-01 -8.599565662375088237e-01 9.006617452779892563e-01 -5.081529005415736933e-01
5.757165960031255247e-01 -4.413387847484570026e-01 -8.052210575805577308e-01 -7.984432620259248603e-01 -6.440762560424145855e-01 4.532685642991717279e-01 -8.389962601794630492e-01 -5.931944106741809941e-01 1.290127732253935344e-01 -7.341201466449335244e-01 -9.460970272859171581e-01 9.214294918844901927e-01 -8.787492848148418245e-01 9.331954438676693941e-01 -9.449231864046218066e-01 -1.337258603009755242e-01 -9.795493150523727488e-01 -8.826601409644262430e-01
-9.378630649403182362e-01 4.184347364409395365e-01 -6.133819822865885785e-01 4.064998315033179210e-01 -9.026551542043440568e-01 -9.739903542330868857e-01 3.611424409527301815e-01 9.221113742691632309e-01 5.361163928976030446e-01 -9.228474864143553225e-01 7.425339674065981610e-01 -1.779925773413197354e-01 7.499757091294859679e-01 -3.955425342903753361e-01 -1.964030910475970670e-01 6.682965658064051739e-01 -1.165563907291668200e-01 -7.353368531907450434e-01
-2.687297256521186672e-01 9.709279754772195403e-01 2.018502134020423444e-01 -5.899061092399981998e-01 5.086622780922561010e-02 4.475046994801663014e-01 -3.182625397458392347e-01 -1.552592714637782839e-02 -4.685016922294611003e-02 9.010411198186558668e-01 7.188771832439094789e-02 -7.812410362850757961e-02 2.406771328865198178e-01 -8.964828154191026854e-01 -7.137534553657637337e-02 -7.413771770902244374e-01 -8.139770811678894713e-01 9.341208294634633091e-01
6.976574656986066492e-01 1.667858076233415948e-02 -4.062086805469853346e-01 -4.024337917056417524e-01 -2.174352315104110256e-01 -5.922441252615447960e-01 1.523061131064365747e-01 3.662769864598329483e-02 -8.691454544845357288e-01 5.756048456594088369e-01 -1.197544069879786025e-02 -9.169999465884909329e-01 -9.339460210444575639e-01 7.172109155824163418e-01 5.213918061529859704e-01 -4.777088599201979591e-01 2.653008635060341014e-01 -7.027923664143177485e-01
6.424625300493145286e-01 1.723336706797148621e-01 -6.509760239434463427e-03 -2.732798001614807348e-01 -2.616807353324564489e-01 2.718313832245373152e-01 -1.713526982476254110e-02 -1.180949758147705336e-01 -4.864239885958908105e-01 5.874586169919164824e-01 -1.376062234292841635e-01 -1.907509765216402753e-01 -7.675593345601257056e-01 9.853317803517276374e-01 -3.792367007098969567e-01 -2.390357980901683735e-02 6.510972198442503966e-01 7.316099303778156315e-01
-7.498650493882120793e-01 -5.459564173681056287e-01 2.530700313868536333e-01 8.988752441913349100e-01 9.539667129516593569e-02 9.352607064166899020e-01 3.589792362822989413e-01 -4.331374733563413959e-01 6.835977534106975062e-01 1.231691015159932512e-01 -6.342002338587963139e-01 -9.382641214266748131e-01 4.924719725937892062e-02 6.828055519580150667e-01 5.310972497075262533e-01 -4.182696321776075560e-02 -1.288741964127750328e-01 -4.829708547858644896e-01
-9.203695762802792668e-01 2.799977129176743351e-01 -1.459057471785626670e-01 -5.566136273598718542e-01 -2.111970010954241916e-01 -5.078434060144234596e-01 -5.370301733898410479e-01 8.482051969586805740e-01 -9.004524956599073704e-01 -9.754377650118024601e-01 9.053554059671096166e-01 5.536898885867257147e-02 -5.106523738801009848e-01 2.879234964590156598e-01 -7.058431702066070290e-01 -6.940893353226176288e-01 3.873404239976468433e-01 -9.856936357055126052e-01
-4.976239344055590208e-01 -1.113179602902344550e-01 -1.143530653837811079e-01 3.673526093354418376e-01 1.537104974058142171e-01 -5.481508898855577128e-01 8.201444600565327425e-01 1.000575756030840230e-01 -7.436697947808607045e-01 -1.156621387898714298e-01 2.459326882274307513e-01 -6.015708532070195291e-01 -8.756486660695149693e-01 5.417570099676679574e-01 -5.948865922740304013e-01 8.195481368481346562e-01 -2.462751807211066568e-01 2.381415831118128823e-01
-1.004767750839333368e-01 9.937552915138863074e-01 -7.131374226938906880e-01 2.369128161251097264e-01 -6.219036438454312865e-01 -1.820724638159798570e-01 9.326675262282682066e-01 3.323610631673867138e-02 -3.215370592421450957e-01 -6.200339210003387169e-01 2.500140897198768752e-02 -4.424417751671606142e-02 -9.477727854969693055e-01 -7.777593635669950711e-02 9.174934476860279187e-01 -8.737492659052790156e-01 3.676317090241590368e-01 -2.029380317678211032e-01
-5.341908609178956935e-01 9.606820840619628710e-01 -2.772334803004123382e-01 -3.801108262674186000e-01 8.523617744280994613e-01 1.181045731937041682e-01 -3.466432597192951603e-01 -9.883264175860099199e-01 5.641781861516895757e-01 -7.687240723918989938e-01 9.144026783479869414e-01 7.590762486683929611e-01 8.625189452513511990e-01 3.643939450444160788e-01 8.448346504717570982e-01 -4.155682610830783719e-01 9.907298249947943392e-01 1.317011414065078767e-01
5.897773519348040727e-01 5.889568338492184862e-01 6.148991139027505382e-01 8.755872920115338465e-01 4.538573136971881250e-01 -8.543108538797209439e-01 -4.453495517240749213e-01 -3.422962004707355566e-01 -5.633676155094294868e-01 -7.669072819196919300e-01 -2.446562528516526280e-01 1.186183961776294676e-01 9.293238937040372294e-01 9.668170290343526263e-01 -6.060007516853153087e-01 -1.802006539818880315e-01 8.843768719405896706e-01 -1.421269257394516539e-01
8.893237378167165863e-01 -5.789537875521716392e-01 5.826799048677872017e-01 4.969014691234894809e-01 -2.556776955461739220e-01 -9.277497464624556711e-01 -4.804416454279248905e-01 -6.214319581992303609e-01 -1.601537686631537560e-01 3.749573149206094635e-01 -6.575449663996321137e-01 -9.708116590617117680e-02 -7.475364419414737283e-01 6.075760299250948515e-01 -5.842188338293651251e-01 -5.994020344206739681e-01 7.624340504809857810e-01 7.601196042078924853e-01
