-3.636402262528697915e-01 7.147139744535065953e-01 -5.424819081484842931e-01 -8.084461079082684298e-01 3.421282683398635949e-01 -7.704747646258959248e-01 -2.634368517654770980e-01 -3.679759142313026588e-01 -1.005356039017374498e-01 -9.973252840627250260e-01 6.356164994892049558e-01 9.598650601730943643e-01 5.370199923224056038e-01 3.561254814808604841e-01 6.471999139656817723e-01 9.502245007906308105e-01 -4.408885195690704362e-01 -1.821049061672489755e-01
-4.891084066066306302e-01 2.238706845274362200e-01 -7.263437054357063660e-01 2.698131165201276827e-01 -6.897308253557071778e-01 1.390319185336229800e-02 9.538764075557873423e-02 -9.182886890976502126e-02 8.756236733553438567e-01 -8.143113101881428451e-01 7.370845694374009716e-01 4.720242466266540426e-01 -3.743967363592451414e-02 6.817728176488727643e-01 -8.137978720193178583e-01 -7.546677995809191186e-01 2.560917961272013987e-01 8.950888255405239358e-01
-7.275829205840892433e-01 3.395626137669507383e-01 6.111336329497660258e-02 1.309512636299682009e-01 7.052502394042833300e-01 -4.530680003189280214e-01 6.365878904441367725e-01 -8.002632503761483163e-01 -6.085269672666578922e-01 -5.643141645363244363e-01 8.724108343086606210e-01 -3.561991059100815260e-01 -6.370764978125434963e-01 2.623443121365054420e-01 6.341667918847099239e-01 -5.019519475722361568e-01 2.466864882477111942e-01 -3.192104393943138163e-01
3.678147764131049074e-02 1.790339743686666929e-01 -1.653219074534961197e-01 -4.019629400908510952e-01 -2.391418425545048243e-01 1.520816011147068658e-01 -6.355845002014235412e-01 -5.004069423391018651e-02 -5.582046138676637348e-01 4.095530227956976077e-01 -4.286874684021009241e-01 7.814203612630785667e-01 4.392737107017911230e-02 9.462486846689857067e-01 -7.139323489805764478e-01 -4.677746112235758869e-01 1.325136185625186980e-01 6.193763723475984584e-01
5.908691189782384612e-01 -1.836304067083313618e-01 5.231348122809056367e-01 5.641281709385932430e-01 -9.866763522444483847e-01 3.678406872628876556e-01 9.097420504959321530e-01 -4.103638992627649529e-01 3.627264674154615509e-01 7.098466685362530004e-01 9.847292806900713735e-01 -7.276922107276124763e-01 7.288627347262219835e-01 -6.576938216693823946e-01 -1.245547894135014821e-01 -7.343834266473156513e-02 -4.875127521056730195e-01 6.477987455503122494e-01
6.027233171138166590e-01 -2.343178596966098964e-03 -3.414488539583247495e-01 -7.634190980958412975e-01 -6.761879908329224698e-01 9.412322441792917438e-01 -7.979955140046621764e-01 4.203402561029154216e-01 -4.411121850383570853e-01 -4.206436144768888608e-01 -2.743072188980860138e-01 -6.449943304744076844e-01 8.557806994714702853e-01 -9.601913234608507874e-01 -6.319721074348396694e-01 8.534310528550055341e-01 7.398109612935237500e-01 6.885168131747783082e-01
6.126132062878268947e-01 8.639354285275935297e-01 6.954689938537077509e-01 7.904045033849078639e-01 -6.023769320051057807e-01 -3.856547021063652658e-01 -3.121284267049065364e-01 -1.469489810526159457e-01 5.186033591463896641e-01 -5.799037943630704905e-01 -9.223474197795078489e-01 1.238842492115064947e-01 -4.135418748398645428e-01 -8.015511561586456668e-02 7.095951683739900595e-01 6.394877165604035962e-01 -2.195322839872553833e-01 3.670803898380387564e-01
7.338476248390621848e-01 -7.642715367610448673e-01 -5.693201359418069707e-01 7.533650939896577477e-03 -9.492989004635044373e-03 1.170523676139185315e-01 3.228770668540754119e-01 -7.822928280276248980e-01 -3.908295007877696237e-01 3.945579840121447510e-03 3.995934954672776818e-01 -9.580130469073115662e-02 9.042921536740908817e-01 4.574022866849680180e-01 7.959469119545814486e-01 -1.614115424263974988e-02 5.823451628540208258e-01 9.144003003257252793e-01
1.825928978487891818e-01 1.860546345154854286e-01 8.838918216135416284e-01 6.804316642714871577e-01 -4.057157248200574107e-02 1.905073536878147955e-01 1.253081376579850137e-01 -3.289899853796767193e-01 9.652102716202615174e-01 -2.241814607604777354e-01 3.863850349620170377e-01 9.946568968620970175e-01 -4.096988004155326379e-01 8.255660114960552409e-01 -2.451832557210018582e-01 -3.120506989715821078e-01 -9.454865598943296146e-01 -9.637473783479904021e-01
-8.008686022109953173e-01 9.437314684354632943e-01 6.019667814118204729e-01 -3.509350648463562261e-01 -8.447760739405855146e-01 7.648505507620336763e-01 4.680501583962929507e-02 -8.164590946521533832e-01 5.398660459561649416e-01 5.666901407437064941e-01 -2.995671479070832754e-02 -4.607441002020781773e-01 -4.285011001100804129e-01 -6.695834908414245445e-01 2.863523028512114377e-01 -7.835120545407857628e-01 -4.480587027989952342e-01 -2.355800211013618639e-01
5.403308244992653664e-02 -5.486341943572604629e-01 2.256260155175880411e-01 6.666176568259895019e-01 5.840742855934389910e-01 -3.036222770045859595e-02 4.266595720004227599e-01 -3.839399694228983750e-01 6.934980388431505327e-01 8.327295420132022619e-01 -4.560574855774554570e-01 8.214100045648614623e-01 2.605928741927086567e-01 5.968749656129371806e-01 9.950274348429103410e-01 -3.261429863822930542e-01 -3.345646353107677995e-01 -8.851859353403962460e-01
-6.961904374170104770e-01 -5.483136337099758784e-01 5.634920218582339935e-01 -6.271660417889766137e-01 1.519689856711765596e-01 -2.992747540827457239e-02 8.623195655432223106e-01 3.672603646516405806e-01 -1.043053978996486691e-01 4.702790094696114309e-01 7.919806841471694892e-01 4.034854744558706852e-01 -6.750869716105234453e-01 -3.702425103935400585e-01 -5.409197135616132524e-02 -1.387457378930285756e-01 5.895226487026035134e-01 8.237624126060281993e-02
-4.944481257972846988e-01 9.597446027030245297e-01 3.769940623309085970e-01 3.196208803478969296e-01 2.969408804634815491e-01 1.539937285212828189e-01 -1.409950838987742150e-01 9.016378710659809226e-01 8.058731902151554660e-01 -3.583879829843200637e-01 -4.911037434260939749e-01 3.978118293134474959e-01 -3.717789579542084555e-01 -6.729095086106882118e-01 3.205228734878524423e-03 -3.039068685088327504e-01 -2.632268367503548534e-01 -9.979648817529243598e-02
-9.152995331318108940e-01 -6.230927550516253133e-01 -5.073421803399978947e-01 -1.704985761127662813e-01 9.336096000248080840e-01 3.295073464648365924e-01 5.892945900148661709e-01 2.563146354951897354e-01 -7.615375744049984741e-01 -4.402532351516372788e-01 3.403608047341795118e-01 -7.592662315695656305e-01 4.618181672245935676e-01 -4.899321248394326034e-01 3.352481925840198329e-01 -6.278275212116989079e-02 2.230910177261013205e-01 3.878369699818675631e-01
4.923923896763782726e-01 6.139789234987048233e-02 4.276434929018980285e-02 -2.924577583364242339e-01 -7.852537032048351184e-02 -7.232850936822776688e-01 -7.919031806273952867e-01 7.208213135982202147e-01 -3.285892470632593709e-01 2.032886100887972558e-01 4.350694901032315515e-02 -4.047070389844706351e-01 9.953248695927423562e-01 4.449725767701944723e-01 6.955313256964945623e-01 -3.270743726787119221e-01 -7.205834947125916434e-02 1.741101004073931369e-01
2.541333844444396833e-02 5.508745587048036185e-01 -4.383433376023148642e-01 6.238330801927427505e-01 -5.586228309522509594e-01 -7.498394649807138546e-01 -4.475189827442064838e-01 1.843539839401247549e-01 5.258991381569693147e-01 9.698731006001501953e-01 4.585107062561906699e-01 -3.995222373750328404e-01 -9.139762119563976661e-01 4.043656825546738109e-01 5.272620087629016350e-01 5.524735021715057037e-01 -7.128265645534110906e-01 -9.776220572595319958e-01
-8.237738425461432756e-01 8.427367678634536952e-02 -6.271067667605906282e-01 2.518713373253803067e-01 2.390379927745315269e-01 5.896385189099121460e-01 6.251846273530937692e-01 5.038461741381120573e-01 2.312063496822945874e-01 9.253570943633621093e-01 -8.223511568917120096e-01 6.359784218471572492e-01 8.490823261580873749e-02 -3.089499006040958284e-01 4.306823096703678577e-01 3.993646784471010514e-01 7.775242256122595341e-01 -8.704418509150096961e-01
9.070605045617308182e-01 -2.748911292018591523e-01 6.467043887344272601e-01 -4.481412911837009960e-01 -9.785931603234376830e-01 9.104479132898788407e-01 -9.595064367081178602e-01 -6.234279525763466445e-01 5.329241032799916233e-01 8.047324007945455548e-01 4.376150589253354206e-01 4.390532081229981017e-03 4.583522416403911781e-01 5.033342365584951850e-01 2.377514570227394763e-01 -6.731359677097776828e-01 -1.088218718008185648e-01 5.631506223483750961e-01
